{"meta": "lda", "coef_": [[4.770875669858685, 4.274338732463191, 0.045332592119218966, -4.279990234429526, -0.8115883261001569, -2.2541012772948186, -0.38742650728577066, -0.5112472795503211, 2.162693633578879, 0.651190867617831, 0.6887150238891842, 1.8997864849967803, -5.8892819188326975, 3.4474117257773997, 0.6763780039238145, 2.1796342491655, 4.814988420342679, -0.12716417382983725, 0.10453201239286425, 0.853812636155235]], "intercept_": [-5.1905762104040125], "explained_variance_ratio_": [1.0], "means_": [[-0.285324313650217, -0.09949645303967203, -0.043499525147628414, 0.14655275586551447, 0.05140095710509563, -0.11479121551417754, 0.0023661499596979367, 0.05778588965484428, 0.11941095591835922, 0.10577706289166881, 0.07795599666412531, 0.09285098119273984, -0.2021206665037038, -0.13892263703298607, -0.0815086391403743, -0.09365106463117116, -0.06858167510017434, -0.12812916489222675, -0.10470877393274908, 0.049022512767573384], [0.659243766488461, 0.8183784134412783, 1.1063335250022548, 1.0476765166835917, 1.6798016942079717, 0.8124183735340513, 0.0375537832007012, 1.3844649279563994, 1.5561256446816087, 1.4566593017698972, 1.2433606854038828, 1.1904958389170117, 0.6957646153413793, 0.6988079178557287, 0.7558873490064866, 0.793120070837329, 0.7412759109558934, 0.7542632230732588, 0.806018507232971, 1.2727382556044131]], "priors_": [0.6182003050330452, 0.38179969496695476], "scalings_": [[-1.353587014755017], [-1.2127101616751979], [-0.012861707636908082], [1.2143135989066107], [0.23026284807134204], [0.6395308597466216], [0.10992017518860275], [0.14505045337906292], [-0.613596794777179], [-0.1847550771660872], [-0.19540138492661752], [-0.5390050998698291], [1.670899868954156], [-0.9780954418928909], [-0.19190114069862396], [-0.6184031655289628], [-1.366102630413899], [0.03607886399672536], [-0.02965769481169117], [-0.24224267771951988]], "xbar_": [0.07531149122225231, 0.2509478910005891, 0.3955063826625202, 0.49060153287333147, 0.673123861814938, 0.23921712275487172, 0.01580077759772206, 0.5643115417974309, 0.6679481858427112, 0.6215434896316533, 0.5229071513380236, 0.5119314530539133, 0.14069166022006713, 0.180922633288023, 0.23820889370064885, 0.24491788439620235, 0.24062170422270662, 0.2087679796741584, 0.24300662421440689, 0.5162368101089393], "classes_": [0, 1], "params": {"n_components": null, "priors": null, "shrinkage": null, "solver": "svd", "store_covariance": false, "tol": 0.0001}}