{"learner":{"attributes":{},"gradient_booster":{"model":{"gbtree_model_param":{"num_trees":"30","size_leaf_vector":"0"},"tree_info":[0,0,0,0,0,0,0,0,0,0,0,0,0,0,0,0,0,0,0,0,0,0,0,0,0,0,0,0,0,0],"trees":[{"base_weights":[-2.185962E-1,-4.8661366E-1,4.7786677E-1,-4.955641E-1,-2.0263158E-1,3.0801687E-1,4.9648875E-1],"default_left":[true,true,true,false,false,false,false],"id":0,"leaf_child_counts":[0,0,0,0,0,0,0],"left_children":[1,3,5,-1,-1,-1,-1],"loss_changes":[1.5932251E3,1.5564453E1,7.3495483E0,0E0,0E0,0E0,0E0],"parents":[2147483647,0,0,1,1,2,2],"right_children":[2,4,6,-1,-1,-1,-1],"split_conditions":[6.353817E-1,3.7785158E-1,7.779167E-1,-1.4866924E-1,-6.0789477E-2,9.2405066E-2,1.4894663E-1],"split_indices":[4,4,3,0,0,0,0],"sum_hessian":[8.533E3,6.162E3,2.371E3,5.973E3,1.89E2,2.36E2,2.135E3],"tree_param":{"num_deleted":"0","num_feature":"5","num_nodes":"7","size_leaf_vector":"0"}},{"base_weights":[-1.530136E-1,-3.4066355E-1,3.346085E-1,-3.4586865E-1,-7.108163E-2,1.7610763E-1,3.469203E-1],"default_left":[true,true,true,false,false,false,false],"id":1,"leaf_child_counts":[0,0,0,0,0,0,0],"left_children":[1,3,5,-1,-1,-1,-1],"loss_changes":[7.809942E2,8.623291E0,4.567749E0,0E0,0E0,0E0,0E0],"parents":[2147483647,0,0,1,1,2,2],"right_children":[2,4,6,-1,-1,-1,-1],"split_conditions":[6.353817E-1,4.7479075E-1,8.384606E-1,-1.037606E-1,-2.132449E-2,5.283229E-2,1.04076095E-1],"split_indices":[4,4,4,0,0,0,0],"sum_hessian":[8.533E3,6.162E3,2.371E3,6.045E3,1.17E2,1.72E2,2.199E3],"tree_param":{"num_deleted":"0","num_feature":"5","num_nodes":"7","size_leaf_vector":"0"}},{"base_weights":[-1.07105784E-1,-2.3848477E-1,2.3429209E-1,-2.4531141E-1,-1.03779964E-1,1.2866677E-1,2.4385288E-1],"default_left":[true,true,true,false,false,false,false],"id":2,"leaf_child_counts":[0,0,0,0,0,0,0],"left_children":[1,3,5,-1,-1,-1,-1],"loss_changes":[3.8282715E2,5.6419373E0,2.3640137E0,0E0,0E0,0E0,0E0],"parents":[2147483647,0,0,1,1,2,2],"right_children":[2,4,6,-1,-1,-1,-1],"split_conditions":[6.353817E-1,2.8538853E-1,7.3720443E-1,-7.359342E-2,-3.113399E-2,3.8600035E-2,7.3155865E-2],"split_indices":[4,4,3,0,0,0,0],"sum_hessian":[8.533E3,6.162E3,2.371E3,5.864E3,2.98E2,1.98E2,2.173E3],"tree_param":{"num_deleted":"0","num_feature":"5","num_nodes":"7","size_leaf_vector":"0"}},{"base_weights":[-7.4973226E-2,-1.6966264E-1,1.5876041E-1,-1.7289793E-1,-1.1657967E-1,2.6007583E-2,1.6884917E-1],"default_left":[true,true,true,false,false,false,false],"id":3,"leaf_child_counts":[0,0,0,0,0,0,0],"left_children":[1,3,5,-1,-1,-1,-1],"loss_changes":[1.8890231E2,1.0229797E0,3.2916565E0,0E0,0E0,0E0,0E0],"parents":[2147483647,0,0,1,1,2,2],"right_children":[2,4,6,-1,-1,-1,-1],"split_conditions":[5.344292E-1,1.999066E-1,7.6761293E-1,-5.186938E-2,-3.49739E-2,7.8022755E-3,5.0654754E-2],"split_indices":[4,4,4,0,0,0,0],"sum_hessian":[8.533E3,6.073E3,2.46E3,5.722E3,3.51E2,1.74E2,2.286E3],"tree_param":{"num_deleted":"0","num_feature":"5","num_nodes":"7","size_leaf_vector":"0"}},{"base_weights":[-5.2484594E-2,-1.18778154E-1,1.11156024E-1,-1.1996322E-1,-3.584763E-2,-2.9001465E-2,1.1766375E-1],"default_left":[true,true,true,false,false,false,false],"id":4,"leaf_child_counts":[0,0,0,0,0,0,0],"left_children":[1,3,5,-1,-1,-1,-1],"loss_changes":[9.2592766E1,5.926361E-1,2.2481022E0,0E0,0E0,0E0,0E0],"parents":[2147483647,0,0,1,1,2,2],"right_children":[2,4,6,-1,-1,-1,-1],"split_conditions":[5.344292E-1,5.2580106E-1,5.6386924E-1,-3.5988968E-2,-1.0754289E-2,-8.70044E-3,3.5299126E-2],"split_indices":[4,3,3,0,0,0,0],"sum_hessian":[8.533E3,6.073E3,2.46E3,5.987E3,8.6E1,1.09E2,2.351E3],"tree_param":{"num_deleted":"0","num_feature":"5","num_nodes":"7","size_leaf_vector":"0"}},{"base_weights":[-3.674157E-2,-8.1948E-2,8.1904896E-2,-8.422641E-2,-8.071556E-3,1.6449986E-1,7.708377E-2],"default_left":[true,true,true,false,false,false,false],"id":5,"leaf_child_counts":[0,0,0,0,0,0,0],"left_children":[1,3,5,-1,-1,-1,-1],"loss_changes":[4.577953E1,1.0395432E0,9.2508316E-1,0E0,0E0,0E0,0E0],"parents":[2147483647,0,0,1,1,2,2],"right_children":[2,4,6,-1,-1,-1,-1],"split_conditions":[6.646664E-1,5.063063E-1,2.5551166E-2,-2.5267923E-2,-2.4214669E-3,4.934996E-2,2.312513E-2],"split_indices":[4,3,0,0,0,0,0],"sum_hessian":[8.533E3,6.179E3,2.354E3,5.994E3,1.85E2,1.28E2,2.226E3],"tree_param":{"num_deleted":"0","num_feature":"5","num_nodes":"7","size_leaf_vector":"0"}},{"base_weights":[-2.5713846E-2,-5.7529386E-2,5.7689685E-2,-5.7118256E-2,-3.3298975E-1,1.6313565E-1,5.4911423E-2],"default_left":[true,true,true,false,false,false,false],"id":6,"leaf_child_counts":[0,0,0,0,0,0,0],"left_children":[1,3,5,-1,-1,-1,-1],"loss_changes":[2.2648533E1,6.8063927E-1,6.815405E-1,0E0,0E0,0E0,0E0],"parents":[2147483647,0,0,1,1,2,2],"right_children":[2,4,6,-1,-1,-1,-1],"split_conditions":[5.9867465E-1,5.350958E-1,3.5781634E-1,-1.7135477E-2,-9.989693E-2,4.8940696E-2,1.6473427E-2],"split_indices":[3,0,2,0,0,0,0],"sum_hessian":[8.533E3,6.177E3,2.356E3,6.169E3,8E0,5.9E1,2.297E3],"tree_param":{"num_deleted":"0","num_feature":"5","num_nodes":"7","size_leaf_vector":"0"}},{"base_weights":[-1.8005736E-2,-3.985202E-2,4.490981E-2,-3.821374E-2,-2.679977E-1,1.4460277E-2,4.794753E-2],"default_left":[true,true,true,false,false,false,false],"id":7,"leaf_child_counts":[0,0,0,0,0,0,0],"left_children":[1,3,5,-1,-1,-1,-1],"loss_changes":[1.1731522E1,2.3575678E0,2.0280075E-1,0E0,0E0,0E0,0E0],"parents":[2147483647,0,0,1,1,2,2],"right_children":[2,4,6,-1,-1,-1,-1],"split_conditions":[8.384606E-1,9.407091E-1,9.507972E-1,-1.1464123E-2,-8.039932E-2,4.3380833E-3,1.43842595E-2],"split_indices":[4,2,4,0,0,0,0],"sum_hessian":[8.533E3,6.334E3,2.199E3,6.29E3,4.4E1,2E2,1.999E3],"tree_param":{"num_deleted":"0","num_feature":"5","num_nodes":"7","size_leaf_vector":"0"}},{"base_weights":[-1.2612589E-2,-3.0880094E-2,2.6403435E-2,-3.1734955E-2,-9.991269E-3,3.3614045E-1,2.3523588E-2],"default_left":[true,true,true,false,false,false,false],"id":8,"leaf_child_counts":[0,0,0,0,0,0,0],"left_children":[1,3,5,-1,-1,-1,-1],"loss_changes":[6.083214E0,1.03485584E-1,2.4201045E0,0E0,0E0,0E0,0E0],"parents":[2147483647,0,0,1,1,2,2],"right_children":[2,4,6,-1,-1,-1,-1],"split_conditions":[2.4622351E-1,1.3300663E-1,8.255695E-2,-9.520487E-3,-2.9973807E-3,1.0084214E-1,7.057077E-3],"split_indices":[4,4,2,0,0,0,0],"sum_hessian":[8.533E3,5.812E3,2.721E3,5.583E3,2.29E2,2.4E1,2.697E3],"tree_param":{"num_deleted":"0","num_feature":"5","num_nodes":"7","size_leaf_vector":"0"}},{"base_weights":[-8.817634E-3,-2.0148264E-2,2.6349694E-2,-1.9332025E-2,-5.442816E-1,1.2460286E-1,2.5190517E-2],"default_left":[true,true,true,false,false,false,false],"id":9,"leaf_child_counts":[0,0,0,0,0,0,0],"left_children":[1,3,5,-1,-1,-1,-1],"loss_changes":[3.4010568E0,2.7510467E0,2.3375809E-1,0E0,0E0,0E0,0E0],"parents":[2147483647,0,0,1,1,2,2],"right_children":[2,4,6,-1,-1,-1,-1],"split_conditions":[8.148906E-1,9.976305E-1,8.354124E-1,-5.799608E-3,-1.6328448E-1,3.738086E-2,7.5571556E-3],"split_indices":[3,2,4,0,0,0,0],"sum_hessian":[8.533E3,6.454E3,2.079E3,6.445E3,9E0,2.3E1,2.056E3],"tree_param":{"num_deleted":"0","num_feature":"5","num_nodes":"7","size_leaf_vector":"0"}},{"base_weights":[-6.1868904E-3,-1.4831203E-2,1.7431758E-2,-1.2540569E-2,-8.368157E-2,1.3879542E-1,1.5538656E-2],"default_left":[true,true,true,false,false,false,false],"id":10,"leaf_child_counts":[0,0,0,0,0,0,0],"left_children":[1,3,5,-1,-1,-1,-1],"loss_changes":[1.7426195E0,9.8432887E-1,5.232904E-1,0E0,0E0,0E0,0E0],"parents":[2147483647,0,0,1,1,2,2],"right_children":[2,4,6,-1,-1,-1,-1],"split_conditions":[7.6761293E-1,6.449498E-1,2.121965E-1,-3.7621707E-3,-2.5104472E-2,4.1638628E-2,4.661597E-3],"split_indices":[4,2,2,0,0,0,0],"sum_hessian":[8.533E3,6.247E3,2.286E3,6.047E3,2E2,3.4E1,2.252E3],"tree_param":{"num_deleted":"0","num_feature":"5","num_nodes":"7","size_leaf_vector":"0"}},{"base_weights":[-4.328786E-3,-1.2299133E-2,1.1135673E-2,-1.2633886E-2,1.0797735E-2,8.37917E-2,3.3171624E-3],"default_left":[true,true,true,false,false,false,false],"id":11,"leaf_child_counts":[0,0,0,0,0,0,0],"left_children":[1,3,5,-1,-1,-1,-1],"loss_changes":[1.0520132E0,4.368162E-2,1.6488059E0,0E0,0E0,0E0,0E0],"parents":[2147483647,0,0,1,1,2,2],"right_children":[2,4,6,-1,-1,-1,-1],"split_conditions":[1.5817526E-1,6.459851E-1,6.8237256E-8,-3.790166E-3,3.2393208E-3,2.5137512E-2,9.951488E-4],"split_indices":[4,2,1,0,0,0,0],"sum_hessian":[8.533E3,5.631E3,2.902E3,5.551E3,8E1,2.81E2,2.621E3],"tree_param":{"num_deleted":"0","num_feature":"5","num_nodes":"7","size_leaf_vector":"0"}},{"base_weights":[-3.027155E-3,-8.054943E-3,1.3663274E-2,-7.2264923E-3,-2.928362E-1,6.783177E-2,1.3436249E-2],"default_left":[true,true,true,false,false,false,false],"id":12,"leaf_child_counts":[0,0,0,0,0,0,0],"left_children":[1,3,5,-1,-1,-1,-1],"loss_changes":[7.1624875E-1,1.5453311E0,2.3388624E-2,0E0,0E0,0E0,0E0],"parents":[2147483647,0,0,1,1,2,2],"right_children":[2,4,6,-1,-1,-1,-1],"split_conditions":[8.975455E-1,5.1972985E-1,8.3694863E-1,-2.1679478E-3,-8.785086E-2,2.0349532E-2,4.030875E-3],"split_indices":[3,0,4,0,0,0,0],"sum_hessian":[8.533E3,6.558E3,1.975E3,6.54E3,1.8E1,7E0,1.968E3],"tree_param":{"num_deleted":"0","num_feature":"5","num_nodes":"7","size_leaf_vector":"0"}},{"base_weights":[-2.126702E-3,-6.421815E-3,8.242551E-3,-5.402757E-3,-6.026537E-2,2.0454463E-1,4.723815E-3],"default_left":[true,true,true,false,false,false,false],"id":13,"leaf_child_counts":[0,0,0,0,0,0,0],"left_children":[1,3,5,-1,-1,-1,-1],"loss_changes":[3.8013262E-1,3.308131E-1,1.7258717E0,0E0,0E0,0E0,0E0],"parents":[2147483647,0,0,1,1,2,2],"right_children":[2,4,6,-1,-1,-1,-1],"split_conditions":[5.063063E-1,4.1155177E-1,6.7835884E-8,-1.6208271E-3,-1.8079612E-2,6.136339E-2,1.4171444E-3],"split_indices":[3,4,1,0,0,0,0],"sum_hessian":[8.533E3,6.034E3,2.499E3,5.923E3,1.11E2,4.3E1,2.456E3],"tree_param":{"num_deleted":"0","num_feature":"5","num_nodes":"7","size_leaf_vector":"0"}},{"base_weights":[-1.4836472E-3,-4.446715E-3,7.993653E-3,-3.95394E-3,-3.23961E-1,8.360331E-2,7.124923E-3],"default_left":[true,true,true,false,false,false,false],"id":14,"leaf_child_counts":[0,0,0,0,0,0,0],"left_children":[1,3,5,-1,-1,-1,-1],"loss_changes":[2.3968634E-1,1.0224507E0,1.3294064E-1,0E0,0E0,0E0,0E0],"parents":[2147483647,0,0,1,1,2,2],"right_children":[2,4,6,-1,-1,-1,-1],"split_conditions":[9.3998075E-1,9.976305E-1,7.7409744E-1,-1.186182E-3,-9.71883E-2,2.5080994E-2,2.137477E-3],"split_indices":[4,2,3,0,0,0,0],"sum_hessian":[8.533E3,6.501E3,2.032E3,6.492E3,9E0,2.2E1,2.01E3],"tree_param":{"num_deleted":"0","num_feature":"5","num_nodes":"7","size_leaf_vector":"0"}},{"base_weights":[-1.0468918E-3,-3.2012046E-3,6.104517E-3,-9.874005E-4,-6.357082E-2,-2.0932462E-2,6.3916706E-3],"default_left":[true,true,true,false,false,false,false],"id":15,"leaf_child_counts":[0,0,0,0,0,0,0],"left_children":[1,3,5,-1,-1,-1,-1],"loss_changes":[1.3149752E-1,8.7652457E-1,1.5474983E-2,0E0,0E0,0E0,0E0],"parents":[2147483647,0,0,1,1,2,2],"right_children":[2,4,6,-1,-1,-1,-1],"split_conditions":[8.975455E-1,1.0751526E-1,2.3496818E-2,-2.9622018E-4,-1.9071247E-2,-6.279739E-3,1.9175012E-3],"split_indices":[3,0,0,0,0,0,0],"sum_hessian":[8.533E3,6.558E3,1.975E3,6.327E3,2.31E2,2E1,1.955E3],"tree_param":{"num_deleted":"0","num_feature":"5","num_nodes":"7","size_leaf_vector":"0"}},{"base_weights":[-7.3560025E-4,-3.3373116E-3,3.7145594E-3,-3.7223252E-3,2.7283736E-2,5.4788265E-2,-1.9415967E-3],"default_left":[true,true,true,false,false,false,false],"id":16,"leaf_child_counts":[0,0,0,0,0,0,0],"left_children":[1,3,5,-1,-1,-1,-1],"loss_changes":[9.881931E-2,6.359993E-2,9.097922E-1,0E0,0E0,0E0,0E0],"parents":[2147483647,0,0,1,1,2,2],"right_children":[2,4,6,-1,-1,-1,-1],"split_conditions":[7.7921204E-2,1.0719303E-1,1.733599E-1,-1.1166976E-3,8.185121E-3,1.643648E-2,-5.8247906E-4],"split_indices":[4,0,2,0,0,0,0],"sum_hessian":[8.533E3,5.385E3,3.148E3,5.319E3,6.6E1,3.13E2,2.835E3],"tree_param":{"num_deleted":"0","num_feature":"5","num_nodes":"7","size_leaf_vector":"0"}},{"base_weights":[-5.1224E-4,-2.4774626E-3,5.1296516E-3,-1.700357E-3,-2.3586123E-1,1.7082274E-1,3.4582336E-3],"default_left":[true,true,true,false,false,false,false],"id":17,"leaf_child_counts":[0,0,0,0,0,0,0],"left_children":[1,3,5,-1,-1,-1,-1],"loss_changes":[9.4634056E-2,1.147632E0,6.1006737E-1,0E0,0E0,0E0,0E0],"parents":[2147483647,0,0,1,1,2,2],"right_children":[2,4,6,-1,-1,-1,-1],"split_conditions":[7.146006E-1,6.894301E-1,7.3224986E-1,-5.101071E-4,-7.075837E-2,5.1246826E-2,1.0374701E-3],"split_indices":[3,3,3,0,0,0,0],"sum_hessian":[8.533E3,6.329E3,2.204E3,6.309E3,2E1,2.1E1,2.183E3],"tree_param":{"num_deleted":"0","num_feature":"5","num_nodes":"7","size_leaf_vector":"0"}},{"base_weights":[-3.6079506E-4,-1.9972778E-3,3.82504E-3,-1.6545824E-3,-2.1176694E-1,5.1821746E-2,-2.2862477E-3],"default_left":[true,true,true,false,false,false,false],"id":18,"leaf_child_counts":[0,0,0,0,0,0,0],"left_children":[1,3,5,-1,-1,-1,-1],"loss_changes":[5.8465943E-2,4.4074872E-1,7.0379716E-1,0E0,0E0,0E0,0E0],"parents":[2147483647,0,0,1,1,2,2],"right_children":[2,4,6,-1,-1,-1,-1],"split_conditions":[5.682081E-1,5.5915445E-1,6.285111E-1,-4.9637473E-4,-6.353009E-2,1.5546524E-2,-6.858743E-4],"split_indices":[3,3,2,0,0,0,0],"sum_hessian":[8.533E3,6.135E3,2.398E3,6.126E3,9E0,2.7E2,2.128E3],"tree_param":{"num_deleted":"0","num_feature":"5","num_nodes":"7","size_leaf_vector":"0"}},{"base_weights":[-2.5831815E-4,-1.4710366E-3,5.0022653E-3,-1.2704377E-3,-2.3295091E-1,4.8070967E-1,3.806882E-3],"default_left":[true,true,true,false,false,false,false],"id":19,"leaf_child_counts":[0,0,0,0,0,0,0],"left_children":[1,3,5,-1,-1,-1,-1],"loss_changes":[5.445092E-2,3.2177436E-1,9.0744567E-1,0E0,0E0,0E0,0E0],"parents":[2147483647,0,0,1,1,2,2],"right_children":[2,4,6,-1,-1,-1,-1],"split_conditions":[3.626991E-1,3.5742533E-1,3.657031E-1,-3.8113134E-4,-6.9885276E-2,1.442129E-1,1.1420647E-3],"split_indices":[0,0,0,0,0,0,0],"sum_hessian":[8.533E3,6.935E3,1.598E3,6.93E3,5E0,3E0,1.595E3],"tree_param":{"num_deleted":"0","num_feature":"5","num_nodes":"7","size_leaf_vector":"0"}},{"base_weights":[-1.720293E-4,1.7370774E-3,-3.5583577E-3,-2.630387E-4,8.6379E-2,-1.845217E-2,3.8902827E-3],"default_left":[true,true,true,false,false,false,false],"id":20,"leaf_child_counts":[0,0,0,0,0,0,0],"left_children":[1,3,5,-1,-1,-1,-1],"loss_changes":[5.5177312E-2,9.2402756E-1,3.4143E-1,0E0,0E0,0E0,0E0],"parents":[2147483647,0,0,1,1,2,2],"right_children":[2,4,6,-1,-1,-1,-1],"split_conditions":[2.4495285E-2,4.5667875E-1,8.148906E-1,-7.891162E-5,2.59137E-2,-5.535651E-3,1.1670849E-3],"split_indices":[0,3,3,0,0,0,0],"sum_hessian":[8.533E3,5.457E3,3.076E3,5.332E3,1.25E2,1.025E3,2.051E3],"tree_param":{"num_deleted":"0","num_feature":"5","num_nodes":"7","size_leaf_vector":"0"}},{"base_weights":[-1.1789877E-4,1.477904E-3,-3.4604785E-3,-1.18854216E-4,7.0297875E-2,-2.0211942E-2,2.2799065E-3],"default_left":[true,true,true,false,false,false,false],"id":21,"leaf_child_counts":[0,0,0,0,0,0,0],"left_children":[1,3,5,-1,-1,-1,-1],"loss_changes":[4.5526307E-2,6.3483626E-1,2.6525494E-1,0E0,0E0,0E0,0E0],"parents":[2147483647,0,0,1,1,2,2],"right_children":[2,4,6,-1,-1,-1,-1],"split_conditions":[3.9466172E-1,4.5667875E-1,8.148906E-1,-3.5656267E-5,2.1089364E-2,-6.063583E-3,6.83972E-4],"split_indices":[2,3,3,0,0,0,0],"sum_hessian":[8.533E3,5.776E3,2.757E3,5.646E3,1.3E2,7.03E2,2.054E3],"tree_param":{"num_deleted":"0","num_feature":"5","num_nodes":"7","size_leaf_vector":"0"}},{"base_weights":[-8.069077E-5,1.5322053E-3,-3.0641176E-3,-8.546921E-4,3.228883E-2,-2.5765327E-1,-2.8079092E-3],"default_left":[true,true,true,false,false,false,false],"id":22,"leaf_child_counts":[0,0,0,0,0,0,0],"left_children":[1,3,5,-1,-1,-1,-1],"loss_changes":[4.1069936E-2,4.067351E-1,1.9463399E-1,0E0,0E0,0E0,0E0],"parents":[2147483647,0,0,1,1,2,2],"right_children":[2,4,6,-1,-1,-1,-1],"split_conditions":[2.0121522E-7,2.8538853E-1,2.0129173E-7,-2.5640763E-4,9.68665E-3,-7.729598E-2,-8.4237277E-4],"split_indices":[1,4,1,0,0,0,0],"sum_hessian":[8.533E3,5.539E3,2.994E3,5.141E3,3.98E2,2E0,2.992E3],"tree_param":{"num_deleted":"0","num_feature":"5","num_nodes":"7","size_leaf_vector":"0"}},{"base_weights":[-6.453014E-5,1.5783517E-3,-2.7953014E-3,-6.422536E-4,8.0414236E-2,-1.171801E-2,2.0671159E-3],"default_left":[true,true,true,false,false,false,false],"id":23,"leaf_child_counts":[0,0,0,0,0,0,0],"left_children":[1,3,5,-1,-1,-1,-1],"loss_changes":[3.829079E-2,9.329645E-1,1.391195E-1,0E0,0E0,0E0,0E0],"parents":[2147483647,0,0,1,1,2,2],"right_children":[2,4,6,-1,-1,-1,-1],"split_conditions":[2.03096E-1,2.6610172E-1,8.148906E-1,-1.9267609E-4,2.4124272E-2,-3.515403E-3,6.2013476E-4],"split_indices":[2,4,3,0,0,0,0],"sum_hessian":[8.533E3,5.328E3,3.205E3,5.183E3,1.45E2,1.13E3,2.075E3],"tree_param":{"num_deleted":"0","num_feature":"5","num_nodes":"7","size_leaf_vector":"0"}},{"base_weights":[-4.2703854E-5,1.3532337E-3,-3.3972785E-3,6.9507933E-4,1.7312992E-1,-1.763842E-1,-2.0059021E-3],"default_left":[true,true,true,false,false,false,false],"id":24,"leaf_child_counts":[0,0,0,0,0,0,0],"left_children":[1,3,5,-1,-1,-1,-1],"loss_changes":[3.996741E-2,6.812657E-1,6.0329646E-1,0E0,0E0,0E0,0E0],"parents":[2147483647,0,0,1,1,2,2],"right_children":[2,4,6,-1,-1,-1,-1],"split_conditions":[4.3466163E-1,3.5712433E-1,4.7479075E-1,2.0852381E-4,5.1938977E-2,-5.291526E-2,-6.0177065E-4],"split_indices":[4,0,4,0,0,0,0],"sum_hessian":[8.533E3,6.026E3,2.507E3,6.004E3,2.2E1,1.9E1,2.488E3],"tree_param":{"num_deleted":"0","num_feature":"5","num_nodes":"7","size_leaf_vector":"0"}},{"base_weights":[-3.0053943E-5,9.805586E-4,-2.554502E-3,5.7398505E-4,1.3096829E-1,-2.041451E-2,2.105549E-3],"default_left":[true,true,true,false,false,false,false],"id":25,"leaf_child_counts":[0,0,0,0,0,0,0],"left_children":[1,3,5,-1,-1,-1,-1],"loss_changes":[2.1774776E-2,3.22043E-1,2.0312065E-1,0E0,0E0,0E0,0E0],"parents":[2147483647,0,0,1,1,2,2],"right_children":[2,4,6,-1,-1,-1,-1],"split_conditions":[3.793482E-6,3.6387718E-1,8.122788E-1,1.7219552E-4,3.9290488E-2,-6.1243535E-3,6.316647E-4],"split_indices":[1,0,3,0,0,0,0],"sum_hessian":[8.533E3,6.094E3,2.439E3,6.076E3,1.8E1,5.04E2,1.935E3],"tree_param":{"num_deleted":"0","num_feature":"5","num_nodes":"7","size_leaf_vector":"0"}},{"base_weights":[-1.7062472E-5,1.202617E-3,-2.9480795E-3,7.49572E-4,1.19434446E-1,1.421994E-1,-4.525853E-3],"default_left":[true,true,true,false,false,false,false],"id":26,"leaf_child_counts":[0,0,0,0,0,0,0],"left_children":[1,3,5,-1,-1,-1,-1],"loss_changes":[3.0511752E-2,3.227427E-1,5.750003E-1,0E0,0E0,0E0,0E0],"parents":[2147483647,0,0,1,1,2,2],"right_children":[2,4,6,-1,-1,-1,-1],"split_conditions":[4.3466163E-1,3.5712433E-1,1.1690906E-1,2.248716E-4,3.5830334E-2,4.265982E-2,-1.3577559E-3],"split_indices":[4,0,2,0,0,0,0],"sum_hessian":[8.533E3,6.026E3,2.507E3,6.004E3,2.2E1,2.6E1,2.481E3],"tree_param":{"num_deleted":"0","num_feature":"5","num_nodes":"7","size_leaf_vector":"0"}},{"base_weights":[-2.8845222E-6,-8.099339E-4,2.9893871E-3,5.2479183E-4,-2.6664756E-2,-4.5185316E-2,3.3085365E-3],"default_left":[true,true,true,false,false,false,false],"id":27,"leaf_child_counts":[0,0,0,0,0,0,0],"left_children":[1,3,5,-1,-1,-1,-1],"loss_changes":[2.0611271E-2,2.3198415E-1,2.8024234E-2,0E0,0E0,0E0,0E0],"parents":[2147483647,0,0,1,1,2,2],"right_children":[2,4,6,-1,-1,-1,-1],"split_conditions":[9.842396E-1,1.0977587E-1,2.5961202E-2,1.5743755E-4,-7.999428E-3,-1.3555596E-2,9.92561E-4],"split_indices":[4,0,0,0,0,0,0],"sum_hessian":[8.533E3,6.721E3,1.812E3,6.392E3,3.29E2,1.1E1,1.801E3],"tree_param":{"num_deleted":"0","num_feature":"5","num_nodes":"7","size_leaf_vector":"0"}},{"base_weights":[-4.4045933E-6,8.419821E-4,-2.0383631E-3,7.1950787E-4,3.694358E-1,-5.960501E-2,1.4160103E-3],"default_left":[true,true,true,false,false,false,false],"id":28,"leaf_child_counts":[0,0,0,0,0,0,0],"left_children":[1,3,5,-1,-1,-1,-1],"loss_changes":[1.4693129E-2,2.718125E-1,4.9881697E-1,0E0,0E0,0E0,0E0],"parents":[2147483647,0,0,1,1,2,2],"right_children":[2,4,6,-1,-1,-1,-1],"split_conditions":[4.3466163E-1,4.331189E-1,5.6386924E-1,2.1585237E-4,1.1083074E-1,-1.7881503E-2,4.2480312E-4],"split_indices":[4,4,3,0,0,0,0],"sum_hessian":[8.533E3,6.026E3,2.507E3,6.025E3,1E0,1.41E2,2.366E3],"tree_param":{"num_deleted":"0","num_feature":"5","num_nodes":"7","size_leaf_vector":"0"}},{"base_weights":[7.883086E-6,7.83938E-4,-2.084679E-3,7.1338225E-5,7.929589E-2,-3.5134744E-2,2.6798844E-3],"default_left":[true,true,true,false,false,false,false],"id":29,"leaf_child_counts":[0,0,0,0,0,0,0],"left_children":[1,3,5,-1,-1,-1,-1],"loss_changes":[1.3860364E-2,3.483241E-1,3.6369038E-1,0E0,0E0,0E0,0E0],"parents":[2147483647,0,0,1,1,2,2],"right_children":[2,4,6,-1,-1,-1,-1],"split_conditions":[6.285111E-1,6.231761E-1,8.1010604E-1,2.1401469E-5,2.3788767E-2,-1.0540424E-2,8.039654E-4],"split_indices":[2,2,3,0,0,0,0],"sum_hessian":[8.533E3,6.225E3,2.308E3,6.17E3,5.5E1,2.9E2,2.018E3],"tree_param":{"num_deleted":"0","num_feature":"5","num_nodes":"7","size_leaf_vector":"0"}}]},"name":"gbtree"},"learner_model_param":{"base_score":"5E-1","num_class":"0","num_feature":"5"},"objective":{"name":"reg:squarederror","reg_loss_param":{"scale_pos_weight":"1"}}},"version":[1,2,0]}