{"learner":{"attributes":{},"gradient_booster":{"model":{"gbtree_model_param":{"num_trees":"30","size_leaf_vector":"0"},"tree_info":[0,0,0,0,0,0,0,0,0,0,0,0,0,0,0,0,0,0,0,0,0,0,0,0,0,0,0,0,0,0],"trees":[{"base_weights":[-2.18596205115318298e-01,-4.73523259162902832e-01,4.63608950376510620e-01,-4.90519315004348755e-01,-1.95833340287208557e-01,1.23239435255527496e-01,4.85557079315185547e-01],"default_left":[true,true,true,false,false,false,false],"id":0,"leaf_child_counts":[0,0,0,0,0,0,0],"left_children":[1,3,5,-1,-1,-1,-1],"loss_changes":[1.48438928222656250e+03,2.92269287109375000e+01,1.72865905761718750e+01,0.00000000000000000e+00,0.00000000000000000e+00,0.00000000000000000e+00,0.00000000000000000e+00],"parents":[2147483647,0,0,1,1,2,2],"right_children":[2,4,6,-1,-1,-1,-1],"split_conditions":[5.62521755695343018e-01,2.78194367885589600e-01,6.71359121799468994e-01,-1.47155806422233582e-01,-5.87500035762786865e-02,3.69718335568904877e-02,1.45667135715484619e-01],"split_indices":[4,4,4,0,0,0,0],"sum_hessian":[8.53300000000000000e+03,6.21200000000000000e+03,2.32100000000000000e+03,5.85300000000000000e+03,3.59000000000000000e+02,1.41000000000000000e+02,2.18000000000000000e+03],"tree_param":{"num_deleted":"0","num_feature":"5","num_nodes":"7","size_leaf_vector":"0"}},{"base_weights":[-1.53020054101943970e-01,-3.33721578121185303e-01,3.19578081369400024e-01,-3.49155068397521973e-01,-2.03812286257743835e-01,8.57668966054916382e-02,3.41651201248168945e-01],"default_left":[true,true,true,false,false,false,false],"id":1,"leaf_child_counts":[0,0,0,0,0,0,0],"left_children":[1,3,5,-1,-1,-1,-1],"loss_changes":[7.28903503417968750e+02,1.23073730468750000e+01,1.21556701660156250e+01,0.00000000000000000e+00,0.00000000000000000e+00,0.00000000000000000e+00,0.00000000000000000e+00],"parents":[2147483647,0,0,1,1,2,2],"right_children":[2,4,6,-1,-1,-1,-1],"split_conditions":[5.20771026611328125e-01,1.53540909290313721e-01,6.97878956794738770e-01,-1.04746527969837189e-01,-6.11436888575553894e-02,2.57300697267055511e-02,1.02495364844799042e-01],"split_indices":[4,4,4,0,0,0,0],"sum_hessian":[8.53300000000000000e+03,6.17300000000000000e+03,2.36000000000000000e+03,5.51600000000000000e+03,6.57000000000000000e+02,2.04000000000000000e+02,2.15600000000000000e+03],"tree_param":{"num_deleted":"0","num_feature":"5","num_nodes":"7","size_leaf_vector":"0"}},{"base_weights":[-1.07118450105190277e-01,-2.36726090312004089e-01,2.17237114906311035e-01,-2.44940400123596191e-01,-1.65796026587486267e-01,-2.21941852942109108e-03,2.36006766557693481e-01],"default_left":[true,true,true,false,false,false,false],"id":2,"leaf_child_counts":[0,0,0,0,0,0,0],"left_children":[1,3,5,-1,-1,-1,-1],"loss_changes":[3.58811889648437500e+02,3.51232910156250000e+00,1.00388336181640625e+01,0.00000000000000000e+00,0.00000000000000000e+00,0.00000000000000000e+00,0.00000000000000000e+00],"parents":[2147483647,0,0,1,1,2,2],"right_children":[2,4,6,-1,-1,-1,-1],"split_conditions":[4.53779309988021851e-01,1.41400545835494995e-01,6.08277022838592529e-01,-7.34821259975433350e-02,-4.97388094663619995e-02,-6.65825558826327324e-04,7.08020329475402832e-02],"split_indices":[4,4,4,0,0,0,0],"sum_hessian":[8.53300000000000000e+03,6.09700000000000000e+03,2.43600000000000000e+03,5.46200000000000000e+03,6.35000000000000000e+02,1.92000000000000000e+02,2.24400000000000000e+03],"tree_param":{"num_deleted":"0","num_feature":"5","num_nodes":"7","size_leaf_vector":"0"}},{"base_weights":[-7.49891325831413269e-02,-1.66673332452774048e-01,1.50296941399574280e-01,-1.68909147381782532e-01,-4.29329425096511841e-02,5.72447180747985840e-02,1.80402189493179321e-01],"default_left":[true,true,true,false,false,false,false],"id":3,"leaf_child_counts":[0,0,0,0,0,0,0],"left_children":[1,3,5,-1,-1,-1,-1],"loss_changes":[1.76296295166015625e+02,1.67097473144531250e+00,6.90623092651367188e+00,0.00000000000000000e+00,0.00000000000000000e+00,0.00000000000000000e+00,0.00000000000000000e+00],"parents":[2147483647,0,0,1,1,2,2],"right_children":[2,4,6,-1,-1,-1,-1],"split_conditions":[4.25365567207336426e-01,3.48593890666961670e-01,8.81982922554016113e-01,-5.06727471947669983e-02,-1.28798829391598701e-02,1.71734169125556946e-02,5.41206598281860352e-02],"split_indices":[4,4,3,0,0,0,0],"sum_hessian":[8.53300000000000000e+03,6.06500000000000000e+03,2.46800000000000000e+03,5.95700000000000000e+03,1.08000000000000000e+02,6.04000000000000000e+02,1.86400000000000000e+03],"tree_param":{"num_deleted":"0","num_feature":"5","num_nodes":"7","size_leaf_vector":"0"}},{"base_weights":[-5.24914823472499847e-02,-1.13117799162864685e-01,1.17393590509891510e-01,-1.18244908750057220e-01,-2.10443679243326187e-02,7.34368115663528442e-02,1.26310557126998901e-01],"default_left":[true,true,true,false,false,false,false],"id":4,"leaf_child_counts":[0,0,0,0,0,0,0],"left_children":[1,3,5,-1,-1,-1,-1],"loss_changes":[8.79092636108398438e+01,2.96683502197265625e+00,8.70677947998046875e-01,0.00000000000000000e+00,0.00000000000000000e+00,0.00000000000000000e+00,0.00000000000000000e+00],"parents":[2147483647,0,0,1,1,2,2],"right_children":[2,4,6,-1,-1,-1,-1],"split_conditions":[6.08277022838592529e-01,3.48593890666961670e-01,8.81982922554016113e-01,-3.54734733700752258e-02,-6.31331047043204308e-03,2.20310445874929428e-02,3.78931686282157898e-02],"split_indices":[4,4,3,0,0,0,0],"sum_hessian":[8.53300000000000000e+03,6.28900000000000000e+03,2.24400000000000000e+03,5.95700000000000000e+03,3.32000000000000000e+02,3.80000000000000000e+02,1.86400000000000000e+03],"tree_param":{"num_deleted":"0","num_feature":"5","num_nodes":"7","size_leaf_vector":"0"}},{"base_weights":[-3.67419160902500153e-02,-7.91890993714332581e-02,8.22021961212158203e-02,-7.59989619255065918e-02,-1.81209236383438110e-01,1.58993363380432129e-01,7.82469138503074646e-02],"default_left":[true,true,true,false,false,false,false],"id":5,"leaf_child_counts":[0,0,0,0,0,0,0],"left_children":[1,3,5,-1,-1,-1,-1],"loss_changes":[4.30933303833007812e+01,2.03335952758789062e+00,6.69435501098632812e-01,0.00000000000000000e+00,0.00000000000000000e+00,0.00000000000000000e+00,0.00000000000000000e+00],"parents":[2147483647,0,0,1,1,2,2],"right_children":[2,4,6,-1,-1,-1,-1],"split_conditions":[6.08277022838592529e-01,4.12138521671295166e-01,2.83346772193908691e-01,-2.27996893227100372e-02,-5.43627738952636719e-02,4.76980097591876984e-02,2.34740749001502991e-02],"split_indices":[4,2,2,0,0,0,0],"sum_hessian":[8.53300000000000000e+03,6.28900000000000000e+03,2.24400000000000000e+03,6.10000000000000000e+03,1.89000000000000000e+02,1.08000000000000000e+02,2.13600000000000000e+03],"tree_param":{"num_deleted":"0","num_feature":"5","num_nodes":"7","size_leaf_vector":"0"}},{"base_weights":[-2.57200524210929871e-02,-5.94305805861949921e-02,5.22283576428890228e-02,-6.30179345607757568e-02,-2.88289692252874374e-02,3.24877619743347168e-01,4.13189157843589783e-02],"default_left":[true,true,true,false,false,false,false],"id":6,"leaf_child_counts":[0,0,0,0,0,0,0],"left_children":[1,3,5,-1,-1,-1,-1],"loss_changes":[2.24277420043945312e+01,6.52244567871093750e-01,7.65173625946044922e+00,0.00000000000000000e+00,0.00000000000000000e+00,0.00000000000000000e+00,0.00000000000000000e+00],"parents":[2147483647,0,0,1,1,2,2],"right_children":[2,4,6,-1,-1,-1,-1],"split_conditions":[3.48593890666961670e-01,1.19685642421245575e-01,1.74490407109260559e-01,-1.89053807407617569e-02,-8.64869076758623123e-03,9.74632874131202698e-02,1.23956752941012383e-02],"split_indices":[4,4,2,0,0,0,0],"sum_hessian":[8.53300000000000000e+03,5.95700000000000000e+03,2.57600000000000000e+03,5.33100000000000000e+03,6.26000000000000000e+02,9.80000000000000000e+01,2.47800000000000000e+03],"tree_param":{"num_deleted":"0","num_feature":"5","num_nodes":"7","size_leaf_vector":"0"}},{"base_weights":[-1.79943945258855820e-02,-3.92799638211727142e-02,4.87482994794845581e-02,-3.81857305765151978e-02,-2.45320811867713928e-01,1.71301327645778656e-02,5.35786077380180359e-02],"default_left":[true,true,true,false,false,false,false],"id":7,"leaf_child_counts":[0,0,0,0,0,0,0],"left_children":[1,3,5,-1,-1,-1,-1],"loss_changes":[1.21257953643798828e+01,1.44956111907958984e+00,3.14307689666748047e-01,0.00000000000000000e+00,0.00000000000000000e+00,0.00000000000000000e+00,0.00000000000000000e+00],"parents":[2147483647,0,0,1,1,2,2],"right_children":[2,4,6,-1,-1,-1,-1],"split_conditions":[7.81766951084136963e-01,9.00546789169311523e-01,9.36409771442413330e-01,-1.14557193592190742e-02,-7.35962465405464172e-02,5.13903982937335968e-03,1.60735826939344406e-02],"split_indices":[4,2,4,0,0,0,0],"sum_hessian":[8.53300000000000000e+03,6.47000000000000000e+03,2.06300000000000000e+03,6.43700000000000000e+03,3.30000000000000000e+01,2.74000000000000000e+02,1.78900000000000000e+03],"tree_param":{"num_deleted":"0","num_feature":"5","num_nodes":"7","size_leaf_vector":"0"}},{"base_weights":[-1.26035585999488831e-02,-2.97641009092330933e-02,2.95626837760210037e-02,-2.54875011742115021e-02,-6.88984990119934082e-02,1.98062717914581299e-01,2.17710416764020920e-02],"default_left":[true,true,true,false,false,false,false],"id":8,"leaf_child_counts":[0,0,0,0,0,0,0],"left_children":[1,3,5,-1,-1,-1,-1],"loss_changes":[6.17604446411132812e+00,1.01346302032470703e+00,3.23721814155578613e+00,0.00000000000000000e+00,0.00000000000000000e+00,0.00000000000000000e+00,0.00000000000000000e+00],"parents":[2147483647,0,0,1,1,2,2],"right_children":[2,4,6,-1,-1,-1,-1],"split_conditions":[4.25365567207336426e-01,1.41022980213165283e-01,2.55511663854122162e-02,-7.64625053852796555e-03,-2.06695497035980225e-02,5.94188161194324493e-02,6.53131259605288506e-03],"split_indices":[4,2,0,0,0,0,0],"sum_hessian":[8.53300000000000000e+03,6.06500000000000000e+03,2.46800000000000000e+03,5.46900000000000000e+03,5.96000000000000000e+02,1.08000000000000000e+02,2.36000000000000000e+03],"tree_param":{"num_deleted":"0","num_feature":"5","num_nodes":"7","size_leaf_vector":"0"}},{"base_weights":[-8.81807599216699600e-03,-2.00446229428052902e-02,2.94274426996707916e-02,-1.92676670849323273e-02,-6.57653570175170898e-01,1.40094965696334839e-01,2.91259605437517166e-02],"default_left":[true,true,true,false,false,false,false],"id":9,"leaf_child_counts":[0,0,0,0,0,0,0],"left_children":[1,3,5,-1,-1,-1,-1],"loss_changes":[3.66479158401489258e+00,3.25593852996826172e+00,6.05461597442626953e-02,0.00000000000000000e+00,0.00000000000000000e+00,0.00000000000000000e+00,0.00000000000000000e+00],"parents":[2147483647,0,0,1,1,2,2],"right_children":[2,4,6,-1,-1,-1,-1],"split_conditions":[8.49683523178100586e-01,9.92347478866577148e-01,7.66970932483673096e-01,-5.78030012547969818e-03,-1.97296082973480225e-01,4.20284904539585114e-02,8.73778853565454483e-03],"split_indices":[3,2,4,0,0,0,0],"sum_hessian":[8.53300000000000000e+03,6.59700000000000000e+03,1.93600000000000000e+03,6.59000000000000000e+03,7.00000000000000000e+00,4.00000000000000000e+00,1.93200000000000000e+03],"tree_param":{"num_deleted":"0","num_feature":"5","num_nodes":"7","size_leaf_vector":"0"}},{"base_weights":[-6.19050441309809685e-03,-1.93280056118965149e-02,1.42754605039954185e-02,-2.04212199896574020e-02,-4.79671591892838478e-03,2.02449843287467957e-01,7.97914154827594757e-03],"default_left":[true,true,true,false,false,false,false],"id":10,"leaf_child_counts":[0,0,0,0,0,0,0],"left_children":[1,3,5,-1,-1,-1,-1],"loss_changes":[2.29482674598693848e+00,8.24763774871826172e-02,3.95208215713500977e+00,0.00000000000000000e+00,0.00000000000000000e+00,0.00000000000000000e+00,0.00000000000000000e+00],"parents":[2147483647,0,0,1,1,2,2],"right_children":[2,4,6,-1,-1,-1,-1],"split_conditions":[9.57523286342620850e-02,4.80802096426486969e-02,6.43930137157440186e-02,-6.12636609002947807e-03,-1.43901479896157980e-03,6.07349537312984467e-02,2.39374255761504173e-03],"split_indices":[4,4,2,0,0,0,0],"sum_hessian":[8.53300000000000000e+03,5.19700000000000000e+03,3.33600000000000000e+03,4.83300000000000000e+03,3.64000000000000000e+02,1.07000000000000000e+02,3.22900000000000000e+03],"tree_param":{"num_deleted":"0","num_feature":"5","num_nodes":"7","size_leaf_vector":"0"}},{"base_weights":[-4.32683667168021202e-03,-1.09635125845670700e-02,1.92489419132471085e-02,-1.01326731964945793e-02,-4.34998720884323120e-01,-1.01164102554321289e-01,1.95604432374238968e-02],"default_left":[true,true,true,false,false,false,false],"id":11,"leaf_child_counts":[0,0,0,0,0,0,0],"left_children":[1,3,5,-1,-1,-1,-1],"loss_changes":[1.33548176288604736e+00,2.34194517135620117e+00,7.23075270652770996e-02,0.00000000000000000e+00,0.00000000000000000e+00,0.00000000000000000e+00,0.00000000000000000e+00],"parents":[2147483647,0,0,1,1,2,2],"right_children":[2,4,6,-1,-1,-1,-1],"split_conditions":[9.05783236026763916e-01,5.58482766151428223e-01,7.91885256767272949e-01,-3.03980219177901745e-03,-1.30499616265296936e-01,-3.03492322564125061e-02,5.86813315749168396e-03],"split_indices":[4,0,3,0,0,0,0],"sum_hessian":[8.53300000000000000e+03,6.65900000000000000e+03,1.87400000000000000e+03,6.64700000000000000e+03,1.20000000000000000e+01,4.00000000000000000e+00,1.87000000000000000e+03],"tree_param":{"num_deleted":"0","num_feature":"5","num_nodes":"7","size_leaf_vector":"0"}},{"base_weights":[-3.04730399511754513e-03,-1.05710634961724281e-02,9.97880380600690842e-03,-1.08390115201473236e-02,2.86322496831417084e-02,3.24536502361297607e-01,4.44622104987502098e-03],"default_left":[true,true,true,false,false,false,false],"id":12,"leaf_child_counts":[0,0,0,0,0,0,0],"left_children":[1,3,5,-1,-1,-1,-1],"loss_changes":[8.36482763290405273e-01,5.71393966674804688e-02,5.43704652786254883e+00,0.00000000000000000e+00,0.00000000000000000e+00,0.00000000000000000e+00,0.00000000000000000e+00],"parents":[2147483647,0,0,1,1,2,2],"right_children":[2,4,6,-1,-1,-1,-1],"split_conditions":[1.34620875120162964e-01,4.11364853382110596e-01,6.31721466779708862e-02,-3.25170368887484074e-03,8.58967565000057220e-03,9.73609536886215210e-02,1.33386638481169939e-03],"split_indices":[4,2,2,0,0,0,0],"sum_hessian":[8.53300000000000000e+03,5.40900000000000000e+03,3.12400000000000000e+03,5.37300000000000000e+03,3.60000000000000000e+01,5.30000000000000000e+01,3.07100000000000000e+03],"tree_param":{"num_deleted":"0","num_feature":"5","num_nodes":"7","size_leaf_vector":"0"}},{"base_weights":[-2.12092953734099865e-03,-6.44362671300768852e-03,1.18218893185257912e-02,-1.55193556565791368e-03,-5.70707805454730988e-02,6.97728022933006287e-02,1.01946657523512840e-02],"default_left":[true,true,true,false,false,false,false],"id":13,"leaf_child_counts":[0,0,0,0,0,0,0],"left_children":[1,3,5,-1,-1,-1,-1],"loss_changes":[5.14425396919250488e-01,1.61336672306060791e+00,1.89772874116897583e-01,0.00000000000000000e+00,0.00000000000000000e+00,0.00000000000000000e+00,0.00000000000000000e+00],"parents":[2147483647,0,0,1,1,2,2],"right_children":[2,4,6,-1,-1,-1,-1],"split_conditions":[8.17013859748840332e-01,2.46246933937072754e-01,3.98302091753066634e-07,-4.65580698801204562e-04,-1.71212349086999893e-02,2.09318418055772781e-02,3.05839977227151394e-03],"split_indices":[4,2,1,0,0,0,0],"sum_hessian":[8.53300000000000000e+03,6.51400000000000000e+03,2.01900000000000000e+03,5.94100000000000000e+03,5.73000000000000000e+02,5.40000000000000000e+01,1.96500000000000000e+03],"tree_param":{"num_deleted":"0","num_feature":"5","num_nodes":"7","size_leaf_vector":"0"}},{"base_weights":[-1.48389418609440327e-03,-6.70005753636360168e-03,8.54701083153486252e-03,-6.16054097190499306e-03,-1.06934711337089539e-01,1.86419352889060974e-01,-2.99867847934365273e-03],"default_left":[true,true,true,false,false,false,false],"id":14,"leaf_child_counts":[0,0,0,0,0,0,0],"left_children":[1,3,5,-1,-1,-1,-1],"loss_changes":[4.46580350399017334e-01,3.02990674972534180e-01,5.99724245071411133e+00,0.00000000000000000e+00,0.00000000000000000e+00,0.00000000000000000e+00,0.00000000000000000e+00],"parents":[2147483647,0,0,1,1,2,2],"right_children":[2,4,6,-1,-1,-1,-1],"split_conditions":[1.74607440829277039e-01,1.66736155748367310e-01,1.41022980213165283e-01,-1.84816238470375538e-03,-3.20804156363010406e-02,5.59258088469505310e-02,-8.99603590369224548e-04],"split_indices":[4,4,2,0,0,0,0],"sum_hessian":[8.53300000000000000e+03,5.61400000000000000e+03,2.91900000000000000e+03,5.58500000000000000e+03,2.90000000000000000e+01,1.77000000000000000e+02,2.74200000000000000e+03],"tree_param":{"num_deleted":"0","num_feature":"5","num_nodes":"7","size_leaf_vector":"0"}},{"base_weights":[-1.03625154588371515e-03,-4.21475386247038841e-03,9.46631282567977905e-03,-2.74605466984212399e-03,-1.77658289670944214e-01,2.43177607655525208e-01,8.98938812315464020e-03],"default_left":[true,true,true,false,false,false,false],"id":15,"leaf_child_counts":[0,0,0,0,0,0,0],"left_children":[1,3,5,-1,-1,-1,-1],"loss_changes":[2.84925550222396851e-01,1.66854524612426758e+00,2.18844622373580933e-01,0.00000000000000000e+00,0.00000000000000000e+00,0.00000000000000000e+00,0.00000000000000000e+00],"parents":[2147483647,0,0,1,1,2,2],"right_children":[2,4,6,-1,-1,-1,-1],"split_conditions":[8.06087195873260498e-01,8.31838428974151611e-01,6.62640333175659180e-01,-8.23816459160298109e-04,-5.32974898815155029e-02,7.29532837867736816e-02,2.69681657664477825e-03],"split_indices":[3,2,4,0,0,0,0],"sum_hessian":[8.53300000000000000e+03,6.55100000000000000e+03,1.98200000000000000e+03,6.49700000000000000e+03,5.40000000000000000e+01,3.00000000000000000e+00,1.97900000000000000e+03],"tree_param":{"num_deleted":"0","num_feature":"5","num_nodes":"7","size_leaf_vector":"0"}},{"base_weights":[-7.22853175830096006e-04,-5.29518304392695427e-03,4.43930365145206451e-03,-5.36773493513464928e-03,3.17142009735107422e-02,4.59749437868595123e-02,-3.40612838044762611e-03],"default_left":[true,true,true,false,false,false,false],"id":16,"leaf_child_counts":[0,0,0,0,0,0,0],"left_children":[1,3,5,-1,-1,-1,-1],"loss_changes":[2.01452210545539856e-01,1.23229920864105225e-02,1.30654966831207275e+00,0.00000000000000000e+00,0.00000000000000000e+00,0.00000000000000000e+00,0.00000000000000000e+00],"parents":[2147483647,0,0,1,1,2,2],"right_children":[2,4,6,-1,-1,-1,-1],"split_conditions":[3.34759913384914398e-02,2.55879968404769897e-01,4.81145292496876209e-08,-1.61032052710652351e-03,9.51426103711128235e-03,1.37924840673804283e-02,-1.02183851413428783e-03],"split_indices":[4,2,1,0,0,0,0],"sum_hessian":[8.53300000000000000e+03,4.52500000000000000e+03,4.00800000000000000e+03,4.51700000000000000e+03,8.00000000000000000e+00,6.36000000000000000e+02,3.37200000000000000e+03],"tree_param":{"num_deleted":"0","num_feature":"5","num_nodes":"7","size_leaf_vector":"0"}},{"base_weights":[-5.03568269778043032e-04,-3.65486368536949158e-03,7.39105418324470520e-03,-2.55266844760626554e-04,-3.36486436426639557e-02,9.65019613504409790e-02,4.90656180772930384e-04],"default_left":[true,true,true,false,false,false,false],"id":17,"leaf_child_counts":[0,0,0,0,0,0,0],"left_children":[1,3,5,-1,-1,-1,-1],"loss_changes":[2.12338328361511230e-01,6.21988654136657715e-01,1.49723601341247559e+00,0.00000000000000000e+00,0.00000000000000000e+00,0.00000000000000000e+00,0.00000000000000000e+00],"parents":[2147483647,0,0,1,1,2,2],"right_children":[2,4,6,-1,-1,-1,-1],"split_conditions":[4.55218374729156494e-01,1.41022980213165283e-01,2.67564326524734497e-01,-7.65800577937625349e-05,-1.00945932790637016e-02,2.89505887776613235e-02,1.47196857142262161e-04],"split_indices":[4,2,2,0,0,0,0],"sum_hessian":[8.53300000000000000e+03,6.09900000000000000e+03,2.43400000000000000e+03,5.47900000000000000e+03,6.20000000000000000e+02,1.74000000000000000e+02,2.26000000000000000e+03],"tree_param":{"num_deleted":"0","num_feature":"5","num_nodes":"7","size_leaf_vector":"0"}},{"base_weights":[-3.50286660250276327e-04,-2.62638065032660961e-03,8.22658650577068329e-03,-2.06213677302002907e-03,-4.77532327175140381e-01,-5.24417348206043243e-02,8.63119214773178101e-03],"default_left":[true,true,true,false,false,false,false],"id":18,"leaf_child_counts":[0,0,0,0,0,0,0],"left_children":[1,3,5,-1,-1,-1,-1],"loss_changes":[1.66620373725891113e-01,1.80642366409301758e+00,4.43913042545318604e-02,0.00000000000000000e+00,0.00000000000000000e+00,0.00000000000000000e+00,0.00000000000000000e+00],"parents":[2147483647,0,0,1,1,2,2],"right_children":[2,4,6,-1,-1,-1,-1],"split_conditions":[9.36409771442413330e-01,9.99482095241546631e-01,1.48107362911105156e-02,-6.18641031906008720e-04,-1.43259704113006592e-01,-1.57325211912393570e-02,2.58935778401792049e-03],"split_indices":[4,2,0,0,0,0,0],"sum_hessian":[8.53300000000000000e+03,6.74400000000000000e+03,1.78900000000000000e+03,6.73700000000000000e+03,7.00000000000000000e+00,1.10000000000000000e+01,1.77800000000000000e+03],"tree_param":{"num_deleted":"0","num_feature":"5","num_nodes":"7","size_leaf_vector":"0"}},{"base_weights":[-2.63597816228866577e-04,-2.16849148273468018e-03,5.53697394207119942e-03,-1.87805492896586657e-03,-3.74713540077209473e-01,-9.16875228285789490e-02,6.74670981243252754e-03],"default_left":[true,true,true,false,false,false,false],"id":19,"leaf_child_counts":[0,0,0,0,0,0,0],"left_children":[1,3,5,-1,-1,-1,-1],"loss_changes":[9.43082049489021301e-02,6.94485962390899658e-01,2.48788312077522278e-01,0.00000000000000000e+00,0.00000000000000000e+00,0.00000000000000000e+00,0.00000000000000000e+00],"parents":[2147483647,0,0,1,1,2,2],"right_children":[2,4,6,-1,-1,-1,-1],"split_conditions":[7.45150923728942871e-01,7.39797353744506836e-01,1.79573073983192444e-01,-5.63416513614356518e-04,-1.12414069473743439e-01,-2.75062583386898041e-02,2.02401308342814445e-03],"split_indices":[4,4,2,0,0,0,0],"sum_hessian":[8.53300000000000000e+03,6.42400000000000000e+03,2.10900000000000000e+03,6.42000000000000000e+03,4.00000000000000000e+00,2.50000000000000000e+01,2.08400000000000000e+03],"tree_param":{"num_deleted":"0","num_feature":"5","num_nodes":"7","size_leaf_vector":"0"}},{"base_weights":[-2.00738257262855768e-04,2.17979680746793747e-03,-4.55682957544922829e-03,-1.98381626978516579e-03,1.14670820534229279e-01,-2.71236710250377655e-02,4.53077675774693489e-03],"default_left":[true,true,true,false,false,false,false],"id":20,"leaf_child_counts":[0,0,0,0,0,0,0],"left_children":[1,3,5,-1,-1,-1,-1],"loss_changes":[8.85060504078865051e-02,2.58515644073486328e+00,6.18639886379241943e-01,0.00000000000000000e+00,0.00000000000000000e+00,0.00000000000000000e+00,0.00000000000000000e+00],"parents":[2147483647,0,0,1,1,2,2],"right_children":[2,4,6,-1,-1,-1,-1],"split_conditions":[2.56417840719223022e-02,2.78194367885589600e-01,6.65835022926330566e-01,-5.95144927501678467e-04,3.44012491405010223e-02,-8.13710130751132965e-03,1.35923305060714483e-03],"split_indices":[0,4,4,0,0,0,0],"sum_hessian":[8.53300000000000000e+03,5.51800000000000000e+03,3.01500000000000000e+03,5.32200000000000000e+03,1.96000000000000000e+02,8.65000000000000000e+02,2.15000000000000000e+03],"tree_param":{"num_deleted":"0","num_feature":"5","num_nodes":"7","size_leaf_vector":"0"}},{"base_weights":[-1.37347116833552718e-04,2.78589455410838127e-03,-3.59837617725133896e-03,-4.35895781265571713e-04,1.90687939524650574e-01,-2.03571282327175140e-02,-6.24128035269677639e-04],"default_left":[true,true,true,false,false,false,false],"id":21,"leaf_child_counts":[0,0,0,0,0,0,0],"left_children":[1,3,5,-1,-1,-1,-1],"loss_changes":[8.63521248102188110e-02,2.80118083953857422e+00,1.94780334830284119e-01,0.00000000000000000e+00,0.00000000000000000e+00,0.00000000000000000e+00,0.00000000000000000e+00],"parents":[2147483647,0,0,1,1,2,2],"right_children":[2,4,6,-1,-1,-1,-1],"split_conditions":[4.80628514765157888e-08,2.30266630649566650e-01,1.13307777382942731e-07,-1.30768734379671514e-04,5.72063848376274109e-02,-6.10713893547654152e-03,-1.87238416401669383e-04],"split_indices":[1,4,1,0,0,0,0],"sum_hessian":[8.53300000000000000e+03,4.62600000000000000e+03,3.90700000000000000e+03,4.54900000000000000e+03,7.70000000000000000e+01,5.88000000000000000e+02,3.31900000000000000e+03],"tree_param":{"num_deleted":"0","num_feature":"5","num_nodes":"7","size_leaf_vector":"0"}},{"base_weights":[-9.01974926819093525e-05,2.06860178150236607e-03,-4.40321443602442741e-03,-1.57266695168800652e-04,8.83804708719253540e-02,-7.35238641500473022e-02,-5.58699946850538254e-04],"default_left":[true,true,true,false,false,false,false],"id":22,"leaf_child_counts":[0,0,0,0,0,0,0],"left_children":[1,3,5,-1,-1,-1,-1],"loss_changes":[7.94686451554298401e-02,1.09278607368469238e+00,7.56507396697998047e-01,0.00000000000000000e+00,0.00000000000000000e+00,0.00000000000000000e+00,0.00000000000000000e+00],"parents":[2147483647,0,0,1,1,2,2],"right_children":[2,4,6,-1,-1,-1,-1],"split_conditions":[3.57035875320434570e-01,1.74607440829277039e-01,4.29615586996078491e-01,-4.71800121886190027e-05,2.65141427516937256e-02,-2.20571607351303101e-02,-1.67609992786310613e-04],"split_indices":[3,4,3,0,0,0,0],"sum_hessian":[8.53300000000000000e+03,5.68700000000000000e+03,2.84600000000000000e+03,5.54500000000000000e+03,1.42000000000000000e+02,1.49000000000000000e+02,2.69700000000000000e+03],"tree_param":{"num_deleted":"0","num_feature":"5","num_nodes":"7","size_leaf_vector":"0"}},{"base_weights":[-6.26415421720594168e-05,1.67308398522436619e-03,-3.43707646243274212e-03,-6.12601928878575563e-04,9.92535874247550964e-02,-2.36257743090391159e-02,3.56914475560188293e-03],"default_left":[true,true,true,false,false,false,false],"id":23,"leaf_child_counts":[0,0,0,0,0,0,0],"left_children":[1,3,5,-1,-1,-1,-1],"loss_changes":[4.99901808798313141e-02,1.25710511207580566e+00,4.10137683153152466e-01,0.00000000000000000e+00,0.00000000000000000e+00,0.00000000000000000e+00,0.00000000000000000e+00],"parents":[2147483647,0,0,1,1,2,2],"right_children":[2,4,6,-1,-1,-1,-1],"split_conditions":[1.75483256578445435e-01,2.78194367885589600e-01,6.65835022926330566e-01,-1.83780590305104852e-04,2.97760777175426483e-02,-7.08773266524076462e-03,1.07074342668056488e-03],"split_indices":[2,4,4,0,0,0,0],"sum_hessian":[8.53300000000000000e+03,5.63500000000000000e+03,2.89800000000000000e+03,5.50700000000000000e+03,1.28000000000000000e+02,7.46000000000000000e+02,2.15200000000000000e+03],"tree_param":{"num_deleted":"0","num_feature":"5","num_nodes":"7","size_leaf_vector":"0"}},{"base_weights":[-4.10856482631061226e-05,1.86070695053786039e-03,-3.75581858679652214e-03,1.14473048597574234e-03,1.69500678777694702e-01,-4.10260893404483795e-02,-6.69494504109025002e-04],"default_left":[true,true,true,false,false,false,false],"id":24,"leaf_child_counts":[0,0,0,0,0,0,0],"left_children":[1,3,5,-1,-1,-1,-1],"loss_changes":[6.02967292070388794e-02,6.77354335784912109e-01,3.32403838634490967e-01,0.00000000000000000e+00,0.00000000000000000e+00,0.00000000000000000e+00,0.00000000000000000e+00],"parents":[2147483647,0,0,1,1,2,2],"right_children":[2,4,6,-1,-1,-1,-1],"split_conditions":[3.39869081974029541e-01,2.78194367885589600e-01,4.49427992105484009e-01,3.43419145792722702e-04,5.08502051234245300e-02,-1.23078273609280586e-02,-2.00848357053473592e-04],"split_indices":[3,4,3,0,0,0,0],"sum_hessian":[8.53300000000000000e+03,5.64400000000000000e+03,2.88900000000000000e+03,5.62100000000000000e+03,2.30000000000000000e+01,2.20000000000000000e+02,2.66900000000000000e+03],"tree_param":{"num_deleted":"0","num_feature":"5","num_nodes":"7","size_leaf_vector":"0"}},{"base_weights":[-2.42216246988391504e-05,1.30760530009865761e-03,-3.88285983353853226e-03,4.58640628494322300e-04,1.50075927376747131e-01,-3.04803419858217239e-02,1.57629488967359066e-03],"default_left":[true,true,true,false,false,false,false],"id":25,"leaf_child_counts":[0,0,0,0,0,0,0],"left_children":[1,3,5,-1,-1,-1,-1],"loss_changes":[4.38616275787353516e-02,8.01298677921295166e-01,3.18035542964935303e-01,0.00000000000000000e+00,0.00000000000000000e+00,0.00000000000000000e+00,0.00000000000000000e+00],"parents":[2147483647,0,0,1,1,2,2],"right_children":[2,4,6,-1,-1,-1,-1],"split_conditions":[1.57429574755951762e-04,3.62699091434478760e-01,8.24822902679443359e-01,1.37592200189828873e-04,4.50227782130241394e-02,-9.14410315454006195e-03,4.72888496005907655e-04],"split_indices":[1,0,3,0,0,0,0],"sum_hessian":[8.53300000000000000e+03,6.34400000000000000e+03,2.18900000000000000e+03,6.30900000000000000e+03,3.50000000000000000e+01,3.72000000000000000e+02,1.81700000000000000e+03],"tree_param":{"num_deleted":"0","num_feature":"5","num_nodes":"7","size_leaf_vector":"0"}},{"base_weights":[-1.26812828966649249e-05,1.54530117288231850e-03,-3.13028506934642792e-03,-1.93781204870902002e-04,4.37942706048488617e-02,-4.10814993083477020e-02,-1.06136035174131393e-03],"default_left":[true,true,true,false,false,false,false],"id":26,"leaf_child_counts":[0,0,0,0,0,0,0],"left_children":[1,3,5,-1,-1,-1,-1],"loss_changes":[4.14559468626976013e-02,4.18151497840881348e-01,2.23262190818786621e-01,0.00000000000000000e+00,0.00000000000000000e+00,0.00000000000000000e+00,0.00000000000000000e+00],"parents":[2147483647,0,0,1,1,2,2],"right_children":[2,4,6,-1,-1,-1,-1],"split_conditions":[3.58520328998565674e-01,1.53400123119354248e-01,4.29615586996078491e-01,-5.81343629164621234e-05,1.31382821127772331e-02,-1.23244505375623703e-02,-3.18408128805458546e-04],"split_indices":[3,4,3,0,0,0,0],"sum_hessian":[8.53300000000000000e+03,5.69000000000000000e+03,2.84300000000000000e+03,5.46600000000000000e+03,2.24000000000000000e+02,1.46000000000000000e+02,2.69700000000000000e+03],"tree_param":{"num_deleted":"0","num_feature":"5","num_nodes":"7","size_leaf_vector":"0"}},{"base_weights":[-8.82568383531179279e-06,1.24795304145663977e-03,-2.65262788161635399e-03,6.31735136266797781e-04,1.70355007052421570e-01,-9.98098626732826233e-02,-7.43070384487509727e-04],"default_left":[true,true,true,false,false,false,false],"id":27,"leaf_child_counts":[0,0,0,0,0,0,0],"left_children":[1,3,5,-1,-1,-1,-1],"loss_changes":[2.83590126782655716e-02,6.02728664875030518e-01,5.10125935077667236e-01,0.00000000000000000e+00,0.00000000000000000e+00,0.00000000000000000e+00,0.00000000000000000e+00],"parents":[2147483647,0,0,1,1,2,2],"right_children":[2,4,6,-1,-1,-1,-1],"split_conditions":[3.98971855640411377e-01,3.71626317501068115e-01,4.29615586996078491e-01,1.89520549611188471e-04,5.11065050959587097e-02,-2.99429595470428467e-02,-2.22921124077402055e-04],"split_indices":[3,4,3,0,0,0,0],"sum_hessian":[8.53300000000000000e+03,5.78400000000000000e+03,2.74900000000000000e+03,5.76400000000000000e+03,2.00000000000000000e+01,5.20000000000000000e+01,2.69700000000000000e+03],"tree_param":{"num_deleted":"0","num_feature":"5","num_nodes":"7","size_leaf_vector":"0"}},{"base_weights":[-3.70198358723428100e-06,-2.02767364680767059e-03,1.51220371481031179e-03,-2.14255228638648987e-03,4.00598645210266113e-02,4.22794334590435028e-02,4.14009438827633858e-04],"default_left":[true,true,true,false,false,false,false],"id":28,"leaf_child_counts":[0,0,0,0,0,0,0],"left_children":[1,3,5,-1,-1,-1,-1],"loss_changes":[2.61866580694913864e-02,1.77576113492250443e-02,2.18461737036705017e-01,0.00000000000000000e+00,0.00000000000000000e+00,0.00000000000000000e+00,0.00000000000000000e+00],"parents":[2147483647,0,0,1,1,2,2],"right_children":[2,4,6,-1,-1,-1,-1],"split_conditions":[1.74295380711555481e-02,1.48796379566192627e-01,1.29323627362509797e-08,-6.42765720840543509e-04,1.20179597288370132e-02,1.26838302239775658e-02,1.24202837469056249e-04],"split_indices":[4,2,1,0,0,0,0],"sum_hessian":[8.53300000000000000e+03,3.65400000000000000e+03,4.87900000000000000e+03,3.64500000000000000e+03,9.00000000000000000e+00,1.27000000000000000e+02,4.75200000000000000e+03],"tree_param":{"num_deleted":"0","num_feature":"5","num_nodes":"7","size_leaf_vector":"0"}},{"base_weights":[2.38557419152130024e-07,1.04009557981044054e-03,-2.75921076536178589e-03,6.56206742860376835e-04,5.95423817634582520e-01,8.42064917087554932e-02,-5.80063322558999062e-03],"default_left":[true,true,true,false,false,false,false],"id":29,"leaf_child_counts":[0,0,0,0,0,0,0],"left_children":[1,3,5,-1,-1,-1,-1],"loss_changes":[2.44906097650527954e-02,1.41408002376556396e+00,6.18359148502349854e-01,0.00000000000000000e+00,0.00000000000000000e+00,0.00000000000000000e+00,0.00000000000000000e+00],"parents":[2147483647,0,0,1,1,2,2],"right_children":[2,4,6,-1,-1,-1,-1],"split_conditions":[3.99749934673309326e-01,3.98132622241973877e-01,2.34009191393852234e-01,1.96862034499645233e-04,1.78627148270606995e-01,2.52619478851556778e-02,-1.74019008409231901e-03],"split_indices":[2,2,4,0,0,0,0],"sum_hessian":[8.53300000000000000e+03,6.19800000000000000e+03,2.33500000000000000e+03,6.19500000000000000e+03,3.00000000000000000e+00,7.80000000000000000e+01,2.25700000000000000e+03],"tree_param":{"num_deleted":"0","num_feature":"5","num_nodes":"7","size_leaf_vector":"0"}}]},"name":"gbtree"},"learner_model_param":{"base_score":"0.500000","num_class":"0","num_feature":"5"},"objective":{"name":"reg:squarederror","reg_loss_param":{"scale_pos_weight":"1"}}},"version":[1,1,1]}