{"learner":{"attributes":{},"gradient_booster":{"model":{"gbtree_model_param":{"num_trees":"30","size_leaf_vector":"0"},"tree_info":[0,0,0,0,0,0,0,0,0,0,0,0,0,0,0,0,0,0,0,0,0,0,0,0,0,0,0,0,0,0],"trees":[{"base_weights":[-3.94125670194625854e-01,-4.99575406312942505e-01,4.92154061794281006e-01,-4.99745100736618042e-01,-1.25000000000000000e-01,2.95454531908035278e-01,4.97794121503829956e-01],"default_left":[true,true,true,false,false,false,false],"id":0,"leaf_child_counts":[0,0,0,0,0,0,0],"left_children":[1,3,5,-1,-1,-1,-1],"loss_changes":[6.15946838378906250e+02,3.11767578125000000e-01,6.30615234375000000e-01,0.00000000000000000e+00,0.00000000000000000e+00,0.00000000000000000e+00,0.00000000000000000e+00],"parents":[2147483647,0,0,1,1,2,2],"right_children":[2,4,6,-1,-1,-1,-1],"split_conditions":[7.16146469116210938e-01,6.45390987396240234e-01,9.03145909309387207e-01,-1.49923533201217651e-01,-3.75000014901161194e-02,8.86363610625267029e-02,1.49338245391845703e-01],"split_indices":[4,4,4,0,0,0,0],"sum_hessian":[6.58700000000000000e+03,5.88700000000000000e+03,7.00000000000000000e+02,5.88400000000000000e+03,3.00000000000000000e+00,2.10000000000000000e+01,6.79000000000000000e+02],"tree_param":{"num_deleted":"0","num_feature":"5","num_nodes":"7","size_leaf_vector":"0"}},{"base_weights":[-2.75880306959152222e-01,-3.49734604358673096e-01,3.44847321510314941e-01,-3.49847048521041870e-01,-9.68749970197677612e-02,2.37441703677177429e-01,3.50135236978530884e-01],"default_left":[true,true,true,false,false,false,false],"id":1,"leaf_child_counts":[0,0,0,0,0,0,0],"left_children":[1,3,5,-1,-1,-1,-1],"loss_changes":[3.02136993408203125e+02,1.33483886718750000e-01,3.14994812011718750e-01,0.00000000000000000e+00,0.00000000000000000e+00,0.00000000000000000e+00,0.00000000000000000e+00],"parents":[2147483647,0,0,1,1,2,2],"right_children":[2,4,6,-1,-1,-1,-1],"split_conditions":[7.16146469116210938e-01,6.45390987396240234e-01,9.26397204399108887e-01,-1.04954116046428680e-01,-2.90625002235174179e-02,7.12325125932693481e-02,1.05040572583675385e-01],"split_indices":[4,4,4,0,0,0,0],"sum_hessian":[6.58700000000000000e+03,5.88700000000000000e+03,7.00000000000000000e+02,5.88400000000000000e+03,3.00000000000000000e+00,3.50000000000000000e+01,6.65000000000000000e+02],"tree_param":{"num_deleted":"0","num_feature":"5","num_nodes":"7","size_leaf_vector":"0"}},{"base_weights":[-1.93109795451164246e-01,-2.44836986064910889e-01,2.41644605994224548e-01,-2.44910761713981628e-01,-7.50781148672103882e-02,8.01165923476219177e-02,2.43393674492835999e-01],"default_left":[true,true,true,false,false,false,false],"id":2,"leaf_child_counts":[0,0,0,0,0,0,0],"left_children":[1,3,5,-1,-1,-1,-1],"loss_changes":[1.48214202880859375e+02,5.53894042968750000e-02,1.78550720214843750e-01,0.00000000000000000e+00,0.00000000000000000e+00,0.00000000000000000e+00,0.00000000000000000e+00],"parents":[2147483647,0,0,1,1,2,2],"right_children":[2,4,6,-1,-1,-1,-1],"split_conditions":[7.16146469116210938e-01,6.45390987396240234e-01,8.56486618518829346e-01,-7.34732300043106079e-02,-2.25234348326921463e-02,2.40349788218736649e-02,7.30181038379669189e-02],"split_indices":[4,4,4,0,0,0,0],"sum_hessian":[6.58700000000000000e+03,5.88700000000000000e+03,7.00000000000000000e+02,5.88400000000000000e+03,3.00000000000000000e+00,8.00000000000000000e+00,6.92000000000000000e+02],"tree_param":{"num_deleted":"0","num_feature":"5","num_nodes":"7","size_leaf_vector":"0"}},{"base_weights":[-1.35176688432693481e-01,-1.71402201056480408e-01,1.69289693236351013e-01,-1.71450018882751465e-01,-5.81855475902557373e-02,1.08083203434944153e-01,1.72343969345092773e-01],"default_left":[true,true,true,false,false,false,false],"id":3,"leaf_child_counts":[0,0,0,0,0,0,0],"left_children":[1,3,5,-1,-1,-1,-1],"loss_changes":[7.26910247802734375e+01,2.19116210937500000e-02,1.12417221069335938e-01,0.00000000000000000e+00,0.00000000000000000e+00,0.00000000000000000e+00,0.00000000000000000e+00],"parents":[2147483647,0,0,1,1,2,2],"right_children":[2,4,6,-1,-1,-1,-1],"split_conditions":[7.16146469116210938e-01,6.45390987396240234e-01,9.26397204399108887e-01,-5.14350086450576782e-02,-1.74556653946638107e-02,3.24249640107154846e-02,5.17031922936439514e-02],"split_indices":[4,4,4,0,0,0,0],"sum_hessian":[6.58700000000000000e+03,5.88700000000000000e+03,7.00000000000000000e+02,5.88400000000000000e+03,3.00000000000000000e+00,3.50000000000000000e+01,6.65000000000000000e+02],"tree_param":{"num_deleted":"0","num_feature":"5","num_nodes":"7","size_leaf_vector":"0"}},{"base_weights":[-9.46213752031326294e-02,-1.19993232190608978e-01,1.18622772395610809e-01,-1.20193444192409515e-01,-1.01897470653057098e-01,2.18619197607040405e-01,1.16415545344352722e-01],"default_left":[true,true,true,false,false,false,false],"id":4,"leaf_child_counts":[0,0,0,0,0,0,0],"left_children":[1,3,5,-1,-1,-1,-1],"loss_changes":[3.56579551696777344e+01,9.07897949218750000e-03,1.29270553588867188e-01,0.00000000000000000e+00,0.00000000000000000e+00,0.00000000000000000e+00,0.00000000000000000e+00],"parents":[2147483647,0,0,1,1,2,2],"right_children":[2,4,6,-1,-1,-1,-1],"split_conditions":[7.16146469116210938e-01,2.19291418790817261e-01,5.16952730622577405e-11,-3.60580347478389740e-02,-3.05692423135042191e-02,6.55857622623443604e-02,3.49246636033058167e-02],"split_indices":[4,4,1,0,0,0,0],"sum_hessian":[6.58700000000000000e+03,5.88700000000000000e+03,7.00000000000000000e+02,5.81700000000000000e+03,7.00000000000000000e+01,1.30000000000000000e+01,6.87000000000000000e+02],"tree_param":{"num_deleted":"0","num_feature":"5","num_nodes":"7","size_leaf_vector":"0"}},{"base_weights":[-6.62298128008842468e-02,-8.39202925562858582e-02,8.43752175569534302e-02,-8.37502628564834595e-02,-3.13440114259719849e-01,3.16870622336864471e-02,8.53358879685401917e-02],"default_left":[true,true,true,false,false,false,false],"id":5,"leaf_child_counts":[0,0,0,0,0,0,0],"left_children":[1,3,5,-1,-1,-1,-1],"loss_changes":[1.75593261718750000e+01,2.03842163085937500e-01,3.23734283447265625e-02,0.00000000000000000e+00,0.00000000000000000e+00,0.00000000000000000e+00,0.00000000000000000e+00],"parents":[2147483647,0,0,1,1,2,2],"right_children":[2,4,6,-1,-1,-1,-1],"split_conditions":[8.56486618518829346e-01,8.54759931564331055e-01,9.03145909309387207e-01,-2.51250807195901871e-02,-9.40320417284965515e-02,9.50611941516399384e-03,2.56007667630910873e-02],"split_indices":[4,4,4,0,0,0,0],"sum_hessian":[6.58700000000000000e+03,5.89500000000000000e+03,6.92000000000000000e+02,5.89200000000000000e+03,3.00000000000000000e+00,1.30000000000000000e+01,6.79000000000000000e+02],"tree_param":{"num_deleted":"0","num_feature":"5","num_nodes":"7","size_leaf_vector":"0"}},{"base_weights":[-4.63736318051815033e-02,-5.88857643306255341e-02,5.87872974574565887e-02,-5.89135214686393738e-02,-3.32303345203399658e-03,1.71286419034004211e-01,5.69113530218601227e-02],"default_left":[true,true,true,false,false,false,false],"id":6,"leaf_child_counts":[0,0,0,0,0,0,0],"left_children":[1,3,5,-1,-1,-1,-1],"loss_changes":[8.67186927795410156e+00,8.88633728027343750e-03,1.38192176818847656e-01,0.00000000000000000e+00,0.00000000000000000e+00,0.00000000000000000e+00,0.00000000000000000e+00],"parents":[2147483647,0,0,1,1,2,2],"right_children":[2,4,6,-1,-1,-1,-1],"split_conditions":[7.16146469116210938e-01,6.45390987396240234e-01,1.80957280410121157e-11,-1.76740568131208420e-02,-9.96910035610198975e-04,5.13859279453754425e-02,1.70734059065580368e-02],"split_indices":[4,4,1,0,0,0,0],"sum_hessian":[6.58700000000000000e+03,5.88700000000000000e+03,7.00000000000000000e+02,5.88400000000000000e+03,3.00000000000000000e+00,1.00000000000000000e+01,6.90000000000000000e+02],"tree_param":{"num_deleted":"0","num_feature":"5","num_nodes":"7","size_leaf_vector":"0"}},{"base_weights":[-3.24539802968502045e-02,-4.10941168665885925e-02,4.26740013062953949e-02,-4.09611240029335022e-02,-4.13408041000366211e-01,8.42557698488235474e-02,4.18008938431739807e-02],"default_left":[true,true,true,false,false,false,false],"id":7,"leaf_child_counts":[0,0,0,0,0,0,0],"left_children":[1,3,5,-1,-1,-1,-1],"loss_changes":[4.27813100814819336e+00,2.75650978088378906e-01,2.11657285690307617e-02,0.00000000000000000e+00,0.00000000000000000e+00,0.00000000000000000e+00,0.00000000000000000e+00],"parents":[2147483647,0,0,1,1,2,2],"right_children":[2,4,6,-1,-1,-1,-1],"split_conditions":[9.03145909309387207e-01,9.99963521957397461e-01,9.25085783004760742e-01,-1.22883375734090805e-02,-1.24022416770458221e-01,2.52767316997051239e-02,1.25402687117457390e-02],"split_indices":[4,2,4,0,0,0,0],"sum_hessian":[6.58700000000000000e+03,5.90800000000000000e+03,6.79000000000000000e+02,5.90700000000000000e+03,1.00000000000000000e+00,1.20000000000000000e+01,6.67000000000000000e+02],"tree_param":{"num_deleted":"0","num_feature":"5","num_nodes":"7","size_leaf_vector":"0"}},{"base_weights":[-2.27327384054660797e-02,-2.89562176913022995e-02,2.93239485472440720e-02,-2.90635954588651657e-02,-1.93433091044425964e-02,1.21718294918537140e-01,2.74095572531223297e-02],"default_left":[true,true,true,false,false,false,false],"id":8,"leaf_child_counts":[0,0,0,0,0,0,0],"left_children":[1,3,5,-1,-1,-1,-1],"loss_changes":[2.13518786430358887e+00,5.51223754882812500e-03,1.21186554431915283e-01,0.00000000000000000e+00,0.00000000000000000e+00,0.00000000000000000e+00,0.00000000000000000e+00],"parents":[2147483647,0,0,1,1,2,2],"right_children":[2,4,6,-1,-1,-1,-1],"split_conditions":[6.45390987396240234e-01,2.19291418790817261e-01,5.16952730622577405e-11,-8.71907919645309448e-03,-5.80299273133277893e-03,3.65154892206192017e-02,8.22286773473024368e-03],"split_indices":[4,4,1,0,0,0,0],"sum_hessian":[6.58700000000000000e+03,5.88400000000000000e+03,7.03000000000000000e+02,5.81700000000000000e+03,6.70000000000000000e+01,1.30000000000000000e+01,6.90000000000000000e+02],"tree_param":{"num_deleted":"0","num_feature":"5","num_nodes":"7","size_leaf_vector":"0"}},{"base_weights":[-1.59083306789398193e-02,-2.02091019600629807e-02,2.23640073090791702e-02,-1.99558679014444351e-02,-3.89942079782485962e-01,-3.53640913963317871e-02,2.25039962679147720e-02],"default_left":[true,true,true,false,false,false,false],"id":9,"leaf_child_counts":[0,0,0,0,0,0,0],"left_children":[1,3,5,-1,-1,-1,-1],"loss_changes":[1.08484053611755371e+00,5.46781301498413086e-01,6.17796182632446289e-03,0.00000000000000000e+00,0.00000000000000000e+00,0.00000000000000000e+00,0.00000000000000000e+00],"parents":[2147483647,0,0,1,1,2,2],"right_children":[2,4,6,-1,-1,-1,-1],"split_conditions":[9.26397204399108887e-01,9.81379866600036621e-01,3.47168162273536751e-11,-5.98676083609461784e-03,-1.16982631385326385e-01,-1.06092281639575958e-02,6.75119925290346146e-03],"split_indices":[4,3,1,0,0,0,0],"sum_hessian":[6.58700000000000000e+03,5.92200000000000000e+03,6.65000000000000000e+02,5.91900000000000000e+03,3.00000000000000000e+00,1.00000000000000000e+00,6.64000000000000000e+02],"tree_param":{"num_deleted":"0","num_feature":"5","num_nodes":"7","size_leaf_vector":"0"}},{"base_weights":[-1.11550800502300262e-02,-1.42772225663065910e-02,1.54240038245916367e-02,-1.41160320490598679e-02,-2.48181968927383423e-01,1.11782401800155640e-01,1.45612508058547974e-02],"default_left":[true,true,true,false,false,false,false],"id":10,"leaf_child_counts":[0,0,0,0,0,0,0],"left_children":[1,3,5,-1,-1,-1,-1],"loss_changes":[5.46916782855987549e-01,2.18794941902160645e-01,5.59838414192199707e-02,0.00000000000000000e+00,0.00000000000000000e+00,0.00000000000000000e+00,0.00000000000000000e+00],"parents":[2147483647,0,0,1,1,2,2],"right_children":[2,4,6,-1,-1,-1,-1],"split_conditions":[8.56486618518829346e-01,8.54759931564331055e-01,8.73454988002777100e-01,-4.23480989411473274e-03,-7.44545906782150269e-02,3.35347205400466919e-02,4.36837552115321159e-03],"split_indices":[4,4,4,0,0,0,0],"sum_hessian":[6.58700000000000000e+03,5.89500000000000000e+03,6.92000000000000000e+02,5.89200000000000000e+03,3.00000000000000000e+00,5.00000000000000000e+00,6.87000000000000000e+02],"tree_param":{"num_deleted":"0","num_feature":"5","num_nodes":"7","size_leaf_vector":"0"}},{"base_weights":[-7.81474635004997253e-03,-1.00519852712750435e-02,1.08982743695378304e-02,-9.98517218977212906e-03,-1.81385092437267303e-02,9.37629044055938721e-02,9.32582002133131027e-03],"default_left":[true,true,true,false,false,false,false],"id":11,"leaf_child_counts":[0,0,0,0,0,0,0],"left_children":[1,3,5,-1,-1,-1,-1],"loss_changes":[2.75919467210769653e-01,2.99847126007080078e-03,9.08573791384696960e-02,0.00000000000000000e+00,0.00000000000000000e+00,0.00000000000000000e+00,0.00000000000000000e+00],"parents":[2147483647,0,0,1,1,2,2],"right_children":[2,4,6,-1,-1,-1,-1],"split_conditions":[6.45390987396240234e-01,2.21076980233192444e-01,8.64530466060386971e-06,-2.99555179663002491e-03,-5.44155295938253403e-03,2.81288716942071915e-02,2.79774609953165054e-03],"split_indices":[4,4,0,0,0,0,0],"sum_hessian":[6.58700000000000000e+03,5.88400000000000000e+03,7.03000000000000000e+02,5.83800000000000000e+03,4.60000000000000000e+01,1.20000000000000000e+01,6.91000000000000000e+02],"tree_param":{"num_deleted":"0","num_feature":"5","num_nodes":"7","size_leaf_vector":"0"}},{"base_weights":[-5.46690635383129120e-03,-7.02720321714878082e-03,8.41763429343700409e-03,-6.82293996214866638e-03,-3.07579666376113892e-01,-3.64422388374805450e-02,8.60763713717460632e-03],"default_left":[true,true,true,false,false,false,false],"id":12,"leaf_child_counts":[0,0,0,0,0,0,0],"left_children":[1,3,5,-1,-1,-1,-1],"loss_changes":[1.42781585454940796e-01,3.61524730920791626e-01,5.99033758044242859e-03,0.00000000000000000e+00,0.00000000000000000e+00,0.00000000000000000e+00,0.00000000000000000e+00],"parents":[2147483647,0,0,1,1,2,2],"right_children":[2,4,6,-1,-1,-1,-1],"split_conditions":[9.26397204399108887e-01,9.81379866600036621e-01,6.49118192086461931e-06,-2.04688217490911484e-03,-9.22739058732986450e-02,-1.09326718375086784e-02,2.58229114115238190e-03],"split_indices":[4,3,0,0,0,0,0],"sum_hessian":[6.58700000000000000e+03,5.92200000000000000e+03,6.65000000000000000e+02,5.91900000000000000e+03,3.00000000000000000e+00,2.00000000000000000e+00,6.63000000000000000e+02],"tree_param":{"num_deleted":"0","num_feature":"5","num_nodes":"7","size_leaf_vector":"0"}},{"base_weights":[-3.84242087602615356e-03,-5.00618712976574898e-03,6.17733784019947052e-03,-4.89878933876752853e-03,-2.14588716626167297e-01,1.08898304402828217e-01,5.26323635131120682e-03],"default_left":[true,true,true,false,false,false,false],"id":13,"leaf_child_counts":[0,0,0,0,0,0,0],"left_children":[1,3,5,-1,-1,-1,-1],"loss_changes":[7.68513381481170654e-02,1.31817519664764404e-01,6.38404488563537598e-02,0.00000000000000000e+00,0.00000000000000000e+00,0.00000000000000000e+00,0.00000000000000000e+00],"parents":[2147483647,0,0,1,1,2,2],"right_children":[2,4,6,-1,-1,-1,-1],"split_conditions":[8.83307754993438721e-01,8.73454988002777100e-01,8.99172544479370117e-01,-1.46963691804558039e-03,-6.43766149878501892e-02,3.26694920659065247e-02,1.57897092867642641e-03],"split_indices":[4,4,4,0,0,0,0],"sum_hessian":[6.58700000000000000e+03,5.90200000000000000e+03,6.85000000000000000e+02,5.90000000000000000e+03,2.00000000000000000e+00,5.00000000000000000e+00,6.80000000000000000e+02],"tree_param":{"num_deleted":"0","num_feature":"5","num_nodes":"7","size_leaf_vector":"0"}},{"base_weights":[-2.69449269399046898e-03,-3.61524918116629124e-03,4.25707129761576653e-03,3.69637310504913330e-02,2.13090563192963600e-03],"default_left":[true,false,true,false,false],"id":14,"leaf_child_counts":[0,0,0,0,0],"left_children":[1,-1,3,-1,-1],"loss_changes":[4.21831868588924408e-02,0.00000000000000000e+00,5.35363927483558655e-02,0.00000000000000000e+00,0.00000000000000000e+00],"parents":[2147483647,0,0,2,2],"right_children":[2,-1,4,-1,-1],"split_conditions":[2.19291418790817261e-01,-1.08457484748214483e-03,1.93537324666976929e-01,1.10891200602054596e-02,6.39271689578890800e-04],"split_indices":[4,0,3,0,0],"sum_hessian":[6.58700000000000000e+03,5.81700000000000000e+03,7.70000000000000000e+02,4.60000000000000000e+01,7.24000000000000000e+02],"tree_param":{"num_deleted":"0","num_feature":"5","num_nodes":"5","size_leaf_vector":"0"}},{"base_weights":[-1.88452785369008780e-03,-2.52827396616339684e-03,3.71220824308693409e-03,-2.44218460284173489e-03,-2.55572170019149780e-01,4.33734916150569916e-02,2.93479976244270802e-03],"default_left":[true,true,true,false,false,false,false],"id":15,"leaf_child_counts":[0,0,0,0,0,0,0],"left_children":[1,3,5,-1,-1,-1,-1],"loss_changes":[2.37451419234275818e-02,1.28099814057350159e-01,2.08391621708869934e-02,0.00000000000000000e+00,0.00000000000000000e+00,0.00000000000000000e+00,0.00000000000000000e+00],"parents":[2147483647,0,0,1,1,2,2],"right_children":[2,4,6,-1,-1,-1,-1],"split_conditions":[9.03145909309387207e-01,9.99963521957397461e-01,9.25085783004760742e-01,-7.32655404135584831e-04,-7.66716524958610535e-02,1.30120478570461273e-02,8.80439940374344587e-04],"split_indices":[4,2,4,0,0,0,0],"sum_hessian":[6.58700000000000000e+03,5.90800000000000000e+03,6.79000000000000000e+02,5.90700000000000000e+03,1.00000000000000000e+00,1.20000000000000000e+01,6.67000000000000000e+02],"tree_param":{"num_deleted":"0","num_feature":"5","num_nodes":"7","size_leaf_vector":"0"}},{"base_weights":[-1.32880802266299725e-03,-1.79047544952481985e-03,2.93507683090865612e-03,-1.64239911828190088e-03,-2.21310228109359741e-01],"default_left":[true,true,false,false,false],"id":16,"leaf_child_counts":[0,0,0,0,0],"left_children":[1,3,-1,-1,-1],"loss_changes":[1.29737118259072304e-02,1.92882761359214783e-01,0.00000000000000000e+00,0.00000000000000000e+00,0.00000000000000000e+00],"parents":[2147483647,0,0,1,1],"right_children":[2,4,-1,-1,-1],"split_conditions":[9.55869317054748535e-01,9.81379866600036621e-01,8.80523060914129019e-04,-4.92719758767634630e-04,-6.63930699229240417e-02],"split_indices":[4,3,0,0,0],"sum_hessian":[6.58700000000000000e+03,5.94400000000000000e+03,6.43000000000000000e+02,5.94100000000000000e+03,3.00000000000000000e+00],"tree_param":{"num_deleted":"0","num_feature":"5","num_nodes":"5","size_leaf_vector":"0"}},{"base_weights":[-9.40186495427042246e-04,-1.29801954608410597e-03,2.14032200165092945e-03,-1.21138256508857012e-03,-1.71280264854431152e-01,7.86788463592529297e-02,1.46283081267029047e-03],"default_left":[true,true,true,false,false,false,false],"id":17,"leaf_child_counts":[0,0,0,0,0,0,0],"left_children":[1,3,5,-1,-1,-1,-1],"loss_changes":[7.26478220894932747e-03,8.67244973778724670e-02,3.54568697512149811e-02,0.00000000000000000e+00,0.00000000000000000e+00,0.00000000000000000e+00,0.00000000000000000e+00],"parents":[2147483647,0,0,1,1,2,2],"right_children":[2,4,6,-1,-1,-1,-1],"split_conditions":[8.83307754993438721e-01,8.73454988002777100e-01,8.99172544479370117e-01,-3.63414786988869309e-04,-5.13840802013874054e-02,2.36036553978919983e-02,4.38849267084151506e-04],"split_indices":[4,4,4,0,0,0,0],"sum_hessian":[6.58700000000000000e+03,5.90200000000000000e+03,6.85000000000000000e+02,5.90000000000000000e+03,2.00000000000000000e+00,5.00000000000000000e+00,6.80000000000000000e+02],"tree_param":{"num_deleted":"0","num_feature":"5","num_nodes":"7","size_leaf_vector":"0"}},{"base_weights":[-6.62337930407375097e-04,-9.42343787755817175e-04,1.45145773421972990e-03,1.96479372680187225e-02,-8.91731993760913610e-04],"default_left":[true,false,true,false,false],"id":18,"leaf_child_counts":[0,0,0,0,0],"left_children":[1,-1,3,-1,-1],"loss_changes":[3.90064157545566559e-03,0.00000000000000000e+00,3.28912660479545593e-02,0.00000000000000000e+00,0.00000000000000000e+00],"parents":[2147483647,0,0,2,2],"right_children":[2,-1,4,-1,-1],"split_conditions":[2.19291418790817261e-01,-2.82703142147511244e-04,3.46796631813049316e-01,5.89438155293464661e-03,-2.67519615590572357e-04],"split_indices":[4,0,3,0,0],"sum_hessian":[6.58700000000000000e+03,5.81700000000000000e+03,7.70000000000000000e+02,8.70000000000000000e+01,6.83000000000000000e+02],"tree_param":{"num_deleted":"0","num_feature":"5","num_nodes":"5","size_leaf_vector":"0"}},{"base_weights":[-4.62826777948066592e-04,-7.11763801518827677e-04,1.85585557483136654e-03,-5.96673751715570688e-04,-1.71643942594528198e-01,-3.20559740066528320e-03,1.88477057963609695e-03],"default_left":[true,true,true,false,false,false,false],"id":19,"leaf_child_counts":[0,0,0,0,0,0,0],"left_children":[1,3,5,-1,-1,-1,-1],"loss_changes":[3.80395306274294853e-03,1.16949491202831268e-01,9.95607115328311920e-05,0.00000000000000000e+00,0.00000000000000000e+00,0.00000000000000000e+00,0.00000000000000000e+00],"parents":[2147483647,0,0,1,1,2,2],"right_children":[2,4,6,-1,-1,-1,-1],"split_conditions":[9.60182070732116699e-01,9.81379866600036621e-01,3.48337680101394653e-01,-1.79002134245820343e-04,-5.14931865036487579e-02,-9.61679266765713692e-04,5.65431197173893452e-04],"split_indices":[4,3,3,0,0,0,0],"sum_hessian":[6.58700000000000000e+03,5.94900000000000000e+03,6.38000000000000000e+02,5.94600000000000000e+03,3.00000000000000000e+00,3.00000000000000000e+00,6.35000000000000000e+02],"tree_param":{"num_deleted":"0","num_feature":"5","num_nodes":"7","size_leaf_vector":"0"}},{"base_weights":[-3.31880146404728293e-04,-5.15471561811864376e-04,1.24839995987713337e-03,-4.46136109530925751e-04,-1.36726543307304382e-01,5.63002638518810272e-02,7.61528383009135723e-04],"default_left":[true,true,true,false,false,false,false],"id":20,"leaf_child_counts":[0,0,0,0,0,0,0],"left_children":[1,3,5,-1,-1,-1,-1],"loss_changes":[1.91199302207678556e-03,5.56884668767452240e-02,1.83441136032342911e-02,0.00000000000000000e+00,0.00000000000000000e+00,0.00000000000000000e+00,0.00000000000000000e+00],"parents":[2147483647,0,0,1,1,2,2],"right_children":[2,4,6,-1,-1,-1,-1],"split_conditions":[8.83307754993438721e-01,8.73454988002777100e-01,8.99172544479370117e-01,-1.33840832859277725e-04,-4.10179644823074341e-02,1.68900806456804276e-02,2.28458520723506808e-04],"split_indices":[4,4,4,0,0,0,0],"sum_hessian":[6.58700000000000000e+03,5.90200000000000000e+03,6.85000000000000000e+02,5.90000000000000000e+03,2.00000000000000000e+00,5.00000000000000000e+00,6.80000000000000000e+02],"tree_param":{"num_deleted":"0","num_feature":"5","num_nodes":"7","size_leaf_vector":"0"}},{"base_weights":[-2.35964645980857313e-04,-3.76221258193254471e-04,1.07039324939250946e-03,-2.86822731141000986e-04,-1.33195400238037109e-01,-2.65565514564514160e-03,1.09214452095329762e-03],"default_left":[true,true,true,false,false,false,false],"id":21,"leaf_child_counts":[0,0,0,0,0,0,0],"left_children":[1,3,5,-1,-1,-1,-1],"loss_changes":[1.20749103371053934e-03,7.06111267209053040e-02,5.46888913959264755e-05,0.00000000000000000e+00,0.00000000000000000e+00,0.00000000000000000e+00,0.00000000000000000e+00],"parents":[2147483647,0,0,1,1,2,2],"right_children":[2,4,6,-1,-1,-1,-1],"split_conditions":[9.60182070732116699e-01,9.81379866600036621e-01,3.48337680101394653e-01,-8.60468207974918187e-05,-3.99586223065853119e-02,-7.96696578618139029e-04,3.27643356285989285e-04],"split_indices":[4,3,3,0,0,0,0],"sum_hessian":[6.58700000000000000e+03,5.94900000000000000e+03,6.38000000000000000e+02,5.94600000000000000e+03,3.00000000000000000e+00,3.00000000000000000e+00,6.35000000000000000e+02],"tree_param":{"num_deleted":"0","num_feature":"5","num_nodes":"7","size_leaf_vector":"0"}},{"base_weights":[-1.71325023984536529e-04,-2.94637895422056317e-04,8.78060236573219299e-04,-1.65420817211270332e-04,-1.90590023994445801e-01,6.69788122177124023e-02,3.00323939882218838e-04],"default_left":[true,true,true,false,false,false,false],"id":22,"leaf_child_counts":[0,0,0,0,0,0,0],"left_children":[1,3,5,-1,-1,-1,-1],"loss_changes":[8.52763769216835499e-04,1.44947648048400879e-01,2.64447256922721863e-02,0.00000000000000000e+00,0.00000000000000000e+00,0.00000000000000000e+00,0.00000000000000000e+00],"parents":[2147483647,0,0,1,1,2,2],"right_children":[2,4,6,-1,-1,-1,-1],"split_conditions":[8.56486618518829346e-01,8.54759931564331055e-01,8.73454988002777100e-01,-4.96262473461683840e-05,-5.71770109236240387e-02,2.00936440378427505e-02,9.00971863302402198e-05],"split_indices":[4,4,4,0,0,0,0],"sum_hessian":[6.58700000000000000e+03,5.89500000000000000e+03,6.92000000000000000e+02,5.89200000000000000e+03,3.00000000000000000e+00,5.00000000000000000e+00,6.87000000000000000e+02],"tree_param":{"num_deleted":"0","num_feature":"5","num_nodes":"7","size_leaf_vector":"0"}},{"base_weights":[-1.25552862300537527e-04,-2.37035783356986940e-04,8.06553056463599205e-04,-1.36215137899853289e-04,-1.27573497593402863e-02,7.91698545217514038e-02,-2.07924385904334486e-04],"default_left":[true,true,true,false,false,false,false],"id":23,"leaf_child_counts":[0,0,0,0,0,0,0],"left_children":[1,3,5,-1,-1,-1,-1],"loss_changes":[6.84775877743959427e-04,7.42693478241562843e-03,5.59829138219356537e-02,0.00000000000000000e+00,0.00000000000000000e+00,0.00000000000000000e+00,0.00000000000000000e+00],"parents":[2147483647,0,0,1,1,2,2],"right_children":[2,4,6,-1,-1,-1,-1],"split_conditions":[6.45390987396240234e-01,2.21076980233192444e-01,8.54759931564331055e-01,-4.08645428251475096e-05,-3.82720516063272953e-03,2.37509571015834808e-02,-6.23773157713003457e-05],"split_indices":[4,4,4,0,0,0,0],"sum_hessian":[6.58700000000000000e+03,5.88400000000000000e+03,7.03000000000000000e+02,5.83800000000000000e+03,4.60000000000000000e+01,8.00000000000000000e+00,6.95000000000000000e+02],"tree_param":{"num_deleted":"0","num_feature":"5","num_nodes":"7","size_leaf_vector":"0"}},{"base_weights":[-8.48756026243790984e-05,-1.85848795808851719e-04,7.92676582932472229e-04,-1.38985313242301345e-04,-1.38527646660804749e-01,2.74012777954339981e-02,2.73657875368371606e-04],"default_left":[true,true,true,false,false,false,false],"id":24,"leaf_child_counts":[0,0,0,0,0,0,0],"left_children":[1,3,5,-1,-1,-1,-1],"loss_changes":[5.83904969971626997e-04,3.82898487150669098e-02,9.38354805111885071e-03,0.00000000000000000e+00,0.00000000000000000e+00,0.00000000000000000e+00,0.00000000000000000e+00],"parents":[2147483647,0,0,1,1,2,2],"right_children":[2,4,6,-1,-1,-1,-1],"split_conditions":[9.03145909309387207e-01,9.99963521957397461e-01,9.25085783004760742e-01,-4.16955954278819263e-05,-4.15582954883575439e-02,8.22038389742374420e-03,8.20973655208945274e-05],"split_indices":[4,2,4,0,0,0,0],"sum_hessian":[6.58700000000000000e+03,5.90800000000000000e+03,6.79000000000000000e+02,5.90700000000000000e+03,1.00000000000000000e+00,1.20000000000000000e+01,6.67000000000000000e+02],"tree_param":{"num_deleted":"0","num_feature":"5","num_nodes":"7","size_leaf_vector":"0"}},{"base_weights":[-6.44650644971989095e-05,3.75381932826712728e-05,-8.51396995130926371e-04,-1.19869699119590223e-04,2.02863551676273346e-02,-9.19373184442520142e-02,3.69099114323034883e-04],"default_left":[true,true,true,false,false,false,false],"id":25,"leaf_child_counts":[0,0,0,0,0,0,0],"left_children":[1,3,5,-1,-1,-1,-1],"loss_changes":[5.28848206158727407e-04,1.85940880328416824e-02,8.40784609317779541e-02,0.00000000000000000e+00,0.00000000000000000e+00,0.00000000000000000e+00,0.00000000000000000e+00],"parents":[2147483647,0,0,1,1,2,2],"right_children":[2,4,6,-1,-1,-1,-1],"split_conditions":[3.80356758832931519e-01,7.16146469116210938e-01,7.92180543385256897e-09,-3.59609111910685897e-05,6.08590664342045784e-03,-2.75811962783336639e-02,1.10729735752101988e-04],"split_indices":[3,4,1,0,0,0,0],"sum_hessian":[6.58700000000000000e+03,5.83200000000000000e+03,7.55000000000000000e+02,5.78800000000000000e+03,4.40000000000000000e+01,9.00000000000000000e+00,7.46000000000000000e+02],"tree_param":{"num_deleted":"0","num_feature":"5","num_nodes":"7","size_leaf_vector":"0"}},{"base_weights":[-4.83784569951239973e-05,3.61311758751980960e-05,-7.03291909303516150e-04,-7.98622786533087492e-05,1.46379135549068451e-02,-8.64395648241043091e-02,3.33392265019938350e-04],"default_left":[true,true,true,false,false,false,false],"id":26,"leaf_child_counts":[0,0,0,0,0,0,0],"left_children":[1,3,5,-1,-1,-1,-1],"loss_changes":[3.64648120012134314e-04,9.88566875457763672e-03,6.69565424323081970e-02,0.00000000000000000e+00,0.00000000000000000e+00,0.00000000000000000e+00,0.00000000000000000e+00],"parents":[2147483647,0,0,1,1,2,2],"right_children":[2,4,6,-1,-1,-1,-1],"split_conditions":[3.83627891540527344e-01,7.16146469116210938e-01,3.87064754962921143e-01,-2.39586843235883862e-05,4.39137406647205353e-03,-2.59318705648183823e-02,1.00017685326747596e-04],"split_indices":[3,4,3,0,0,0,0],"sum_hessian":[6.58700000000000000e+03,5.83500000000000000e+03,7.52000000000000000e+02,5.79000000000000000e+03,4.50000000000000000e+01,8.00000000000000000e+00,7.44000000000000000e+02],"tree_param":{"num_deleted":"0","num_feature":"5","num_nodes":"7","size_leaf_vector":"0"}},{"base_weights":[-3.71231471945066005e-05,2.39983728533843532e-05,-5.54582918994128704e-04,-6.43591556581668556e-05,8.67281854152679443e-02,-1.07494369149208069e-01,6.34744064882397652e-05],"default_left":[true,true,true,false,false,false,false],"id":27,"leaf_child_counts":[0,0,0,0,0,0,0],"left_children":[1,3,5,-1,-1,-1,-1],"loss_changes":[2.08378100069239736e-04,4.51516658067703247e-02,4.60088849067687988e-02,0.00000000000000000e+00,0.00000000000000000e+00,0.00000000000000000e+00,0.00000000000000000e+00],"parents":[2147483647,0,0,1,1,2,2],"right_children":[2,4,6,-1,-1,-1,-1],"split_conditions":[8.54759931564331055e-01,7.16146469116210938e-01,8.56486618518829346e-01,-1.93077466974500567e-05,2.60184574872255325e-02,-3.22483107447624207e-02,1.90423234016634524e-05],"split_indices":[4,4,4,0,0,0,0],"sum_hessian":[6.58700000000000000e+03,5.89200000000000000e+03,6.95000000000000000e+02,5.88700000000000000e+03,5.00000000000000000e+00,3.00000000000000000e+00,6.92000000000000000e+02],"tree_param":{"num_deleted":"0","num_feature":"5","num_nodes":"7","size_leaf_vector":"0"}},{"base_weights":[-2.69291140284622088e-05,3.08203816530294716e-05,-4.76492277812212706e-04,-4.41958436567801982e-05,1.98678020387887955e-02,-8.14329646527767181e-03,3.24713008012622595e-04],"default_left":[true,true,true,false,false,false,false],"id":28,"leaf_child_counts":[0,0,0,0,0,0,0],"left_children":[1,3,5,-1,-1,-1,-1],"loss_changes":[1.71052655787207186e-04,8.68986733257770538e-03,4.60965745151042938e-03,0.00000000000000000e+00,0.00000000000000000e+00,0.00000000000000000e+00,0.00000000000000000e+00],"parents":[2147483647,0,0,1,1,2,2],"right_children":[2,4,6,-1,-1,-1,-1],"split_conditions":[2.21076980233192444e-01,2.19291418790817261e-01,4.52907606959342957e-02,-1.32587538246298209e-05,5.96034107729792595e-03,-2.44298903271555901e-03,9.74139038589783013e-05],"split_indices":[4,4,2,0,0,0,0],"sum_hessian":[6.58700000000000000e+03,5.83800000000000000e+03,7.49000000000000000e+02,5.81700000000000000e+03,2.10000000000000000e+01,7.00000000000000000e+01,6.79000000000000000e+02],"tree_param":{"num_deleted":"0","num_feature":"5","num_nodes":"7","size_leaf_vector":"0"}},{"base_weights":[-1.83017309609567747e-05,2.39231012528762221e-05,-7.80126370955258608e-04,-4.30318032158538699e-05,1.12143205478787422e-03,-5.45059330761432648e-02,3.28287656884640455e-04],"default_left":[true,true,true,false,false,false,false],"id":29,"leaf_child_counts":[0,0,0,0,0,0,0],"left_children":[1,3,5,-1,-1,-1,-1],"loss_changes":[2.11940918234176934e-04,4.58806403912603855e-04,2.06223446875810623e-02,0.00000000000000000e+00,0.00000000000000000e+00,0.00000000000000000e+00,0.00000000000000000e+00],"parents":[2147483647,0,0,1,1,2,2],"right_children":[2,4,6,-1,-1,-1,-1],"split_conditions":[9.97897803783416748e-01,7.16146469116210938e-01,9.49411869049072266e-01,-1.29095415104529820e-05,3.36429628077894449e-04,-1.63517799228429794e-02,9.84862999757751822e-05],"split_indices":[0,4,4,0,0,0,0],"sum_hessian":[6.58700000000000000e+03,6.24200000000000000e+03,3.45000000000000000e+02,5.88400000000000000e+03,3.58000000000000000e+02,6.00000000000000000e+00,3.39000000000000000e+02],"tree_param":{"num_deleted":"0","num_feature":"5","num_nodes":"7","size_leaf_vector":"0"}}]},"name":"gbtree"},"learner_model_param":{"base_score":"0.500000","num_class":"0","num_feature":"5"},"objective":{"name":"reg:squarederror","reg_loss_param":{"scale_pos_weight":"1"}}},"version":[1,1,1]}