{"meta": "lda", "coef_": [[-2.6761510266906923, 1.4130687553905183, -0.21866336234883954, 1.0880175778083714, 2.919425162776524, -0.2643765887948916, 2.3833974143373893, 2.3852864999750167, 0.10993361386018999, 6.508470887476289, -5.303789208148591, 2.452680243869791, 3.438187920462631, 0.42928843424937213, 1.5827816776896064, 1.0552274239149404, 0.4060783380093697, 4.291584411089951]], "intercept_": [-16.33994774856937], "explained_variance_ratio_": [1.0], "means_": [[0.04086542705828796, 0.25567876238426707, 0.03669259913797085, 0.10449677099751699, -0.006039507777867391, 0.0017652305107638674, 0.09635042609249807, 0.32873569371934247, 0.3011434597456679, 0.04917799516783299, -0.15155439862974596, -0.013829527733443684, -0.026105637596899395, 0.08073756458122999, -0.07212499989642591, -0.10083590935658854, 0.039992502537841756, 0.14682808219353308], [1.6306632465257274, 2.514760172127205, 1.0227021683150865, 1.098514739390046, 1.4678741057443774, 0.02461804946514094, 0.7728047850179913, 2.263693564746695, 2.0402732549411073, 0.5277330444263311, 1.203226673751621, 0.9830238647174019, 0.9270601149098979, 1.5078923941597948, 0.9999519158930892, 1.2831174425164598, 1.4227964389323637, 1.5950513594110065]], "priors_": [0.894185516927281, 0.105814483072719], "scalings_": [[0.5614768504304313], [-0.29647257808145333], [0.045877237409869376], [-0.22827436744338797], [-0.6125176154539085], [0.055468220187729234], [-0.5000549147560728], [-0.5004512592984509], [-0.023064908763009373], [-1.3655267204920376], [1.112775336756946], [-0.5145909796219132], [-0.7213579897082668], [-0.09006798031373117], [-0.3320796406647901], [-0.22139474362933903], [-0.08519832549789705], [-0.9004070676365552]], "xbar_": [0.2090890615153709, 0.49472229397540535, 0.1410266920052017, 0.20967826848796678, 0.14992189933083228, 0.004183389735175712, 0.16792909440448667, 0.5334822606095906, 0.485168580020637, 0.09981605032696055, -0.00819893977900768, 0.09165199868802883, 0.07475310378722658, 0.2317512151378202, 0.04131626476203652, 0.045606399168614836, 0.18631318625834908, 0.3000710796461791], "classes_": [0, 1], "params": {"n_components": null, "priors": null, "shrinkage": null, "solver": "svd", "store_covariance": false, "tol": 0.0001}}