{"meta": "lda", "coef_": [[2.255475594742453, -0.2762219950278048, -1.7179163010860514, -1.0341893328398402, -0.7024695298954895, -0.600818388965186, 0.35945052411052414, 1.4390023108613805, 0.8860540094451871, 0.8251477212733285, 2.060342466893452, -1.3205668185623023, 2.6117493659983158, 1.7610250591669427, 0.16009035391005938, 1.9349857134627015, -0.77932628699765, -0.41197191484246093, 0.8043195487604518]], "intercept_": [-6.6167312727973115], "explained_variance_ratio_": [1.0], "means_": [[-0.01712627313006757, -0.0524993787043867, 0.25761322615454624, 0.036426397531694854, -0.22446100681403336, 0.001441783155656212, 0.04096786052380633, 0.19474019281272154, 0.1734799680827076, 0.1273345018964093, 0.09283582895390866, -0.14468814121507922, -0.09675473793605273, -0.12216076457898824, 0.22350271184374865, -0.1056317813796795, -0.08901514252795856, 0.24242467980368476, 0.09572057951808899], [1.2200628494556662, 1.0991269791844378, 1.329771952699834, 0.7970619762753701, 1.1152664218600417, 0.013786408009196978, 0.5258448288805275, 1.9177090654731894, 1.751045899982977, 1.5540104890101138, 1.0129147900052076, 0.8980156461066703, 0.8826523343390849, 0.8602982967634923, 1.550048028919025, 0.9805649760475494, 0.8628943240382613, 1.5602837503100688, 1.8373982213953441]], "priors_": [0.7186218211648893, 0.28137817883511074], "scalings_": [[-0.669159214075528], [0.08195011887250603], [0.5096749991717581], [0.30682545303595893], [0.2084101285035393], [0.17825205553065493], [-0.1066425328536088], [-0.4269262135371602], [-0.2628763556435266], [-0.24480655075610447], [-0.6112667098179293], [0.3917885241158082], [-0.7748592612518399], [-0.5224645956295619], [-0.047495940835378836], [-0.5740756061765002], [0.231212151854516], [0.12222468884157892], [-0.23862720499779333]], "xbar_": [0.3309917490577148, 0.2715431485768822, 0.5592952960520308, 0.25045265143578066, 0.15250905720172359, 0.004915291215348158, 0.17740165883911016, 0.6795460363915078, 0.6173725969931197, 0.5287699929382474, 0.35172597139902395, 0.14870595152598726, 0.17882904039895317, 0.1542817768816113, 0.5967636173046345, 0.2000002840817967, 0.1788314095903461, 0.6132414650241029, 0.5857906625073412], "classes_": [0, 1], "params": {"n_components": null, "priors": null, "shrinkage": null, "solver": "svd", "store_covariance": false, "tol": 0.0001}}