{"meta": "lda", "coef_": [[-2.8119322784633973, 1.4135364694968438, -0.3495946984151721, 1.1336859956516925, 2.859094934653281, -1.081094298483177, 2.567616317860348, 2.1306419457491437, 0.47417006693851144, 40.213068915654816, 9.364423389183756, -5.1321152183859855, 2.283935841695892, 3.3823450226164513, 0.632902616279787, 1.6742182509777337, 1.2102290315743616, 0.22619528118765708, 4.1292059450730685]], "intercept_": [-16.36571510468632], "explained_variance_ratio_": [1.0], "means_": [[0.04086542705828796, 0.25567876238426707, 0.03669259913797085, 0.10449677099751699, -0.006039507777867391, 0.0017652305107638674, 0.09635042609249807, 0.32873569371934247, 0.3011434597456679, 0.0, 0.015773993932392094, -0.15155439862974596, -0.013829527733443684, -0.026105637596899395, 0.08073756458122999, -0.07212499989642591, -0.10083590935658854, 0.039992502537841756, 0.14682808219353308], [1.6306632465257274, 2.514760172127205, 1.0227021683150865, 1.098514739390046, 1.4678741057443774, 0.02461804946514094, 0.7728047850179913, 2.263693564746695, 2.0402732549411073, 0.0009944722820085297, 0.39220193028846856, 1.203226673751621, 0.9830238647174019, 0.9270601149098979, 1.5078923941597948, 0.9999519158930892, 1.2831174425164598, 1.4227964389323637, 1.5950513594110065]], "priors_": [0.894185516927281, 0.105814483072719], "scalings_": [[0.5843334582639268], [-0.2937398812657871], [0.07264751028332106], [-0.2355855663730771], [-0.5941340918721469], [0.22465675115308859], [-0.533563391267055], [-0.44275795189567024], [-0.09853488903040974], [-8.356474943177075], [-1.9459735732467691], [1.0664789677677322], [-0.4746131829178991], [-0.7028680524224004], [-0.1315202991720517], [-0.3479108469201836], [-0.25149158844525676], [-0.04700450004137093], [-0.8580694521871716]], "xbar_": [0.2090890615153709, 0.49472229397540535, 0.1410266920052017, 0.20967826848796678, 0.14992189933083228, 0.004183389735175712, 0.16792909440448667, 0.5334822606095906, 0.485168580020637, 0.0001052295704508798, 0.055605521432040686, -0.00819893977900768, 0.09165199868802883, 0.07475310378722658, 0.2317512151378202, 0.04131626476203652, 0.045606399168614836, 0.18631318625834908, 0.3000710796461791], "classes_": [0, 1], "params": {"n_components": null, "priors": null, "shrinkage": null, "solver": "svd", "store_covariance": false, "tol": 0.0001}}