{"meta": "lda", "coef_": [[1.8756669055210968, -0.1929020045347511, -1.5628585940916808, -0.7220207127038472, -0.7555046912302354, 0.615961049677596, 0.22322919496989857, 1.610415547446599, 1.1335066684102353, 6.022743194552133, 1.4335352303347597, -1.633404755431358, 2.6627385374393793, 1.7495650193115337, 0.5299022415236709, 1.7470232822226646, -0.7060020493051149, 0.22987785447798384, 0.7219348312735052]], "intercept_": [-7.1117207097753266], "explained_variance_ratio_": [1.0], "means_": [[-0.01712627313006757, -0.0524993787043867, 0.25761322615454624, 0.036426397531694854, -0.22446100681403336, 0.001441783155656212, 0.04096786052380633, 0.19474019281272154, 0.1734799680827076, 0.013696769713537157, 0.03848007364566338, -0.14468814121507922, -0.09675473793605273, -0.12216076457898824, 0.22350271184374865, -0.1056317813796795, -0.08901514252795856, 0.24242467980368476, 0.09572057951808899], [1.2200628494556662, 1.0991269791844378, 1.329771952699834, 0.7970619762753701, 1.1152664218600417, 0.013786408009196978, 0.5258448288805275, 1.9177090654731894, 1.751045899982977, 0.3121740175310889, 0.29772034392210306, 0.8980156461066703, 0.8826523343390849, 0.8602982967634923, 1.550048028919025, 0.9805649760475494, 0.8628943240382613, 1.5602837503100688, 1.8373982213953441]], "priors_": [0.7186218211648893, 0.28137817883511074], "scalings_": [[-0.5455227648471777], [0.05610401001830578], [0.4545449614771577], [0.2099939676451802], [0.21973251583304415], [-0.1791473602638091], [-0.06492443155878833], [-0.4683765221905861], [-0.3296713770999088], [-1.7516668390242853], [-0.4169322922189064], [0.47506275004083875], [-0.7744362736972767], [-0.5088470366488527], [-0.15411784205596973], [-0.5081077926817319], [0.20533506711187627], [-0.06685814116719585], [-0.2099689897158947]], "xbar_": [0.3309917490577148, 0.2715431485768822, 0.5592952960520308, 0.25045265143578066, 0.15250905720172359, 0.004915291215348158, 0.17740165883911016, 0.6795460363915078, 0.6173725969931197, 0.0976817541281559, 0.11142462877676987, 0.14870595152598726, 0.17882904039895317, 0.1542817768816113, 0.5967636173046345, 0.2000002840817967, 0.1788314095903461, 0.6132414650241029, 0.5857906625073412], "classes_": [0, 1], "params": {"n_components": null, "priors": null, "shrinkage": null, "solver": "svd", "store_covariance": false, "tol": 0.0001}}