{"meta": "lda", "coef_": [[1.7965173467436413, -0.11957120933291217, 1.7831120814348589, -1.7061225128016373, -0.3646634818401515, 3.0405031134622296, -2.3243428930568357, -0.6949812498855037, 1.8085299179776348, -0.761914289849483, 4.638967620618526, -4.7320936226817345, 1.7469276919438412, 1.6097335192022884, 1.0168623002073336, 1.7398438567040158, -0.48175239257827324, 0.8788984812188384, 1.5040900813801574]], "intercept_": [-11.831116124347831], "explained_variance_ratio_": [1.0], "means_": [[-0.19098652590249512, -0.045561940085314945, -0.10874498579007696, 0.02587087044242691, 0.1543547002074155, 0.00215052945448063, 0.0018922291228389565, 0.1418087159187445, 0.3248714552907317, 0.30024912034730616, 0.04705603957129114, -0.20479248146312412, -0.09770453269702993, -0.11177008555360456, -0.10720038669862841, -0.13198204080031, -0.1498344238912304, 0.032317558667663976, 0.21941151915300686], [1.334644846102944, 1.4232453073436526, 1.9816597208531634, 1.2379604434800893, 2.8923303524416197, 1.680713444619244, 0.13496400798277988, 2.5852943428570603, 3.6627506945691493, 3.4291009224969793, 0.45366717004806767, 1.3243973256411, 1.4765645818129576, 1.435165684782735, 1.3505257272541882, 1.3753392850636035, 1.262627175982694, 1.4885760484329016, 3.839727522897813]], "priors_": [0.7798030867482704, 0.22019691325172963], "scalings_": [[-0.40156338548565457], [0.026726944615018955], [-0.3985669970953697], [0.38135803895005854], [0.08151076447780815], [-0.6796231197180828], [0.5195446639339427], [0.15534446358613338], [-0.4042484743782576], [0.17030555381857715], [-1.0369170919893875], [1.0577329180837083], [-0.3904789449693592], [-0.3598128584020007], [-0.22729236017906107], [-0.38889554313564856], [0.10768285765801233], [-0.19645423978575113], [-0.3361990944586171]], "xbar_": [0.14495279297310384, 0.2778648819603132, 0.35155567805965193, 0.292769253009927, 0.7572484873877784, 0.3717649020725864, 0.031194224068714718, 0.679856708545529, 1.0598621605868708, 0.9892126292027756, 0.13659055539607362, 0.1319303938372339, 0.24894466694560302, 0.22886039607314396, 0.2137864039602209, 0.19992546243342824, 0.16118526048760734, 0.3529811830105948, 1.0165939281734504], "classes_": [0, 1], "params": {"n_components": null, "priors": null, "shrinkage": null, "solver": "svd", "store_covariance": false, "tol": 0.0001}}