{"meta": "lda", "coef_": [[-2.795944602641617, 1.4261399644765995, -0.3423815117169138, 1.116433129204448, 2.8754601195857434, -1.0498670943875648, 2.546207450955721, 2.137727397538014, 0.4600509681895633, 9.313936555838376, -5.110575628676793, 2.276727636068857, 3.358897495500137, 0.5998970245897907, 1.669990663456072, 1.1883855138732693, 0.2183770402540646, 4.12336016123777]], "intercept_": [-16.300779724214422], "explained_variance_ratio_": [1.0], "means_": [[0.04086542705828796, 0.25567876238426707, 0.03669259913797085, 0.10449677099751699, -0.006039507777867391, 0.0017652305107638674, 0.09635042609249807, 0.32873569371934247, 0.3011434597456679, 0.015773993932392094, -0.15155439862974596, -0.013829527733443684, -0.026105637596899395, 0.08073756458122999, -0.07212499989642591, -0.10083590935658854, 0.039992502537841756, 0.14682808219353308], [1.6306632465257274, 2.514760172127205, 1.0227021683150865, 1.098514739390046, 1.4678741057443774, 0.02461804946514094, 0.7728047850179913, 2.263693564746695, 2.0402732549411073, 0.39220193028846856, 1.203226673751621, 0.9830238647174019, 0.9270601149098979, 1.5078923941597948, 0.9999519158930892, 1.2831174425164598, 1.4227964389323637, 1.5950513594110065]], "priors_": [0.894185516927281, 0.105814483072719], "scalings_": [[0.5824861593402719], [-0.29711131966090887], [0.07132920001371879], [-0.23258931703300867], [-0.5990518266388944], [0.21872144786050662], [-0.530457791470373], [-0.4453581162988447], [-0.09584357333415344], [-1.9403957888233814], [1.0646990527471156], [-0.47431638500442486], [-0.6997675490147462], [-0.12497805340020673], [-0.3479133480583221], [-0.24757933799462487], [-0.045495037113934794], [-0.8590299756393043]], "xbar_": [0.2090890615153709, 0.49472229397540535, 0.1410266920052017, 0.20967826848796678, 0.14992189933083228, 0.004183389735175712, 0.16792909440448667, 0.5334822606095906, 0.485168580020637, 0.055605521432040686, -0.00819893977900768, 0.09165199868802883, 0.07475310378722658, 0.2317512151378202, 0.04131626476203652, 0.045606399168614836, 0.18631318625834908, 0.3000710796461791], "classes_": [0, 1], "params": {"n_components": null, "priors": null, "shrinkage": null, "solver": "svd", "store_covariance": false, "tol": 0.0001}}