{"learner":{"attributes":{"best_iteration":"8","best_msg":"[8]\ttrain-error:0.01549\tvalidation-error:0.02622","best_score":"0.026223"},"gradient_booster":{"model":{"gbtree_model_param":{"num_trees":"24","size_leaf_vector":"0"},"tree_info":[0,0,0,0,0,0,0,0,0,0,0,0,0,0,0,0,0,0,0,0,0,0,0,0],"trees":[{"base_weights":[-9.8105425E-1,-1.7032831E0,1.6790009E0,-1.8290751E0,-3.7833923E-1,-8.5240513E-1,1.868396E0,-1.8633136E0,-5.5914825E-1,-1.4482291E0,5.299139E-1,-1.4620773E0,1.4652847E0,1.0615075E0,1.9258504E0,-1.8937E0,-9.007394E-1,-1.0213854E0,5.7345915E-1,-1.5423812E0,4.3920097E-1,-9.441446E-1,9.102206E-1,7.278102E-1,-1.882353E0,-7.4039406E-1,1.6161935E0,-2.0042683E-1,1.938977E0,-1.9617846E0,-1.6842511E0,-1.882353E0,-2.993731E-2,-1.2267541E0,1.1848338E0,-1.2727273E0,1.131939E0,-1.12590104E-1,-1.6913761E0,-1.5425476E0,1.3711149E0,-2.2448097E-1,1.271186E0,-1.877974E-2,1.1848338E0,-1.5789474E0,1.1848338E0,1.738701E0,7.278102E-1,-1.9684427E0,-1.4297838E0,-1.7298849E0,-8.4849074E-2,7.072779E-1,-1.6923077E0,-7.4103636E-1,-1.7837838E0,1.3927623E0,-1.877974E-2,5.6467265E-1,-1.2E0,-4.9832448E-1,-1.8044238E0,-1.7894737E0,2.0365496E-1,1.31746E0,-1.3649362E0,8.642361E-1,1.7505437E0,1.1848338E0,-1.877974E-2,-1.8095238E0,-1.4107934E-1,-1.7504017E0,1.1848338E0,1.0923479E0,-1.0611794E0,-5.068831E-1,1.6477814E0,-1.4377084E0,5.2042955E-1,-1.4285715E0,8.903222E-1,-1.8716351E0,-2.0042683E-1,2.0365496E-1,-1.6923077E0,-9.1525465E-1,1.6204485E0,1.1848338E0,-1.2727273E0,-1.8205183E0,-1.353185E0,2.0365496E-1,1.3711149E0,2.0365496E-1,-1.5E0,-9.038964E-1,1.0988961E-1,-1.7037038E0,-3.515629E-1,1.1254233E0,-3.515629E-1,-1.9452055E0,-2.0042683E-1,4.3920097E-1,-1.6E0],"default_left":[true,true,true,true,true,true,true,true,true,true,true,true,false,true,true,true,true,true,true,true,false,true,true,true,false,true,true,false,false,true,true,false,true,true,false,false,true,true,true,true,false,true,true,false,false,false,false,false,true,false,true,true,true,true,false,true,false,false,false,false,false,true,true,false,false,false,true,true,false,false,false,false,true,true,false,true,true,true,false,true,true,false,false,true,false,false,false,true,false,false,false,false,false,false,false,false,false,false,false,false,false,false,false,false,false,false,false],"id":0,"leaf_child_counts":[0,0,0,0,0,0,0,0,0,0,0,0,0,0,0,0,0,0,0,0,0,0,0,0,0,0,0,0,0,0,0,0,0,0,0,0,0,0,0,0,0,0,0,0,0,0,0,0,0,0,0,0,0,0,0,0,0,0,0,0,0,0,0,0,0,0,0,0,0,0,0,0,0,0,0,0,0,0,0,0,0,0,0,0,0,0,0,0,0,0,0,0,0,0,0,0,0,0,0,0,0,0,0,0,0,0,0],"left_children":[1,3,5,7,9,11,13,15,17,19,21,23,-1,25,27,29,31,33,35,37,-1,39,41,43,-1,45,47,-1,-1,49,51,-1,53,55,-1,-1,57,59,61,63,-1,65,67,-1,-1,-1,-1,-1,69,-1,71,73,75,77,-1,79,-1,-1,-1,-1,-1,81,83,-1,-1,-1,85,87,-1,-1,-1,-1,89,91,-1,93,95,97,-1,99,101,-1,-1,103,-1,-1,-1,105,-1,-1,-1,-1,-1,-1,-1,-1,-1,-1,-1,-1,-1,-1,-1,-1,-1,-1,-1],"loss_changes":[3.0814424E3,2.0943774E2,1.6588593E2,4.901245E1,1.0822275E2,3.6819115E1,1.2750732E1,3.1069092E1,1.715615E1,9.747635E0,3.4798138E1,1.9712914E1,0E0,2.462651E1,8.669556E0,1.2173096E1,3.0885092E1,1.1800772E1,1.15594E1,1.0213432E1,0E0,1.9997084E1,2.0205143E1,1.3632822E0,0E0,1.1885738E1,7.195015E-1,0E0,0E0,6.518555E-2,1.9802368E1,0E0,2.5949675E1,4.463711E0,0E0,0E0,2.4464235E0,4.8608828E0,5.0563583E0,4.989626E0,0E0,2.3933035E1,5.7139435E0,0E0,0E0,0E0,0E0,0E0,1.3632822E0,0E0,6.450823E0,1.7962524E1,1.1082194E1,1.7618832E1,0E0,1.2290506E1,0E0,0E0,0E0,0E0,0E0,7.993672E0,3.932129E0,0E0,0E0,0E0,4.3124237E0,3.1103561E1,0E0,0E0,0E0,0E0,7.815164E0,4.895935E0,0E0,8.125415E-1,3.20651E0,1.8575304E0,0E0,1.9222794E0,3.2481065E0,0E0,0E0,4.3101654E0,0E0,0E0,0E0,7.383648E0,0E0,0E0,0E0,0E0,0E0,0E0,0E0,0E0,0E0,0E0,0E0,0E0,0E0,0E0,0E0,0E0,0E0,0E0,0E0],"parents":[2147483647,0,0,1,1,2,2,3,3,4,4,5,5,6,6,7,7,8,8,9,9,10,10,11,11,13,13,14,14,15,15,16,16,17,17,18,18,19,19,21,21,22,22,23,23,25,25,26,26,29,29,30,30,32,32,33,33,36,36,37,37,38,38,39,39,41,41,42,42,48,48,50,50,51,51,52,52,53,53,55,55,61,61,62,62,66,66,67,67,72,72,73,73,75,75,76,76,77,77,79,79,80,80,83,83,87,87],"right_children":[2,4,6,8,10,12,14,16,18,20,22,24,-1,26,28,30,32,34,36,38,-1,40,42,44,-1,46,48,-1,-1,50,52,-1,54,56,-1,-1,58,60,62,64,-1,66,68,-1,-1,-1,-1,-1,70,-1,72,74,76,78,-1,80,-1,-1,-1,-1,-1,82,84,-1,-1,-1,86,88,-1,-1,-1,-1,90,92,-1,94,96,98,-1,100,102,-1,-1,104,-1,-1,-1,106,-1,-1,-1,-1,-1,-1,-1,-1,-1,-1,-1,-1,-1,-1,-1,-1,-1,-1,-1],"split_conditions":[9.855031E-1,1.2924812E0,5E-1,3.465736E-1,7.256966E-1,1.2724206E0,1.8084795E0,8.9587975E-1,5E-1,6.8562496E-1,-2.1533827E-1,8.9794445E-1,1.4652846E-2,9.3159693E-1,5E-1,5E-1,8.782354E-1,8.9587975E-1,-2.5027302E-1,-5.101241E-1,4.3920097E-3,3.465736E-1,5.80482E-1,1.1362342E0,-1.8823529E-2,1.063859E0,1.1821936E0,-2.0042683E-3,1.9389769E-2,8.785598E-1,1.5772133E0,-1.8823529E-2,9.458341E-1,3.413031E-1,1.1848337E-2,-1.2727272E-2,8.198693E-1,-2.5E-1,5E-1,1.44278E0,1.3711148E-2,1.2596482E-1,8.9587975E-1,-1.877974E-4,1.1848337E-2,-1.5789473E-2,1.1848337E-2,1.738701E-2,1.099489E0,-1.9684426E-2,3.465736E-1,9.4141424E-1,3.413031E-1,3.465736E-1,-1.6923077E-2,-4.227713E-2,-1.7837837E-2,1.3927623E-2,-1.877974E-4,5.6467266E-3,-1.2E-2,3.1515908E-1,5E-1,-1.7894736E-2,2.0365496E-3,1.3174599E-2,1.2596482E-1,7.876807E-1,1.7505437E-2,1.1848337E-2,-1.877974E-4,-1.8095238E-2,7.336547E-1,4.5223087E-1,1.1848337E-2,9.261235E-1,9.82915E-2,3.413031E-1,1.6477814E-2,5E-1,1.4590593E-1,-1.4285714E-2,8.903222E-3,7.2672266E-1,-2.0042683E-3,2.0365496E-3,-1.6923077E-2,5.1895714E-1,1.6204484E-2,1.1848337E-2,-1.2727272E-2,-1.8205183E-2,-1.3531851E-2,2.0365496E-3,1.3711148E-2,2.0365496E-3,-1.5E-2,-9.038963E-3,1.0988961E-3,-1.7037038E-2,-3.5156289E-3,1.1254233E-2,-3.5156289E-3,-1.9452054E-2,-2.0042683E-3,4.3920097E-3,-1.6E-2],"split_indices":[11,7,7,10,0,11,1,3,8,13,2,2,0,13,8,7,1,6,0,11,0,10,4,0,0,15,13,0,0,13,1,0,2,2,0,0,2,4,8,0,0,17,3,0,0,0,0,0,1,0,6,13,17,6,0,15,0,0,0,0,0,0,2,0,0,0,2,11,0,0,0,0,11,15,0,0,15,2,0,7,15,0,0,4,0,0,0,11,0,0,0,0,0,0,0,0,0,0,0,0,0,0,0,0,0,0,0],"sum_hessian":[1.6014532E3,1.2597732E3,3.4168002E2,1.1501918E3,1.0958137E2,2.3540693E1,3.1813934E2,1.1195406E3,3.0651155E1,5.0040695E1,5.9540672E1,1.8930231E1,4.610462E0,2.2441849E1,2.9569748E2,1.084343E3,3.519767E1,2.1837206E1,8.81395E0,4.7837204E1,2.2034874E0,1.1906975E1,4.7633698E1,2.930231E0,1.6E1,5.2034874E0,1.7238361E1,1.7267437E0,2.9397073E2,8.1201746E2,2.7232556E2,1.6E1,1.9197668E1,2.0383718E1,1.4534874E0,1.75E0,7.0639496E0,4.680231E0,4.3156975E1,9.726744E0,2.180231E0,1.1587206E1,3.6046494E1,1.4767437E0,1.4534874E0,3.75E0,1.4534874E0,1.430813E1,2.930231E0,7.9931396E2,1.2703487E1,2.6469183E2,7.6337185E0,1.3697668E1,5.5E0,1.21337185E1,8.25E0,5.587206E0,1.4767437E0,3.180231E0,1.5E0,4.2034874E0,3.8953487E1,8.5E0,1.2267437E0,4.860462E0,6.7267437E0,2.1011618E1,1.5034874E1,1.4534874E0,1.4767437E0,9.5E0,3.2034874E0,2.6323837E2,1.4534874E0,3.4069748E0,4.2267437E0,6.180231E0,7.517437E0,7.7267437E0,4.406975E0,2.5E0,1.7034874E0,3.7226746E1,1.7267437E0,1.2267437E0,5.5E0,6.2034874E0,1.480813E1,1.4534874E0,1.75E0,2.2069766E2,4.2540695E1,1.2267437E0,2.180231E0,1.2267437E0,3E0,3.4767437E0,2.7034874E0,5.75E0,1.9767437E0,2.430231E0,1.9767437E0,3.55E1,1.7267437E0,2.2034874E0,4E0],"tree_param":{"num_deleted":"0","num_feature":"19","num_nodes":"107","size_leaf_vector":"0"}},{"base_weights":[-9.7936404E-1,-1.6949817E0,1.6231015E0,-1.8109391E0,-4.2565536E-1,-8.9843583E-1,1.8237338E0,-1.8517133E0,-7.906833E-1,-1.4837892E0,5.389379E-1,-1.6071714E0,1.6596022E0,-8.556451E-2,1.8712698E0,-1.9351059E0,-1.607879E0,-1.1254425E0,1.2586285E0,4.1856688E-1,-1.6319118E0,-1.091353E0,9.619652E-1,-1.8795699E0,1.1849451E0,1.065468E0,-1.5235072E0,-3.5610685E-1,1.8868005E0,-1.9385048E0,-8.307603E-1,-1.0127789E0,-1.7012665E0,-7.4031186E-1,-1.8323929E0,-1.7804258E-2,1.6135833E0,6.434327E-1,-1.858428E-2,-1.7436745E0,4.361815E-1,-1.5183477E0,1.176744E0,-2.2512813E-1,1.3841206E0,-2.1890666E-2,1.482061E0,1.4092247E0,1.9212117E0,-1.9419268E0,-9.9889857E-1,2.038572E-1,-1.321785E0,-1.2687311E0,5.02414E-1,-1.8410109E0,-1.0718893E0,-1.5264131E0,-2.1668454E-1,-1.800486E0,-3.429193E-1,-1.7636465E0,-1.3958959E-2,-1.695277E0,1.2591829E0,-4.808567E-1,1.5341312E0,1.645677E-1,1.6407455E0,9.1810197E-1,1.931054E0,2.1451047E-1,-1.4530374E0,-1.3283502E0,2.1369393E-1,1.1383878E0,-1.3608842E-1,-1.8679776E0,-3.3542514E-1,-3.4622693E-1,-1.6763427E0,-7.043808E-3,-1.7682095E0,-7.076897E-1,4.7655818E-1,-9.512244E-1,-1.8572812E0,1.6161153E0,-2.1754662E-2,1.8116676E0,1.102869E0,1.1179098E0,-1.2093486E0,2.5992587E-1,1.8148608E0,-2.0675635E-2,1.360519E0,1.9377995E0,8.990526E-1,-1.3738745E0,-4.6716633E-1,-1.1010885E0,6.451232E-1,-1.8957356E0,-6.1755717E-1,-1.2642835E0,6.429813E-1,-8.553094E-1,5.359336E-1,-1.8798093E0,-9.3958586E-1,-1.6038977E0,1.3713586E-1,1.0579627E0,-1.1932541E0,-1.3716317E0,-1.5502486E-2,-1.269927E0,1.5231735E0,1.9298322E-1,1.1734127E0],"default_left":[true,true,true,true,true,true,true,true,true,true,true,true,false,true,true,true,true,true,true,true,true,true,true,false,false,true,false,false,true,true,true,true,true,true,false,false,false,false,false,true,false,true,false,true,true,false,false,true,true,false,true,false,false,true,true,true,true,true,true,true,false,false,false,false,true,false,true,true,true,true,true,false,false,true,false,false,true,true,true,true,true,false,false,true,true,true,false,false,false,false,true,false,false,false,false,false,false,false,true,false,false,false,false,false,false,false,false,false,false,false,false,false,false,false,false,false,false,false,false,false,false],"id":1,"leaf_child_counts":[0,0,0,0,0,0,0,0,0,0,0,0,0,0,0,0,0,0,0,0,0,0,0,0,0,0,0,0,0,0,0,0,0,0,0,0,0,0,0,0,0,0,0,0,0,0,0,0,0,0,0,0,0,0,0,0,0,0,0,0,0,0,0,0,0,0,0,0,0,0,0,0,0,0,0,0,0,0,0,0,0,0,0,0,0,0,0,0,0,0,0,0,0,0,0,0,0,0,0,0,0,0,0,0,0,0,0,0,0,0,0,0,0,0,0,0,0,0,0,0,0],"left_children":[1,3,5,7,9,11,13,15,17,19,21,23,-1,25,27,29,31,33,35,37,39,41,43,-1,-1,45,-1,-1,47,49,51,53,55,57,-1,-1,-1,-1,-1,59,-1,61,-1,63,65,-1,-1,67,69,-1,71,-1,-1,73,75,77,79,81,83,85,-1,-1,-1,-1,87,-1,89,91,93,95,97,-1,-1,99,-1,-1,101,103,105,107,109,-1,-1,111,113,115,-1,-1,-1,-1,117,-1,-1,-1,-1,-1,-1,-1,119,-1,-1,-1,-1,-1,-1,-1,-1,-1,-1,-1,-1,-1,-1,-1,-1,-1,-1,-1,-1,-1,-1],"loss_changes":[2.9413232E3,1.8145557E2,1.7405615E2,4.5715332E1,1.0790922E2,4.9421814E1,2.884253E1,1.904834E1,3.251268E1,1.4859581E1,3.9415703E1,1.7972435E1,0E0,1.5912233E1,1.1339966E1,1.4191895E0,1.4040344E1,9.395649E0,3.126315E0,4.474463E-1,1.1596222E1,1.33400345E1,2.2712868E1,0E0,0E0,2.4710612E0,0E0,0E0,2.328247E0,6.4501953E-1,2.4166255E0,1.6516457E1,1.9460327E1,1.0882796E1,0E0,0E0,0E0,0E0,0E0,2.9378967E0,0E0,3.841322E0,0E0,2.9600386E1,1.0001957E1,0E0,0E0,6.7458763E0,1.0217285E0,0E0,3.0539556E0,0E0,0E0,3.4047089E0,2.8485265E0,7.413391E0,1.989124E1,3.9280205E0,6.2995396E0,2.9289246E-1,0E0,0E0,0E0,0E0,3.1610374E0,0E0,1.6989441E0,7.809312E0,4.4369354E0,1.9622247E0,2.0288086E-1,0E0,0E0,6.94458E-1,0E0,0E0,3.879083E0,5.5739746E0,5.0872803E0,1.0549363E1,2.0116959E0,0E0,0E0,8.288177E0,8.893252E0,1.8380504E0,0E0,0E0,0E0,0E0,1.6545025E1,0E0,0E0,0E0,0E0,0E0,0E0,0E0,4.864266E-1,0E0,0E0,0E0,0E0,0E0,0E0,0E0,0E0,0E0,0E0,0E0,0E0,0E0,0E0,0E0,0E0,0E0,0E0,0E0,0E0,0E0,0E0],"parents":[2147483647,0,0,1,1,2,2,3,3,4,4,5,5,6,6,7,7,8,8,9,9,10,10,11,11,13,13,14,14,15,15,16,16,17,17,18,18,19,19,20,20,21,21,22,22,25,25,28,28,29,29,30,30,31,31,32,32,33,33,39,39,41,41,43,43,44,44,47,47,48,48,50,50,53,53,54,54,55,55,56,56,57,57,58,58,59,59,64,64,66,66,67,67,68,68,69,69,70,70,73,73,76,76,77,77,78,78,79,79,80,80,83,83,84,84,85,85,90,90,98,98],"right_children":[2,4,6,8,10,12,14,16,18,20,22,24,-1,26,28,30,32,34,36,38,40,42,44,-1,-1,46,-1,-1,48,50,52,54,56,58,-1,-1,-1,-1,-1,60,-1,62,-1,64,66,-1,-1,68,70,-1,72,-1,-1,74,76,78,80,82,84,86,-1,-1,-1,-1,88,-1,90,92,94,96,98,-1,-1,100,-1,-1,102,104,106,108,110,-1,-1,112,114,116,-1,-1,-1,-1,118,-1,-1,-1,-1,-1,-1,-1,120,-1,-1,-1,-1,-1,-1,-1,-1,-1,-1,-1,-1,-1,-1,-1,-1,-1,-1,-1,-1,-1,-1],"split_conditions":[9.855031E-1,1.2924812E0,5E-1,7.919446E-1,7.256966E-1,8.9587975E-1,1.0821055E0,5E-1,8.9587975E-1,-5.101241E-1,-2.1533827E-1,1.1322138E0,1.6596021E-2,9.672679E-1,5.969361E-1,9.509977E-1,-8.9237094E-1,8.198693E-1,7.256966E-1,-7.6088764E-2,6.8562496E-1,6.575028E-1,3.465736E-1,-1.8795699E-2,1.1849451E-2,9.945493E-1,-1.5235072E-2,-3.5610683E-3,3.465736E-1,1.4978662E0,1.0082918E0,1.2596482E-1,3.475424E-1,3.6069137E-1,-1.8323928E-2,-1.7804257E-4,1.6135832E-2,6.4343265E-3,-1.8584279E-4,6.769013E-1,4.361815E-3,2.7341952E0,1.176744E-2,7.032093E-1,8.5407007E-1,-2.1890666E-4,1.482061E-2,1.2924812E0,1.2830945E0,-1.9419268E-2,3.8643464E-2,2.038572E-3,-1.321785E-2,2.7499676E-1,2.2125353E-1,9.7791255E-1,1.2596482E-1,5.577183E-1,8.3663225E-1,-4.184144E-1,-3.4291928E-3,-1.7636465E-2,-1.3958958E-4,-1.695277E-2,7.1415865E-1,-4.8085665E-3,5.692464E-1,1.4202313E0,1.7509866E0,9.9606764E-1,2.4083316E0,2.1451046E-3,-1.4530374E-2,3.465736E-1,2.1369392E-3,1.1383878E-2,8.782354E-1,5.2789545E-1,2.1415868E-1,3.9661783E-1,6.373645E-1,-7.043807E-5,-1.7682094E-2,3.413031E-1,9.8664093E-1,1.18232846E-1,-1.8572811E-2,1.6161153E-2,-2.175466E-4,1.8116675E-2,5.345429E-1,1.1179098E-2,-1.2093485E-2,2.5992587E-3,1.8148609E-2,-2.0675635E-4,1.360519E-2,1.9377993E-2,2.7497544E0,-1.3738745E-2,-4.671663E-3,-1.1010885E-2,6.451232E-3,-1.8957356E-2,-6.1755716E-3,-1.2642835E-2,6.429813E-3,-8.553094E-3,5.359336E-3,-1.8798092E-2,-9.395858E-3,-1.6038977E-2,1.3713586E-3,1.0579626E-2,-1.1932541E-2,-1.3716317E-2,-1.5502486E-4,-1.269927E-2,1.5231734E-2,1.9298322E-3,1.1734126E-2],"split_indices":[11,7,7,12,0,18,16,7,6,11,2,12,0,2,12,13,11,2,0,0,13,13,18,0,0,0,0,0,3,18,0,2,13,0,0,0,0,0,0,0,0,1,0,15,0,0,0,7,1,0,0,0,0,0,1,0,2,11,13,13,0,0,0,0,12,0,11,1,1,12,2,0,0,18,0,0,1,12,12,0,13,0,0,2,13,11,0,0,0,0,15,0,0,0,0,0,0,0,0,0,0,0,0,0,0,0,0,0,0,0,0,0,0,0,0,0,0,0,0,0,0],"sum_hessian":[1.5768668E3,1.2370542E3,3.3981253E2,1.1331136E3,1.0394055E2,2.4788893E1,3.1502362E2,1.0887858E3,4.4327965E1,4.931024E1,5.463031E1,1.9701946E1,5.0869465E0,7.633208E0,3.073904E2,8.061438E2,2.826419E2,3.8491177E1,5.8367915E0,3.4301827E0,4.5880062E1,1.0929521E1,4.370079E1,1.8248459E1,1.4534874E0,4.3834295E0,3.2497783E0,1.9766355E0,3.054138E2,8.029173E2,3.2265239E0,3.994465E1,2.4269727E2,2.6242203E1,1.2248971E1,1.4766252E0,4.360166E0,1.9534649E0,1.476718E0,4.3676582E1,2.2034767E0,9.476101E0,1.4534191E0,1.1586494E1,3.2114296E1,1.4766488E0,2.9067807E0,2.3346867E1,2.8206693E2,7.989409E2,3.976378E0,1.2266773E0,1.9998467E0,3.431131E1,5.6333385E0,1.970254E2,4.567186E1,9.725946E0,1.6516258E1,4.169996E1,1.9766246E0,7.9994183E0,1.4766829E0,5.749611E0,5.836883E0,2.2266328E0,2.9887661E1,3.9299965E0,1.941687E1,3.6567533E0,2.7841016E2,1.226625E0,2.749753E0,3.3084667E1,1.226642E0,2.4300296E0,3.2033088E0,1.933221E2,3.7033062E0,2.1469704E1,2.4202156E1,1.4766008E0,8.249346E0,9.656195E0,6.8600626E0,3.7264562E0,3.7973503E1,4.360239E0,1.4766438E0,1.623735E1,1.36503105E1,2.4301095E0,1.4998869E0,2.45336E0,1.696351E1,1.4766576E0,2.1800957E0,2.757302E2,2.679979E0,3.0858099E1,2.2265697E0,1.2498972E0,1.9534116E0,1.8861888E2,4.7032137E0,1.7498677E0,1.9534384E0,1.3632828E1,7.836876E0,1.7749027E1,6.453128E0,4.249618E0,5.406576E0,5.360153E0,1.4999096E0,2.2497978E0,1.4766583E0,1.7499057E0,1.1900405E1,1.2266284E0,1.4533508E0],"tree_param":{"num_deleted":"0","num_feature":"19","num_nodes":"121","size_leaf_vector":"0"}},{"base_weights":[-9.3513674E-1,-1.6728039E0,1.6504257E0,-1.7387736E0,5.498077E-1,-5.372071E-1,1.8312222E0,-1.7883408E0,-3.2458097E-1,1.1376469E-2,1.7084019E0,-1.3986598E0,1.165182E0,-8.218603E-2,1.8778031E0,-1.8001932E0,1.2009703E0,-8.5113406E-1,1.4767976E0,-5.881888E-1,1.2781565E0,-1.8412577E0,7.3043144E-1,-3.420318E-1,1.5915202E0,1.2057241E0,-1.5332917E0,-3.4094762E-2,1.8869067E0,-1.8488771E0,-1.2057302E0,2.037501E-1,1.4619383E0,-1.1358722E0,3.2927665E-1,-8.416935E-3,1.7431015E0,-1.2193507E0,1.3647221E0,-1.8792497E-1,1.677295E0,-1.0610568E-2,1.1807544E0,1.4757104E0,1.9178084E0,-1.8960955E0,-1.5665919E0,-1.5996025E0,6.331233E-2,-6.7221195E-1,-1.7822679E0,1.0768689E0,-1.2542174E0,1.175703E0,-1.5853431E0,1.9621864E-1,1.5305395E0,1.9276853E0,1.0400292E0,-1.8991841E0,2.0130888E-1,-1.6283532E0,2.1086279E-1,-1.6359518E0,2.1371105E-1,-4.0412843E-1,1.6028854E0,-1.0144732E0,7.3149735E-1,2.054846E-1,1.2845715E0,1.1096702E0,1.8161076E0,-4.19012E-2,1.4596616E0,-1.9107658E0,-1.3846494E0,-7.353196E-1,-1.7180688E0,1.0850384E0,-1.2666923E0,-1.2651683E0,-1.8484472E0,1.9098467E-1,-1.300516E0,-1.7300423E0,-1.2990603E-2,1.1823614E0,-1.0494181E-2,4.7236177E-1,1.55106E0],"default_left":[true,true,true,true,true,true,true,true,true,true,false,true,true,true,true,true,true,true,true,true,true,false,true,false,false,false,false,false,true,true,true,false,false,true,true,false,false,true,false,false,false,false,false,true,true,true,true,true,true,true,false,true,false,false,false,false,true,false,true,true,false,true,true,true,false,true,false,true,true,false,false,true,false,false,false,false,false,false,false,false,false,false,false,false,false,false,false,false,false,false,false],"id":2,"leaf_child_counts":[0,0,0,0,0,0,0,0,0,0,0,0,0,0,0,0,0,0,0,0,0,0,0,0,0,0,0,0,0,0,0,0,0,0,0,0,0,0,0,0,0,0,0,0,0,0,0,0,0,0,0,0,0,0,0,0,0,0,0,0,0,0,0,0,0,0,0,0,0,0,0,0,0,0,0,0,0,0,0,0,0,0,0,0,0,0,0,0,0,0,0],"left_children":[1,3,5,7,9,11,13,15,17,19,-1,21,23,25,27,29,31,33,35,37,39,-1,41,-1,-1,-1,-1,-1,43,45,47,-1,-1,49,51,-1,-1,53,-1,-1,-1,-1,-1,55,57,59,61,63,65,67,-1,69,-1,-1,-1,-1,71,-1,73,75,-1,77,79,81,-1,83,-1,85,87,-1,-1,89,-1,-1,-1,-1,-1,-1,-1,-1,-1,-1,-1,-1,-1,-1,-1,-1,-1,-1,-1],"loss_changes":[3.0002012E3,1.8031152E2,1.391576E2,8.270972E1,2.245064E1,4.187299E1,2.8934692E1,4.282715E1,4.058066E1,2.019412E1,0E0,1.8943336E1,6.819685E0,1.7981575E1,5.55188E0,3.086792E1,1.0378432E0,1.1369772E1,3.8681889E0,2.3924438E1,5.3117466E0,0E0,1.3240302E0,0E0,0E0,0E0,0E0,0E0,1.1572266E0,1.1093994E1,4.4808105E1,0E0,0E0,6.76873E0,9.794859E0,0E0,0E0,1.4290768E1,0E0,0E0,0E0,0E0,0E0,1.5427475E0,4.9658203E-1,6.2075195E0,1.7574371E1,4.8511505E0,1.658598E1,8.950043E0,0E0,7.1039724E-1,0E0,0E0,0E0,0E0,9.948387E-1,0E0,2.504693E0,2.7053223E0,0E0,1.0899231E1,9.326008E0,2.9457245E0,0E0,9.737123E0,0E0,1.0120947E1,1.3271668E0,0E0,0E0,2.8384724E0,0E0,0E0,0E0,0E0,0E0,0E0,0E0,0E0,0E0,0E0,0E0,0E0,0E0,0E0,0E0,0E0,0E0,0E0,0E0],"parents":[2147483647,0,0,1,1,2,2,3,3,4,4,5,5,6,6,7,7,8,8,9,9,11,11,12,12,13,13,14,14,15,15,16,16,17,17,18,18,19,19,20,20,22,22,28,28,29,29,30,30,33,33,34,34,37,37,43,43,44,44,45,45,46,46,47,47,48,48,49,49,51,51,56,56,58,58,59,59,61,61,62,62,63,63,65,65,67,67,68,68,71,71],"right_children":[2,4,6,8,10,12,14,16,18,20,-1,22,24,26,28,30,32,34,36,38,40,-1,42,-1,-1,-1,-1,-1,44,46,48,-1,-1,50,52,-1,-1,54,-1,-1,-1,-1,-1,56,58,60,62,64,66,68,-1,70,-1,-1,-1,-1,72,-1,74,76,-1,78,80,82,-1,84,-1,86,88,-1,-1,90,-1,-1,-1,-1,-1,-1,-1,-1,-1,-1,-1,-1,-1,-1,-1,-1,-1,-1,-1],"split_conditions":[9.855031E-1,1.7924812E0,5E-1,3.465736E-1,3.465736E-1,3.465736E-1,1.0751903E0,2.29756E0,6.021191E-1,8.9587975E-1,1.708402E-2,1.0144463E0,1.2477297E0,1.0717989E0,7.262025E-1,6.5556383E-1,5.566414E-1,4.439205E-1,5E-1,6.787286E-1,-2.1533827E-1,-1.8412577E-2,1.142476E0,-3.420318E-3,1.5915202E-2,1.2057241E-2,-1.5332917E-2,-3.4094762E-4,3.465736E-1,3.465736E-1,3.465736E-1,2.037501E-3,1.4619382E-2,-2.1533827E-1,6.532166E-1,-8.416935E-5,1.7431015E-2,-9.8583686E-1,1.3647221E-2,-1.8792496E-3,1.677295E-2,-1.0610568E-4,1.1807544E-2,1.1052213E0,2.7361355E0,8.283216E-1,7.92861E-1,1.0778828E0,8.9587975E-1,5.622694E-1,-1.782268E-2,6.041895E-1,-1.2542173E-2,1.175703E-2,-1.5853431E-2,1.9621863E-3,1.7924812E0,1.9276852E-2,1.7601056E0,8.9587975E-1,2.0130887E-3,-1.0521519E0,6.7251617E-1,5.5260056E-1,2.1371106E-3,5E-1,1.6028853E-2,5E-1,1.3294764E-1,2.054846E-3,1.2845715E-2,1.0760968E0,1.8161075E-2,-4.19012E-4,1.4596616E-2,-1.9107657E-2,-1.3846493E-2,-7.353196E-3,-1.7180689E-2,1.0850384E-2,-1.2666922E-2,-1.2651683E-2,-1.8484471E-2,1.9098467E-3,-1.300516E-2,-1.7300423E-2,-1.2990602E-4,1.1823613E-2,-1.04941806E-4,4.723618E-3,1.5510599E-2],"split_indices":[11,8,8,10,10,18,16,18,15,3,0,12,16,2,15,12,2,12,8,15,2,0,12,0,0,0,0,0,3,18,6,0,0,2,11,0,0,11,0,0,0,0,0,16,6,15,11,12,3,14,0,11,0,0,0,0,8,0,2,6,0,11,15,15,0,2,0,8,16,0,0,13,0,0,0,0,0,0,0,0,0,0,0,0,0,0,0,0,0,0,0],"sum_hessian":[1.570575E3,1.2222245E3,3.4835052E2,1.1872046E3,3.5019943E1,2.644121E1,3.2190933E2,1.1467466E3,4.04579E1,2.4598259E1,1.0421682E1,1.7675411E1,8.765799E0,7.632299E0,3.14277E2,1.142614E3,4.1325674E0,3.1714952E1,8.74295E0,1.7059637E1,7.5386214E0,1.4745327E1,2.930085E0,1.9764152E0,6.789384E0,4.13311E0,3.499189E0,1.4763546E0,3.1280066E2,1.0541719E3,8.844217E1,1.2265146E0,2.9060528E0,2.5581842E1,6.1331086E0,1.4765296E0,7.2664204E0,1.3176685E1,3.8829527E0,1.7264276E0,5.812194E0,1.4766229E0,1.4534619E0,2.5271944E1,2.8752872E2,8.9820953E2,1.5596236E2,6.729528E1,2.1146887E1,1.6084415E1,9.497427E0,4.383521E0,1.7495875E0,1.4533823E0,1.1723303E1,1.2266068E0,2.4045338E1,2.8314664E2,4.382072E0,8.9698315E2,1.2263864E0,1.5080615E2,5.156192E0,6.606869E1,1.2265885E0,1.6787437E1,4.359448E0,1.3154333E1,2.930082E0,1.2266444E0,3.1568768E0,1.16950445E1,1.2350292E1,1.476189E0,2.9058828E0,8.745836E2,2.2399538E1,1.460668E1,1.3619948E2,3.4064589E0,1.7497329E0,2.6602987E1,3.9465702E1,1.056215E1,6.2252884E0,7.2480497E0,5.906284E0,1.453425E0,1.4766569E0,5.632554E0,6.062491E0],"tree_param":{"num_deleted":"0","num_feature":"19","num_nodes":"91","size_leaf_vector":"0"}},{"base_weights":[-9.398721E-1,-1.6588229E0,1.5986367E0,-1.7286737E0,5.6486475E-1,-6.384553E-1,1.8025994E0,-1.7686856E0,-4.9287644E-1,-1.5151969E0,8.1991124E-1,-1.4391012E0,1.0777837E0,6.547558E-2,1.8578731E0,-1.780514E0,1.5336746E0,-9.0631944E-1,1.3208596E0,-1.0655138E0,1.1367012E0,8.902532E-1,-1.6952754E0,-4.638153E-1,1.5780343E0,-9.027079E-1,1.5562248E0,-3.3891432E-2,1.8670989E0,-1.8541083E0,-1.421408E0,-5.4616266E-1,-1.5239913E0,-8.366733E-3,1.6447482E0,-1.4924028E0,2.2770032E-1,-7.452646E-1,1.3716004E0,2.0651835E-1,-1.8384051E0,8.725612E-1,-1.6113158E0,1.2011899E0,1.8843362E0,-1.8597792E0,-4.0094268E-1,-1.1718202E0,-1.9176567E0,-1.0813296E0,6.479405E-1,-1.7421944E0,-3.3407623E-1,2.1324389E-1,-1.2504117E0,1.8086677E0,8.803476E-1,1.4068134E0,-3.2208964E-2,-1.9115559E0,-1.712897E0,-1.3904049E0,1.1733241E0,-1.4666353E0,-3.3796555E-1,-3.549074E-1,-1.7096663E0,-9.376182E-3,1.0905589E0,-2.0074786E-1,1.4479256E0,4.226073E-1,1.6631458E0,-1.9156394E0,-3.2828423E-1,-1.1908407E0,-1.7722043E0,3.1717827E-3,-1.5116967E0,-1.0559736E0,3.5056952E-1,-2.5472972E-3,-1.1863145E0,8.983478E-1,-1.0959662E0,1.3669361E0,2.0603298E-1,8.894343E-1,-1.3731167E0,1.5769943E0,6.1709565E-1],"default_left":[true,true,true,true,true,true,true,true,true,false,true,true,true,true,true,true,false,true,true,true,true,false,true,false,false,true,false,false,true,true,true,true,true,false,false,false,false,true,true,false,false,false,false,true,false,true,true,true,false,true,true,false,false,false,false,false,true,true,false,true,true,false,false,true,true,true,false,true,true,true,true,false,false,false,false,false,false,false,false,false,false,false,false,false,false,false,false,false,false,false,false],"id":3,"leaf_child_counts":[0,0,0,0,0,0,0,0,0,0,0,0,0,0,0,0,0,0,0,0,0,0,0,0,0,0,0,0,0,0,0,0,0,0,0,0,0,0,0,0,0,0,0,0,0,0,0,0,0,0,0,0,0,0,0,0,0,0,0,0,0,0,0,0,0,0,0,0,0,0,0,0,0,0,0,0,0,0,0,0,0,0,0,0,0,0,0,0,0,0,0],"left_children":[1,3,5,7,9,11,13,15,17,-1,19,21,23,25,27,29,-1,31,33,35,37,-1,39,-1,-1,41,-1,-1,43,45,47,49,51,-1,-1,-1,-1,53,55,-1,-1,-1,-1,57,-1,59,61,63,-1,65,67,-1,-1,-1,-1,-1,69,71,-1,73,75,-1,-1,77,79,81,-1,83,85,87,89,-1,-1,-1,-1,-1,-1,-1,-1,-1,-1,-1,-1,-1,-1,-1,-1,-1,-1,-1,-1],"loss_changes":[2.8627805E3,1.907461E2,1.5920343E2,5.7711914E1,2.1381979E1,4.2336E1,3.038379E1,4.754419E1,3.0100006E1,0E0,2.1796642E1,1.3841976E1,8.454315E0,1.7041727E1,5.4366455E0,2.758789E1,0E0,6.2822304E0,3.2693539E0,3.3617868E0,1.4280464E1,0E0,5.541767E0,0E0,0E0,1.0464726E1,0E0,0E0,1.25354E0,7.048584E0,2.2374786E1,1.4606605E1,2.3314285E0,0E0,0E0,0E0,0E0,2.191738E0,4.2081947E0,0E0,0E0,0E0,0E0,2.7056036E0,0E0,3.8886719E0,9.344197E0,3.2652252E1,0E0,6.4227715E0,2.1514518E0,0E0,0E0,0E0,0E0,0E0,9.290734E0,1.5709705E0,0E0,3.817871E0,5.787964E0,0E0,0E0,6.58284E0,1.8424833E1,2.4592323E0,0E0,4.8835344E0,7.9562426E-1,8.797491E0,7.128143E-2,0E0,0E0,0E0,0E0,0E0,0E0,0E0,0E0,0E0,0E0,0E0,0E0,0E0,0E0,0E0,0E0,0E0,0E0,0E0,0E0],"parents":[2147483647,0,0,1,1,2,2,3,3,4,4,5,5,6,6,7,7,8,8,10,10,11,11,12,12,13,13,14,14,15,15,17,17,18,18,19,19,20,20,22,22,25,25,28,28,29,29,30,30,31,31,32,32,37,37,38,38,43,43,45,45,46,46,47,47,49,49,50,50,56,56,57,57,59,59,60,60,63,63,64,64,65,65,67,67,68,68,69,69,70,70],"right_children":[2,4,6,8,10,12,14,16,18,-1,20,22,24,26,28,30,-1,32,34,36,38,-1,40,-1,-1,42,-1,-1,44,46,48,50,52,-1,-1,-1,-1,54,56,-1,-1,-1,-1,58,-1,60,62,64,-1,66,68,-1,-1,-1,-1,-1,70,72,-1,74,76,-1,-1,78,80,82,-1,84,86,88,90,-1,-1,-1,-1,-1,-1,-1,-1,-1,-1,-1,-1,-1,-1,-1,-1,-1,-1,-1,-1],"split_conditions":[9.855031E-1,1.7924812E0,5E-1,3.465736E-1,5E-1,3.465736E-1,1.0821055E0,2.29756E0,5.940557E-1,-1.5151969E-2,7.004269E-1,1.0592134E0,1.2477297E0,1.2424533E0,7.262025E-1,4.557662E-1,1.5336745E-2,3.413031E-1,5E-1,3.413031E-1,-2.1533827E-1,8.902532E-3,9.945493E-1,-4.638153E-3,1.5780343E-2,9.968777E-1,1.55622475E-2,-3.389143E-4,1.083671E0,1.7924812E0,8.198693E-1,3.065736E-1,8.6884296E-1,-8.366733E-5,1.6447483E-2,-1.4924028E-2,2.2770031E-3,3.465736E-1,1.2596482E-1,2.0651834E-3,-1.838405E-2,8.725612E-3,-1.6113158E-2,1.3085711E0,1.8843362E-2,5E-1,9.855755E-1,7.552506E-1,-1.9176567E-2,-8.9237094E-1,3.2384273E-1,-1.7421944E-2,-3.340762E-3,2.1324388E-3,-1.2504118E-2,1.8086676E-2,8.5864747E-1,7.896565E-1,-3.2208965E-4,1.4978662E0,-1.0521519E0,-1.3904049E-2,1.173324E-2,4.6285954E-1,7.364429E-1,8.9587975E-1,-1.7096663E-2,1.3294764E-1,6.266357E-1,1.8084795E0,1.1111178E0,4.226073E-3,1.6631458E-2,-1.9156393E-2,-3.2828422E-3,-1.1908407E-2,-1.7722042E-2,3.1717827E-5,-1.5116966E-2,-1.0559736E-2,3.5056951E-3,-2.5472971E-5,-1.1863144E-2,8.983478E-3,-1.0959662E-2,1.366936E-2,2.0603298E-3,8.894343E-3,-1.3731167E-2,1.5769942E-2,6.1709564E-3],"split_indices":[11,8,8,10,7,18,16,18,15,0,0,16,16,18,15,11,0,2,8,2,2,0,0,0,0,17,0,0,0,7,2,14,14,0,0,0,0,18,17,0,0,0,0,17,0,7,0,11,0,11,13,0,0,0,0,0,16,13,0,18,11,0,0,11,14,10,0,16,11,1,17,0,0,0,0,0,0,0,0,0,0,0,0,0,0,0,0,0,0,0,0],"sum_hessian":[1.5661398E3,1.2207487E3,3.4539117E2,1.183786E3,3.6962646E1,2.8681225E1,3.1670993E2,1.1462424E3,3.7543533E1,3.4975002E0,3.3465145E1,1.9667557E1,9.013669E0,9.833996E0,3.0687595E2,1.1426106E3,3.631776E0,3.0981558E1,6.5619755E0,4.473995E0,2.8991152E1,1.70342E0,1.7964136E1,2.2261815E0,6.787487E0,6.2010903E0,3.632906E0,1.476361E0,3.053996E2,9.4481854E2,1.9779211E2,2.0760561E1,1.0220997E1,1.4765285E0,5.085447E0,3.247855E0,1.22614E0,2.975926E0,2.6015224E1,1.2263601E0,1.6737776E1,1.7030588E0,4.4980316E0,9.489448E0,2.9591013E2,9.4086707E2,3.9514756E0,1.3383916E2,6.3952953E1,1.44008875E1,6.3596725E0,8.244933E0,1.9760641E0,1.226507E0,1.749419E0,1.2347723E1,1.3667501E1,8.012981E0,1.4764667E0,6.867651E2,2.5410199E2,2.498134E0,1.4533416E0,9.831894E1,3.552022E1,7.4048977E0,6.9959903E0,2.953038E0,3.4066346E0,4.9277215E0,8.73978E0,2.2030158E0,5.809965E0,6.8478894E2,1.9761118E0,2.8072355E1,2.2602963E2,2.952254E0,9.5366684E1,1.7126726E1,1.8393496E1,5.9052477E0,1.4996498E0,1.7033345E0,1.2497034E0,2.1800668E0,1.2265676E0,2.678411E0,2.2493103E0,6.787286E0,1.9524949E0],"tree_param":{"num_deleted":"0","num_feature":"19","num_nodes":"91","size_leaf_vector":"0"}},{"base_weights":[-9.4890696E-1,-1.649762E0,1.5961881E0,-1.7156887E0,4.8200622E-1,-6.408538E-1,1.787741E0,-1.7598382E0,-3.2498276E-1,-1.582233E0,8.064122E-1,-1.4074863E0,1.1695291E0,2.690461E-1,1.836922E0,-1.8069423E0,-1.1058711E0,-8.3758247E-1,9.4127995E-1,-1.0310994E0,1.1069869E0,-1.6150557E-2,-1.804518E0,-3.3669764E-1,1.656179E0,1.2268059E0,-1.0354562E0,1.8460808E0,3.967366E-1,-1.8119552E0,1.146728E0,-1.2609085E-1,-1.8307302E0,-2.188028E-1,-1.7613393E0,-1.2462233E0,1.4620551E0,-1.4627088E0,2.0722708E-1,1.3460311E-1,1.4732573E0,-1.3087131E0,1.11884E0,1.4252958E0,1.755387E-1,2.0121707E-1,-1.464979E0,1.2674696E0,1.8781867E0,-1.867352E0,-1.6450039E0,-4.749283E-1,1.636914E0,-1.8899671E0,1.9431159E-1,-8.541698E-1,4.8204747E-1,1.726914E0,-1.2146539E-2,-6.587796E-1,1.2385184E0,1.5957412E0,7.421298E-1,-5.918749E-1,1.5820225E0,-1.8740436E0,-5.9837544E-1,-1.7333932E0,-1.4053534E0,-1.1710806E0,3.9679986E-1,9.3734264E-2,-1.5919485E0,-7.287399E-1,1.1907816E0,6.514144E-1,-1.461791E0,1.6813866E0,6.1153907E-1,-3.784094E-2,1.0889938E0,-1.1135342E0,2.0116012E-1,1.8375964E-1,1.6820862E0,-1.8773193E0,-9.7160727E-1,-1.4602928E0,8.976456E-1,-1.3774694E0,-1.840303E0,-7.684602E-1,-1.4915993E0,-4.8572007E-1,-1.7382805E0,-1.2999775E0,7.800445E-1,-3.23865E-1,4.5243192E-1,2.1960881E-1,-1.23178E0,1.569558E0,1.1501965E-3],"default_left":[true,true,true,true,true,true,true,true,true,false,true,true,true,true,true,true,true,true,true,true,true,true,false,false,false,true,true,true,false,true,false,true,true,true,false,false,true,false,false,true,true,false,false,false,false,false,false,true,false,true,true,true,false,false,false,true,true,false,false,true,false,true,true,true,true,true,true,true,true,true,true,true,false,true,true,false,false,false,false,false,false,false,false,false,false,false,false,false,false,false,false,false,false,false,false,false,false,false,false,false,false,false,false],"id":4,"leaf_child_counts":[0,0,0,0,0,0,0,0,0,0,0,0,0,0,0,0,0,0,0,0,0,0,0,0,0,0,0,0,0,0,0,0,0,0,0,0,0,0,0,0,0,0,0,0,0,0,0,0,0,0,0,0,0,0,0,0,0,0,0,0,0,0,0,0,0,0,0,0,0,0,0,0,0,0,0,0,0,0,0,0,0,0,0,0,0,0,0,0,0,0,0,0,0,0,0,0,0,0,0,0,0,0,0],"left_children":[1,3,5,7,9,11,13,15,17,-1,19,21,23,25,27,29,31,33,35,37,39,41,-1,-1,-1,43,45,47,-1,49,-1,51,53,55,-1,-1,57,-1,-1,59,61,-1,-1,-1,-1,-1,-1,63,-1,65,67,69,-1,-1,-1,71,73,-1,-1,75,-1,77,79,81,83,85,87,89,91,93,95,97,-1,99,101,-1,-1,-1,-1,-1,-1,-1,-1,-1,-1,-1,-1,-1,-1,-1,-1,-1,-1,-1,-1,-1,-1,-1,-1,-1,-1,-1,-1],"loss_changes":[2.82202E3,1.7507129E2,1.4760529E2,7.328125E1,2.6704468E1,4.0082806E1,2.3040405E1,3.3907715E1,2.5607578E1,0E0,1.9631645E1,1.0968849E1,6.9969873E0,1.508295E1,3.2911377E0,1.815332E1,5.7219612E1,1.5475315E1,1.4910651E1,3.0952697E0,1.0220634E1,9.428916E0,0E0,0E0,0E0,1.1755505E0,3.0690012E0,3.2452393E0,0E0,6.956299E0,0E0,2.2592705E1,5.935791E0,8.319683E0,0E0,0E0,3.824089E0,0E0,0E0,8.790091E0,7.096901E-1,0E0,0E0,0E0,0E0,0E0,0E0,1.2046234E1,0E0,5.729004E0,3.4640503E0,1.890563E1,0E0,0E0,0E0,6.915571E0,8.662548E0,0E0,0E0,7.2124853E0,0E0,4.2539597E-1,1.3679743E0,1.6621345E0,2.0022125E0,5.46875E-1,8.661743E0,5.044922E0,3.26651E0,5.8218822E0,1.0273596E1,9.223009E-1,0E0,2.1664305E0,2.7510662E0,0E0,0E0,0E0,0E0,0E0,0E0,0E0,0E0,0E0,0E0,0E0,0E0,0E0,0E0,0E0,0E0,0E0,0E0,0E0,0E0,0E0,0E0,0E0,0E0,0E0,0E0,0E0,0E0],"parents":[2147483647,0,0,1,1,2,2,3,3,4,4,5,5,6,6,7,7,8,8,10,10,11,11,12,12,13,13,14,14,15,15,16,16,17,17,18,18,19,19,20,20,21,21,25,25,26,26,27,27,29,29,31,31,32,32,33,33,36,36,39,39,40,40,47,47,49,49,50,50,51,51,55,55,56,56,59,59,61,61,62,62,63,63,64,64,65,65,66,66,67,67,68,68,69,69,70,70,71,71,73,73,74,74],"right_children":[2,4,6,8,10,12,14,16,18,-1,20,22,24,26,28,30,32,34,36,38,40,42,-1,-1,-1,44,46,48,-1,50,-1,52,54,56,-1,-1,58,-1,-1,60,62,-1,-1,-1,-1,-1,-1,64,-1,66,68,70,-1,-1,-1,72,74,-1,-1,76,-1,78,80,82,84,86,88,90,92,94,96,98,-1,100,102,-1,-1,-1,-1,-1,-1,-1,-1,-1,-1,-1,-1,-1,-1,-1,-1,-1,-1,-1,-1,-1,-1,-1,-1,-1,-1,-1,-1],"split_conditions":[9.866303E-1,1.7924812E0,5E-1,3.465736E-1,5E-1,3.465736E-1,8.480793E-1,7.552506E-1,8.6884296E-1,-1.5822329E-2,-2.1533827E-1,1.0296098E0,1.0830299E0,9.602864E-1,2.7361355E0,2.524928E0,6.259648E-1,-2.1533827E-1,5.345429E-1,5.5260056E-1,3.465736E-1,3.465736E-1,-1.804518E-2,-3.3669763E-3,1.656179E-2,7.2672266E-1,3.9624062E-1,1.8084795E0,3.9673657E-3,5E-1,1.146728E-2,1.0397208E0,9.120319E-1,-2.5E-1,-1.7613392E-2,-1.2462233E-2,1.1462407E0,-1.4627088E-2,2.0722707E-3,7.032093E-1,4.0542832E-1,-1.308713E-2,1.11884E-2,1.4252958E-2,1.755387E-3,2.0121706E-3,-1.464979E-2,9.058471E-1,1.8781867E-2,8.727271E-1,1.2648536E-1,8.9794445E-1,1.636914E-2,-1.889967E-2,1.9431158E-3,-1.211933E0,-2.6557687E-1,1.726914E-2,-1.2146539E-4,1.7924812E0,1.2385183E-2,8.198693E-1,9.188025E-1,8.9587975E-1,1.1229632E0,1.2924812E0,8.198693E-1,-8.9237094E-1,-2.1533827E-1,7.262025E-1,3.065736E-1,5E-1,-1.5919484E-2,-6.811519E-1,2.0041063E-1,6.5141437E-3,-1.461791E-2,1.6813865E-2,6.1153905E-3,-3.784094E-4,1.0889937E-2,-1.1135342E-2,2.011601E-3,1.8375964E-3,1.6820861E-2,-1.8773193E-2,-9.716072E-3,-1.46029275E-2,8.976456E-3,-1.3774694E-2,-1.840303E-2,-7.684602E-3,-1.49159925E-2,-4.8572007E-3,-1.7382804E-2,-1.2999775E-2,7.800445E-3,-3.2386498E-3,4.524319E-3,2.1960882E-3,-1.23178E-2,1.569558E-2,1.1501965E-5],"split_indices":[11,8,8,10,7,18,4,11,14,0,2,2,11,2,6,18,2,2,15,15,18,3,0,0,0,4,4,1,0,8,0,6,15,4,0,0,4,0,0,15,13,0,0,0,0,0,0,13,0,13,13,17,0,0,0,11,11,0,0,7,0,17,17,18,4,7,17,11,17,15,14,8,0,11,15,0,0,0,0,0,0,0,0,0,0,0,0,0,0,0,0,0,0,0,0,0,0,0,0,0,0,0,0],"sum_hessian":[1.5796018E3,1.2388151E3,3.4078668E2,1.2018423E3,3.6972786E1,2.6694185E1,3.140925E2,1.1646052E3,3.7237125E1,4.4947515E0,3.247803E1,1.8909315E1,7.784871E0,1.0055426E1,3.0403708E2,1.0847122E3,7.9893036E1,2.6747803E1,1.0489321E1,4.2241273E0,2.8253906E1,4.4290557E0,1.4480259E1,1.9762684E0,5.808603E0,5.832667E0,4.2227583E0,3.0183572E2,2.201334E0,1.0832603E3,1.4519258E0,3.4471893E1,4.5421143E1,1.6758776E1,9.989026E0,1.7491293E0,8.740191E0,2.9979987E0,1.2261283E0,8.104741E0,2.0149164E1,1.9992206E0,2.429835E0,4.6070256E0,1.2256415E0,1.2255926E0,2.997166E0,1.7995708E1,2.8384003E2,8.057247E2,2.7753555E2,2.9387701E1,5.0841913E0,4.4195045E1,1.2260994E0,8.675291E0,8.083486E0,7.2637444E0,1.4764469E0,4.950241E0,3.1544995E0,1.6245092E1,3.9040718E0,2.4763272E0,1.55193815E1,8.0102386E2,4.700832E0,1.9820093E2,7.933461E1,1.6148384E1,1.3239318E1,4.179013E0,4.4962783E0,2.9741976E0,5.109288E0,1.9528141E0,2.9974272E0,1.4292943E1,1.9521497E0,1.4759971E0,2.4280748E0,1.2499597E0,1.2263674E0,1.2258674E0,1.4293514E1,7.970504E2,3.9734542E0,2.997649E0,1.7031829E0,4.898954E1,1.492114E2,1.0643858E1,6.869075E1,8.153125E0,7.9952583E0,1.9986157E0,1.1240703E1,1.975835E0,2.2031777E0,1.2261167E0,1.748081E0,3.6331382E0,1.4761498E0],"tree_param":{"num_deleted":"0","num_feature":"19","num_nodes":"103","size_leaf_vector":"0"}},{"base_weights":[-9.267702E-1,-1.6376243E0,1.5977497E0,-1.7103807E0,6.373449E-1,-6.468678E-1,1.7717791E0,-1.7499006E0,-4.463811E-1,-1.5353209E0,9.2998326E-1,-1.501955E0,1.2503208E0,-7.1697876E-2,1.8255694E0,-1.7590764E0,1.0511587E0,-8.6659396E-1,1.4096732E0,-9.621862E-1,1.2041643E0,-1.8032689E0,1.1640885E0,-2.0849699E-1,1.650754E0,-8.890637E-1,1.4532305E0,-4.0162038E-2,1.8345302E0,-1.7904043E0,-1.0255497E0,1.957955E-1,1.3196632E0,-1.6723914E0,-5.981642E-1,1.6183431E0,2.0662858E-1,-1.4123831E0,2.2760881E-1,-8.1080496E-1,1.4680254E0,-1.6051188E0,1.1509266E0,1.8406144E0,1.6071884E-1,-1.8668716E0,-1.5924186E0,-6.0390973E-1,-1.8005334E0,1.5931915E-1,-1.1874598E0,-1.2950547E0,2.0559852E-1,1.5548599E0,-4.4580605E-2,8.9084655E-1,1.8520756E0,-1.8737687E0,-6.9085777E-1,-1.6422186E0,-4.941937E-1,-1.3495682E0,2.554704E-1,-5.932442E-1,7.4031633E-1,-1.7387853E0,1.9877946E-1,-4.1244593E-2,1.232014E0,6.26513E-1,1.8578883E0,2.8314656E-1,-1.4043941E0,-1.0015262E0,-1.7323091E0,-1.3808014E0,5.581539E-1,-2.8243324E-1,-1.7818841E0,1.0317655E0,-8.863143E-1,-1.4188725E0,6.5523416E-1,1.0682551E0,-1.7879239E-1,1.1284981E0,-1.157256E0],"default_left":[true,true,true,true,true,true,true,true,true,false,true,true,true,true,true,true,true,true,true,true,true,false,false,false,false,true,false,false,true,true,true,false,false,false,true,false,false,false,false,true,true,false,false,true,false,true,true,true,false,true,true,false,false,false,false,true,true,false,true,true,true,true,true,true,true,false,true,false,false,false,false,false,false,false,false,false,false,false,false,false,false,false,false,false,false,false,false],"id":5,"leaf_child_counts":[0,0,0,0,0,0,0,0,0,0,0,0,0,0,0,0,0,0,0,0,0,0,0,0,0,0,0,0,0,0,0,0,0,0,0,0,0,0,0,0,0,0,0,0,0,0,0,0,0,0,0,0,0,0,0,0,0,0,0,0,0,0,0,0,0,0,0,0,0,0,0,0,0,0,0,0,0,0,0,0,0,0,0,0,0,0,0],"left_children":[1,3,5,7,9,11,13,15,17,-1,19,21,23,25,27,29,31,33,35,37,39,-1,-1,-1,-1,41,-1,-1,43,45,47,-1,-1,-1,49,-1,-1,-1,-1,51,53,-1,-1,55,-1,57,59,61,-1,63,65,-1,-1,-1,-1,67,69,-1,71,73,75,77,79,81,83,-1,85,-1,-1,-1,-1,-1,-1,-1,-1,-1,-1,-1,-1,-1,-1,-1,-1,-1,-1,-1,-1],"loss_changes":[2.8331914E3,2.0488354E2,1.3671808E2,5.883081E1,2.6151058E1,4.3577606E1,3.209601E1,3.1582031E1,3.0486826E1,0E0,1.9260464E1,1.6697762E1,5.328066E0,1.388273E1,5.310913E0,2.4669678E1,7.528906E-1,5.751417E0,1.5000954E0,2.9846277E0,1.7629604E1,0E0,0E0,0E0,0E0,1.2360204E1,0E0,0E0,2.8792725E0,1.3753906E1,1.5115158E1,0E0,0E0,0E0,1.133609E1,0E0,0E0,0E0,0E0,2.345467E0,3.7070389E0,0E0,0E0,1.7307129E0,0E0,5.123291E0,1.639618E1,2.1887228E1,0E0,5.602217E0,1.1170282E1,0E0,0E0,0E0,0E0,1.8410306E0,1.0153809E0,0E0,4.704714E0,1.5612976E1,1.4839551E1,7.874222E0,1.5502915E1,6.8048334E0,2.3336067E0,0E0,7.518265E0,0E0,0E0,0E0,0E0,0E0,0E0,0E0,0E0,0E0,0E0,0E0,0E0,0E0,0E0,0E0,0E0,0E0,0E0,0E0,0E0],"parents":[2147483647,0,0,1,1,2,2,3,3,4,4,5,5,6,6,7,7,8,8,10,10,11,11,12,12,13,13,14,14,15,15,16,16,17,17,18,18,19,19,20,20,25,25,28,28,29,29,30,30,34,34,39,39,40,40,43,43,45,45,46,46,47,47,49,49,50,50,55,55,56,56,58,58,59,59,60,60,61,61,62,62,63,63,64,64,66,66],"right_children":[2,4,6,8,10,12,14,16,18,-1,20,22,24,26,28,30,32,34,36,38,40,-1,-1,-1,-1,42,-1,-1,44,46,48,-1,-1,-1,50,-1,-1,-1,-1,52,54,-1,-1,56,-1,58,60,62,-1,64,66,-1,-1,-1,-1,68,70,-1,72,74,76,78,80,82,84,-1,86,-1,-1,-1,-1,-1,-1,-1,-1,-1,-1,-1,-1,-1,-1,-1,-1,-1,-1,-1,-1],"split_conditions":[9.855031E-1,1.7924812E0,5E-1,3.465736E-1,5E-1,3.465736E-1,1.0613573E0,2.29756E0,5.940557E-1,-1.5353208E-2,7.004269E-1,1.1101573E0,9.2549336E-1,1.2424533E0,7.262025E-1,7.7894413E-1,1.1951401E0,-2.5027302E-1,1.2646077E0,3.413031E-1,-2.1533827E-1,-1.8032689E-2,1.1640885E-2,-2.0849698E-3,1.650754E-2,1.211546E0,1.4532304E-2,-4.0162037E-4,2.4050088E0,5E-1,8.198693E-1,1.957955E-3,1.3196631E-2,-1.6723914E-2,-2.1533827E-1,1.618343E-2,2.0662858E-3,-1.4123831E-2,2.276088E-3,2.9036775E0,6.5471816E-1,-1.6051186E-2,1.1509266E-2,1.2830945E0,1.6071884E-3,9.509977E-1,7.5336885E-1,3.065736E-1,-1.8005334E-2,-4.227713E-2,5.1444626E-1,-1.2950546E-2,2.0559852E-3,1.5548598E-2,-4.4580604E-4,9.9606764E-1,1.1083887E0,-1.8737687E-2,1.0082918E0,-8.9237094E-1,8.9794445E-1,8.16713E-1,7.926269E-1,5E-1,5.994889E-1,-1.7387852E-2,8.9587975E-1,-4.1244592E-4,1.2320139E-2,6.26513E-3,1.8578883E-2,2.8314656E-3,-1.4043941E-2,-1.0015262E-2,-1.732309E-2,-1.3808014E-2,5.581539E-3,-2.8243323E-3,-1.781884E-2,1.0317654E-2,-8.863143E-3,-1.4188725E-2,6.5523414E-3,1.068255E-2,-1.7879239E-3,1.1284981E-2,-1.1572559E-2],"split_indices":[11,8,8,10,7,18,16,18,15,0,0,12,13,18,15,12,0,0,0,2,2,0,0,0,0,12,0,0,2,7,2,0,0,0,2,0,0,0,0,7,12,0,0,1,0,13,11,14,0,15,12,0,0,0,0,12,16,0,0,11,17,12,15,8,1,0,18,0,0,0,0,0,0,0,0,0,0,0,0,0,0,0,0,0,0,0,0],"sum_hessian":[1.5763038E3,1.2302433E3,3.460605E2,1.1923584E3,3.7884914E1,2.4704659E1,3.2135583E2,1.1558359E3,3.6522488E1,3.9929752E0,3.389194E1,1.7172926E1,7.531732E0,9.101467E0,3.1225436E2,1.1524327E3,3.4031847E0,3.0214897E1,6.307589E0,3.9718976E0,2.9920042E1,1.5719893E1,1.4530318E0,1.7253678E0,5.8063645E0,6.1968946E0,2.9045725E0,1.4759021E0,3.1077847E2,1.103848E3,4.858475E1,1.2261858E0,2.1769989E0,6.2432003E0,2.3971697E1,5.081064E0,1.2265248E0,2.7458405E0,1.2260572E0,3.2243698E0,2.6695673E1,4.744652E0,1.4522424E0,3.095536E2,1.2248691E0,7.902165E2,3.1363147E2,3.2617847E1,1.5966904E1,1.0808301E1,1.3163396E1,1.9982029E0,1.226167E0,2.5219933E1,1.4757398E0,4.629627E0,3.0492398E2,7.8501917E2,5.197326E0,2.9955264E2,1.4078838E1,1.7159052E1,1.5458796E1,4.6997085E0,6.108593E0,9.235857E0,3.9275396E0,1.4760559E0,3.1535714E0,1.952924E0,3.0297104E2,2.4526052E0,2.7447212E0,3.8422443E1,2.611302E2,7.4717445E0,6.6070943E0,5.423904E0,1.1735148E1,9.259592E0,6.1992035E0,2.7467682E0,1.9529402E0,4.3826036E0,1.7259895E0,2.4295793E0,1.4979603E0],"tree_param":{"num_deleted":"0","num_feature":"19","num_nodes":"87","size_leaf_vector":"0"}},{"base_weights":[-9.184957E-1,-1.6358025E0,1.5737681E0,-1.7032104E0,1.3785382E-1,-7.797867E-1,1.7584734E0,-1.7661748E0,-8.6698693E-1,-5.2474236E-1,1.5310822E0,-1.4183311E0,1.5955347E0,-1.2258576E0,1.778175E0,-1.8181614E0,-1.1804271E0,-1.4793335E0,3.6849275E-1,-8.924062E-1,5.348272E-1,6.8956196E-1,1.6772431E0,5.661066E-1,-1.79604E0,-2.1122254E-1,1.7893807E0,-1.8208003E0,-3.1393018E-1,-1.305783E0,3.9135974E-2,7.329966E-1,-1.61281E0,-1.6690202E0,1.0623156E0,-3.859436E-1,-1.6979183E0,9.412545E-1,-1.0743616E0,-3.0380543E-2,1.1352985E0,-1.8697481E-1,1.1721956E0,7.726822E-1,1.8159817E0,-1.8594761E0,-1.6934657E0,-2.1719043E-1,-1.4855378E0,-1.4248285E0,9.182389E-1,9.161716E-1,1.8099353E-1,-1.7084635E0,6.203996E-1,1.5704694E0,5.8076006E-1,-1.1132656E0,5.677983E-1,-1.635923E-2,1.1753982E0,1.5822277E0,-1.2778203E-1,8.669995E-1,1.8213178E0,-1.2819848E0,-1.7755241E0,-6.134437E-1,9.61416E-1,-1.5186746E0,2.3356844E-1,-1.0632186E0,1.5782918E0,-1.8539493E0,-1.2960949E0,6.7596966E-1,1.7000412E0,-5.0138164E-1,1.1551816E0,-2.9573298E-1,-1.5886747E0,-1.2151268E0,1.3065577E0,1.3680766E0,2.2476614E-1,-1.3605937E0,1.0779363E0,1.7339122E-1,1.142667E0,1.322545E0,1.837427E0,-1.4749463E0,-1.606572E-1,-1.7887187E0,-1.5240449E-1,-2.3082849E-2,-1.4630148E0,1.2217299E0,2.4248365E-1,7.631972E-3,-1.5513445E0,-4.472698E-1,-1.7423226E0,-1.3989923E0,8.471242E-1,-2.1864967E-1,1.5218973E0,-5.4518825E-1,2.264213E-1,1.5497124E0,2.1380773E-1,1.4990866E0,-6.0849484E-2],"default_left":[true,true,true,true,true,true,true,true,true,true,true,true,false,false,true,true,true,true,true,true,true,true,false,true,false,false,true,true,false,true,true,true,true,false,true,true,false,true,false,false,false,false,false,true,true,false,true,true,true,false,true,false,false,true,false,true,true,true,true,false,true,false,true,true,true,true,true,true,true,true,false,false,false,false,true,false,false,true,true,true,false,false,true,false,false,false,false,false,false,true,false,false,false,false,false,false,false,false,false,false,false,false,false,false,false,false,false,false,false,false,false,false,false],"id":6,"leaf_child_counts":[0,0,0,0,0,0,0,0,0,0,0,0,0,0,0,0,0,0,0,0,0,0,0,0,0,0,0,0,0,0,0,0,0,0,0,0,0,0,0,0,0,0,0,0,0,0,0,0,0,0,0,0,0,0,0,0,0,0,0,0,0,0,0,0,0,0,0,0,0,0,0,0,0,0,0,0,0,0,0,0,0,0,0,0,0,0,0,0,0,0,0,0,0,0,0,0,0,0,0,0,0,0,0,0,0,0,0,0,0,0,0,0,0],"left_children":[1,3,5,7,9,11,13,15,17,19,21,23,-1,-1,25,27,29,31,33,35,37,39,-1,41,-1,-1,43,45,-1,47,49,51,53,-1,55,57,-1,59,-1,-1,-1,-1,-1,61,63,-1,65,67,69,-1,71,-1,-1,73,-1,75,77,79,81,-1,83,-1,85,87,89,91,93,95,97,99,-1,-1,-1,-1,101,-1,-1,103,105,107,-1,-1,109,-1,-1,-1,-1,-1,-1,111,-1,-1,-1,-1,-1,-1,-1,-1,-1,-1,-1,-1,-1,-1,-1,-1,-1,-1,-1,-1,-1,-1,-1],"loss_changes":[2.8305088E3,1.4715112E2,1.552779E2,6.0804443E1,4.3191383E1,4.238982E1,2.1499268E1,3.1351074E1,6.474977E1,1.2889795E1,6.95076E-1,1.7041958E1,0E0,0E0,7.6640625E0,3.4318848E0,1.4196136E1,1.799678E1,4.266224E1,9.147707E0,6.7883406E0,1.2943499E0,0E0,2.1266232E0,0E0,0E0,7.3895264E0,1.8078613E0,0E0,1.6100586E1,1.3656602E1,2.3130298E-1,1.259816E1,0E0,4.517376E0,1.1763815E1,0E0,1.7199588E0,0E0,0E0,0E0,0E0,0E0,7.5137744E0,2.1484375E-2,0E0,6.0199585E0,6.6919355E0,4.4484863E0,0E0,1.0313911E1,0E0,0E0,7.2050476E-1,0E0,3.4059525E-2,8.6469E0,3.1999855E0,1.160488E1,0E0,8.1139374E-1,0E0,9.900113E0,5.0471497E-1,8.8134766E-2,9.380524E0,4.058838E0,5.1768208E0,3.919084E-1,3.5341187E0,0E0,0E0,0E0,0E0,5.622261E0,0E0,0E0,7.4767222E0,4.756688E0,7.3571026E-1,0E0,0E0,1.2254524E0,0E0,0E0,0E0,0E0,0E0,0E0,3.357582E0,0E0,0E0,0E0,0E0,0E0,0E0,0E0,0E0,0E0,0E0,0E0,0E0,0E0,0E0,0E0,0E0,0E0,0E0,0E0,0E0,0E0,0E0,0E0],"parents":[2147483647,0,0,1,1,2,2,3,3,4,4,5,5,6,6,7,7,8,8,9,9,10,10,11,11,14,14,15,15,16,16,17,17,18,18,19,19,20,20,21,21,23,23,26,26,27,27,29,29,30,30,31,31,32,32,34,34,35,35,37,37,43,43,44,44,46,46,47,47,48,48,50,50,53,53,55,55,56,56,57,57,58,58,60,60,62,62,63,63,64,64,65,65,66,66,67,67,68,68,69,69,74,74,77,77,78,78,79,79,82,82,89,89],"right_children":[2,4,6,8,10,12,14,16,18,20,22,24,-1,-1,26,28,30,32,34,36,38,40,-1,42,-1,-1,44,46,-1,48,50,52,54,-1,56,58,-1,60,-1,-1,-1,-1,-1,62,64,-1,66,68,70,-1,72,-1,-1,74,-1,76,78,80,82,-1,84,-1,86,88,90,92,94,96,98,100,-1,-1,-1,-1,102,-1,-1,104,106,108,-1,-1,110,-1,-1,-1,-1,-1,-1,112,-1,-1,-1,-1,-1,-1,-1,-1,-1,-1,-1,-1,-1,-1,-1,-1,-1,-1,-1,-1,-1,-1,-1],"split_conditions":[9.866303E-1,3.465736E-1,5E-1,1.2924812E0,1.5772133E0,8.9587975E-1,9.509146E-1,6.369845E-1,7.2672266E-1,4.439205E-1,1.8084795E0,8.9794445E-1,1.5955346E-2,-1.2258576E-2,5.752543E-1,1.4205807E0,8.9587975E-1,-6.811519E-1,-2.1533827E-1,-2.1533827E-1,9.672679E-1,1.5449477E0,1.677243E-2,1.099489E0,-1.79604E-2,-2.1122254E-3,1.1052213E0,5E-1,-3.1393017E-3,-2.5E-1,3.465736E-1,9.777243E-1,8.803223E-1,-1.6690202E-2,9.2484117E-1,-2.5E-1,-1.6979182E-2,6.259648E-1,-1.0743615E-2,-3.0380543E-4,1.1352984E-2,-1.869748E-3,1.1721956E-2,1.0187355E0,5E-1,-1.859476E-2,-8.5074544E-1,3.065736E-1,1.0621828E0,-1.42482845E-2,4.491222E-1,9.161716E-3,1.8099352E-3,1.2596482E-1,6.203996E-3,8.480793E-1,8.5864747E-1,-1.211933E0,-3.0408537E-1,-1.635923E-4,8.9587975E-1,1.5822276E-2,1.2424533E0,1.5222611E0,1.6989778E0,3.465736E-1,1.0424812E0,5.463325E-1,6.291828E-1,-1.3905896E-1,2.3356844E-3,-1.0632185E-2,1.5782917E-2,-1.8539492E-2,8.782354E-1,6.7596966E-3,1.700041E-2,8.9587975E-1,8.9587975E-1,5E-1,-1.5886746E-2,-1.2151267E-2,2.2037241E-1,1.3680765E-2,2.2476614E-3,-1.3605936E-2,1.0779363E-2,1.7339122E-3,1.14266705E-2,1.3739634E0,1.837427E-2,-1.4749463E-2,-1.606572E-3,-1.7887186E-2,-1.5240448E-3,-2.3082847E-4,-1.4630148E-2,1.2217298E-2,2.4248364E-3,7.631972E-5,-1.5513445E-2,-4.472698E-3,-1.7423226E-2,-1.3989923E-2,8.471242E-3,-2.1864967E-3,1.5218973E-2,-5.4518823E-3,2.2642128E-3,1.5497124E-2,2.1380773E-3,1.4990866E-2,-6.0849485E-4],"split_indices":[11,10,7,7,1,18,16,12,4,12,1,2,0,0,12,14,3,11,2,2,17,14,0,1,0,0,16,7,0,4,18,1,11,0,14,4,0,17,0,0,0,0,0,14,8,0,16,14,12,0,14,0,0,2,0,4,16,11,11,0,18,0,18,18,1,18,4,11,11,15,0,0,0,0,1,0,0,3,18,8,0,0,15,0,0,0,0,0,0,14,0,0,0,0,0,0,0,0,0,0,0,0,0,0,0,0,0,0,0,0,0,0,0],"sum_hessian":[1.5808684E3,1.227827E3,3.5304138E2,1.1829103E3,4.4916767E1,2.5455824E1,3.2758557E2,1.0990443E3,8.3865944E1,3.086246E1,1.4054309E1,2.0380056E1,5.075768E0,1.7469177E0,3.2583865E2,1.0075203E3,9.152401E1,5.5941845E1,2.7924099E1,2.302923E1,7.833229E0,2.92596E0,1.1128349E1,3.1790287E0,1.7201027E1,1.7250936E0,3.2411356E2,1.00554584E3,1.9745177E0,8.292921E1,8.594797E0,2.927522E0,5.301432E1,6.73633E0,2.1187769E1,1.5047378E1,7.981852E0,6.5851226E0,1.2481067E0,1.4751601E0,1.4507997E0,1.7259707E0,1.453058E0,9.03008E0,3.1508347E2,7.608473E2,2.4469855E2,1.2065981E1,7.086323E1,2.9917984E0,5.6029987E0,1.7027609E0,1.2247609E0,5.1062183E1,1.952137E0,9.208938E0,1.197883E1,8.442148E0,6.6052294E0,1.4765165E0,5.108606E0,4.356408E0,4.6736717E0,2.6758578E0,3.1240762E2,4.344864E1,2.0124991E2,9.388904E0,2.6770773E0,6.9637505E1,1.2257197E0,1.2474341E0,4.355565E0,3.5161255E1,1.5900928E1,1.9517775E0,7.25716E0,4.19781E0,7.78102E0,3.7005656E0,4.7415824E0,1.7461768E0,4.8590527E0,3.8825502E0,1.2260556E0,2.2473607E0,2.426311E0,1.2243223E0,1.4515356E0,1.2374312E1,3.000333E2,3.6800533E1,6.6481056E0,1.9952591E2,1.7239983E0,6.1455655E0,3.2433386E0,1.451974E0,1.2251034E0,1.4753826E0,6.8162125E1,6.168807E0,9.7321205E0,2.4977715E0,1.7000389E0,1.7244512E0,6.056569E0,2.4743502E0,1.2262154E0,3.6325696E0,1.226483E0,1.0899718E1,1.4745942E0],"tree_param":{"num_deleted":"0","num_feature":"19","num_nodes":"113","size_leaf_vector":"0"}},{"base_weights":[-9.101578E-1,-1.5470865E0,1.6548514E0,-1.653291E0,8.680609E-1,-2.5463763E-1,1.7660414E0,-1.691559E0,-3.314551E-1,-1.1990964E0,1.3535421E0,-1.3772345E0,7.21382E-1,4.323082E-1,1.802136E0,-1.7273536E0,-4.6088526E-1,-1.1017327E0,6.625553E-1,-1.6871047E0,6.502898E-1,7.4525326E-1,1.7725807E0,-1.6610699E0,1.9606254E-1,-1.0799507E0,1.0900232E0,-1.3705657E0,1.3253815E0,1.2172873E0,1.8230675E0,-1.736671E0,1.4133312E0,-1.7191331E-1,-1.6181916E0,-1.3445369E0,1.1913085E0,-2.6176548E-1,1.3987125E0,9.6983963E-1,-1.1756787E0,-1.6659153E-1,1.4095107E0,1.5492623E0,1.8968461E-1,-2.3281914E-1,1.4620025E0,1.8329803E0,9.8571295E-1,-1.7629E0,-1.1929363E0,-1.1095264E0,2.7647007E-1,-3.7729126E-1,-1.5785377E0,-1.4846773E0,1.0465667E0,1.5314988E0,6.069592E-1,1.5331298E-1,1.6191972E0,1.6072775E0,1.5523052E-1,-8.1761695E-2,1.4099393E0,-1.7931072E0,-1.3478293E0,-1.482108E0,3.3504406E-1,-1.5628307E0,-3.826301E-1,-9.921667E-1,6.7513555E-1,-1.1990958E0,4.4532654E-1,-1.7539276E0,-1.6343772E-1,1.3083017E0,2.0193517E-1,1.3793172E0,-4.321868E-1,-1.7957375E0,-6.5051876E-3,-2.1023922E-1,-1.5212742E0,-5.2967336E-2,-1.6406031E0,-1.4646559E0,1.4875712E0,1.3852863E-1,-1.0704869E0,-1.41772E0,2.1640874E-1,1.081129E0,-1.9218051E-1,-1.459646E0,8.7049913E-1],"default_left":[true,true,true,true,true,true,true,true,true,true,true,true,true,true,true,true,true,true,true,false,false,true,false,false,false,false,true,false,true,true,true,true,false,true,false,true,false,true,true,true,false,false,false,false,false,false,true,false,true,true,true,true,true,true,true,false,true,false,false,true,false,false,false,false,false,true,true,true,true,false,true,true,true,false,false,false,false,false,false,false,true,false,false,false,false,false,false,false,false,false,false,false,false,false,false,false,false],"id":7,"leaf_child_counts":[0,0,0,0,0,0,0,0,0,0,0,0,0,0,0,0,0,0,0,0,0,0,0,0,0,0,0,0,0,0,0,0,0,0,0,0,0,0,0,0,0,0,0,0,0,0,0,0,0,0,0,0,0,0,0,0,0,0,0,0,0,0,0,0,0,0,0,0,0,0,0,0,0,0,0,0,0,0,0,0,0,0,0,0,0,0,0,0,0,0,0,0,0,0,0,0,0],"left_children":[1,3,5,7,9,11,13,15,17,19,21,23,25,27,29,31,33,35,37,-1,-1,39,-1,-1,-1,-1,41,-1,43,45,47,49,-1,51,-1,53,-1,55,57,59,-1,-1,-1,-1,-1,-1,61,-1,63,65,67,69,71,73,75,-1,77,-1,-1,79,-1,-1,-1,-1,-1,81,83,85,87,-1,89,91,93,-1,-1,-1,-1,-1,-1,-1,95,-1,-1,-1,-1,-1,-1,-1,-1,-1,-1,-1,-1,-1,-1,-1,-1],"loss_changes":[2.5536711E3,3.2242505E2,6.650159E1,6.009253E1,5.5181656E1,2.0707672E1,1.3379456E1,5.0527344E1,2.7513252E1,1.0736214E1,9.814911E0,4.2159634E0,8.004185E0,1.6412495E1,1.2825317E0,3.5573975E1,1.1190344E1,1.278359E1,1.1182993E1,0E0,0E0,9.572413E0,0E0,0E0,0E0,0E0,3.8609428E0,0E0,1.3767853E0,4.915699E0,4.6875E-1,1.3996582E1,0E0,1.2313618E1,0E0,3.6212006E0,0E0,1.417765E1,1.7353058E-2,9.320831E0,0E0,0E0,0E0,0E0,0E0,0E0,1.870821E0,0E0,2.5474906E0,1.1059814E1,2.4817207E1,2.5121727E0,1.0846284E1,3.8758006E0,3.358635E0,0E0,7.0816517E-1,0E0,0E0,7.1277914E0,0E0,0E0,0E0,0E0,0E0,4.682617E0,1.4861694E1,1.043866E1,2.2038965E1,0E0,1.9226363E0,2.9894776E0,5.808309E0,0E0,0E0,0E0,0E0,0E0,0E0,0E0,1.0532315E1,0E0,0E0,0E0,0E0,0E0,0E0,0E0,0E0,0E0,0E0,0E0,0E0,0E0,0E0,0E0,0E0],"parents":[2147483647,0,0,1,1,2,2,3,3,4,4,5,5,6,6,7,7,8,8,9,9,10,10,11,11,12,12,13,13,14,14,15,15,16,16,17,17,18,18,21,21,26,26,28,28,29,29,30,30,31,31,33,33,35,35,37,37,38,38,39,39,46,46,48,48,49,49,50,50,51,51,52,52,53,53,54,54,56,56,59,59,65,65,66,66,67,67,68,68,70,70,71,71,72,72,80,80],"right_children":[2,4,6,8,10,12,14,16,18,20,22,24,26,28,30,32,34,36,38,-1,-1,40,-1,-1,-1,-1,42,-1,44,46,48,50,-1,52,-1,54,-1,56,58,60,-1,-1,-1,-1,-1,-1,62,-1,64,66,68,70,72,74,76,-1,78,-1,-1,80,-1,-1,-1,-1,-1,82,84,86,88,-1,90,92,94,-1,-1,-1,-1,-1,-1,-1,96,-1,-1,-1,-1,-1,-1,-1,-1,-1,-1,-1,-1,-1,-1,-1,-1],"split_conditions":[8.836855E-1,1.7924812E0,1.1084726E0,8.511432E-1,3.465736E-1,3.465736E-1,3.465736E-1,3.465736E-1,8.480793E-1,8.9587975E-1,3.465736E-1,1.2424533E0,5.994889E-1,9.058471E-1,1.6989778E0,2.524928E0,9.672679E-1,1.0927706E0,5E-1,-1.6871046E-2,6.5028975E-3,1.3769486E0,1.7725807E-2,-1.6610699E-2,1.9606254E-3,-1.0799507E-2,8.198693E-1,-1.3705656E-2,2.3703206E0,9.6035826E-1,2.7361355E0,1.2924812E0,1.4133311E-2,-2.5E-1,-1.6181916E-2,8.619757E-1,1.1913084E-2,1.2424533E0,1.1555746E0,2.160964E0,-1.1756787E-2,-1.6659152E-3,1.4095107E-2,1.5492623E-2,1.8968461E-3,-2.3281914E-3,1.3960782E0,1.8329803E-2,1.7771311E0,6.369845E-1,8.640427E-1,5E-1,2.2125353E-1,2.2125353E-1,2.103837E0,-1.4846773E-2,7.8315187E-1,1.5314988E-2,6.069592E-3,1.2924812E0,1.6191972E-2,1.6072774E-2,1.5523052E-3,-8.1761694E-4,1.4099393E-2,1.3514116E0,-2.5E-1,-2.855224E-1,5.018654E-1,-1.5628306E-2,2.2125353E-1,5E-1,3.9624062E-1,-1.1990958E-2,4.453265E-3,-1.7539276E-2,-1.6343772E-3,1.30830165E-2,2.0193516E-3,1.3793171E-2,6.8515164E-1,-1.7957374E-2,-6.505188E-5,-2.102392E-3,-1.5212742E-2,-5.2967336E-4,-1.640603E-2,-1.4646558E-2,1.4875712E-2,1.3852862E-3,-1.07048685E-2,-1.4177199E-2,2.1640875E-3,1.081129E-2,-1.9218051E-3,-1.4596459E-2,8.704991E-3],"split_indices":[15,7,16,12,18,6,18,10,4,6,10,18,1,13,1,18,17,12,7,0,0,4,0,0,0,0,17,0,1,13,6,7,0,4,0,12,0,6,17,8,0,0,0,0,0,0,16,0,4,12,16,8,1,1,1,0,15,0,0,8,0,0,0,0,0,16,4,16,12,0,1,7,4,0,0,0,0,0,0,0,15,0,0,0,0,0,0,0,0,0,0,0,0,0,0,0,0],"sum_hessian":[1.5605273E3,1.2504255E3,3.101018E2,1.1980573E3,5.236831E1,1.6992682E1,2.9310913E2,1.1640768E3,3.3980484E1,9.680264E0,4.2688046E1,7.711736E0,9.280946E0,8.065268E0,2.8504385E2,1.1307839E3,3.329287E1,1.908375E1,1.4896732E1,7.7286177E0,1.9516463E0,1.8545431E1,2.4142614E1,6.485848E0,1.2258879E0,1.2488762E0,8.03207E0,2.494627E0,5.57064E0,1.1893184E1,2.7315067E2,1.1278849E3,2.8990462E0,2.7559889E1,5.7329803E0,1.763054E1,1.4532082E0,6.8900213E0,8.006711E0,1.7047443E1,1.4979868E0,1.7251687E0,6.306901E0,4.3491397E0,1.2215005E0,1.7242757E0,1.0168908E1,2.687798E2,4.3708897E0,1.0738419E3,5.4042892E1,8.438876E0,1.9121012E1,3.943281E0,1.3687261E1,3.4915998E0,3.3984213E0,6.0566306E0,1.9500806E0,8.099247E0,8.948197E0,8.9445715E0,1.2243358E0,1.4726214E0,2.898268E0,9.978991E2,7.594285E1,4.546804E1,8.57485E0,4.4892826E0,3.9495933E0,4.216024E0,1.4904988E1,1.743673E0,2.1996078E0,1.1964876E1,1.7223846E0,2.1753585E0,1.2230626E0,2.1795645E0,5.919682E0,9.9642694E2,1.47217E0,1.0339598E1,6.560325E1,4.6723084E0,4.0795734E1,3.2418303E0,5.3330197E0,2.70144E0,1.2481533E0,2.9901185E0,1.2259057E0,9.98463E0,4.9203587E0,3.2420843E0,2.6775978E0],"tree_param":{"num_deleted":"0","num_feature":"19","num_nodes":"97","size_leaf_vector":"0"}},{"base_weights":[-8.769836E-1,-1.5833868E0,1.5435503E0,-1.6790363E0,-3.9358902E-1,-5.717961E-1,1.7193282E0,-1.7476444E0,-1.2097158E0,-7.4052304E-1,1.4005526E0,-1.5146437E0,1.4142244E0,5.555722E-1,1.7991409E0,-1.769666E0,-8.871137E-1,-1.370959E0,5.2591586E-1,9.2864126E-1,-1.0080338E0,1.5528493E0,-3.1499416E-2,5.9407884E-1,-1.7767141E0,1.5708971E0,1.7924221E-1,-1.270897E0,1.3088539E0,-1.7724411E0,2.4000251E-1,-1.0308561E0,6.326745E-1,-1.4163697E0,-4.9097855E-3,-1.0551558E0,1.4971783E0,1.5170637E0,-1.2455189E0,-1.7094189E0,-4.8130685E-1,6.082618E-1,1.6547383E0,-2.5623638E-2,-1.5866694E0,-2.0930827E-1,1.4971374E0,-1.7923057E0,-1.61864E0,-6.480673E-1,-1.6720979E0,-1.4903741E0,-5.3494227E-1,7.241894E-1,-1.1500819E0,2.3707016E-1,-1.460904E0,2.4472025E-1,1.6683383E0,-1.8019143E0,-5.92521E-1,-1.4084187E0,1.2356448E-1,1.6044613E0,1.5817767E-1,-7.6882565E-1,-1.7161999E0,-1.1068707E0,6.487191E-1,-8.817109E-1,-1.6081558E0,-1.6001524E0,6.312967E-1,1.1565162E0,3.4671377E-3,-1.1159953E0,2.6080197E-1,-1.8878229E-1,-1.724058E0,-3.1994513E-1,9.027462E-1,-1.1678896E-1,-1.096704E0,-1.7811781E0,-1.336552E0,-1.2491829E0,1.2293754E-2,1.2253765E-1,1.1776553E0,-1.0733374E0,7.222228E-1,-1.6789191E0,-3.01392E-1,9.417808E-1,1.5198296E-1,-1.2477939E0,1.1817037E0,-1.2756349E0,3.8643295E-1,-5.57522E-1,1.4941683E0],"default_left":[true,true,true,true,true,true,true,true,true,true,true,true,true,true,false,true,true,true,true,true,true,true,false,false,false,false,false,true,true,true,false,true,false,true,true,true,true,false,false,true,true,false,false,false,false,false,true,false,true,true,false,true,true,true,false,false,false,false,false,false,true,true,true,false,false,true,true,true,true,true,true,false,true,false,false,false,false,true,false,true,true,false,false,false,false,false,false,false,false,false,false,false,false,false,false,false,false,false,false,false,false],"id":8,"leaf_child_counts":[0,0,0,0,0,0,0,0,0,0,0,0,0,0,0,0,0,0,0,0,0,0,0,0,0,0,0,0,0,0,0,0,0,0,0,0,0,0,0,0,0,0,0,0,0,0,0,0,0,0,0,0,0,0,0,0,0,0,0,0,0,0,0,0,0,0,0,0,0,0,0,0,0,0,0,0,0,0,0,0,0,0,0,0,0,0,0,0,0,0,0,0,0,0,0,0,0,0,0,0,0],"left_children":[1,3,5,7,9,11,13,15,17,19,21,23,25,27,-1,29,31,33,35,37,39,41,-1,-1,-1,-1,-1,43,45,47,-1,49,-1,51,53,55,57,-1,-1,59,61,-1,-1,-1,-1,-1,63,-1,65,67,-1,69,71,73,-1,-1,-1,-1,-1,-1,75,77,79,-1,-1,81,83,85,87,89,91,-1,93,-1,-1,-1,-1,95,-1,97,99,-1,-1,-1,-1,-1,-1,-1,-1,-1,-1,-1,-1,-1,-1,-1,-1,-1,-1,-1,-1],"loss_changes":[2.745567E3,1.4072363E2,1.3593127E2,3.4902344E1,5.939131E1,5.5686165E1,3.0147156E1,1.7394043E1,4.2663788E1,3.630606E1,3.4374294E0,1.2037739E1,1.5995655E0,3.3264736E1,0E0,5.8620605E0,6.5452404E0,8.516937E0,2.2253248E1,1.6553207E1,2.457634E1,3.469658E-1,0E0,0E0,0E0,0E0,0E0,2.796114E0,5.1025505E0,7.324219E-2,0E0,5.059017E0,0E0,7.8772583E0,5.361866E0,3.339984E0,1.46809E0,0E0,0E0,1.938034E0,2.2973194E1,0E0,0E0,0E0,0E0,0E0,1.9058418E0,0E0,8.768494E0,1.1013041E1,0E0,7.3370667E0,1.5744225E1,1.219857E0,0E0,0E0,0E0,0E0,0E0,0E0,1.9505683E0,5.8850937E0,9.108975E0,0E0,0E0,2.938015E0,2.9187012E-1,2.1099052E0,1.2897253E0,7.541403E0,8.843689E0,0E0,8.06154E-1,0E0,0E0,0E0,0E0,7.9181666E0,0E0,1.1971571E1,9.054609E0,0E0,0E0,0E0,0E0,0E0,0E0,0E0,0E0,0E0,0E0,0E0,0E0,0E0,0E0,0E0,0E0,0E0,0E0,0E0,0E0],"parents":[2147483647,0,0,1,1,2,2,3,3,4,4,5,5,6,6,7,7,8,8,9,9,10,10,11,11,12,12,13,13,15,15,16,16,17,17,18,18,19,19,20,20,21,21,27,27,28,28,29,29,31,31,33,33,34,34,35,35,36,36,39,39,40,40,46,46,48,48,49,49,51,51,52,52,53,53,60,60,61,61,62,62,65,65,66,66,67,67,68,68,69,69,70,70,72,72,77,77,79,79,80,80],"right_children":[2,4,6,8,10,12,14,16,18,20,22,24,26,28,-1,30,32,34,36,38,40,42,-1,-1,-1,-1,-1,44,46,48,-1,50,-1,52,54,56,58,-1,-1,60,62,-1,-1,-1,-1,-1,64,-1,66,68,-1,70,72,74,-1,-1,-1,-1,-1,-1,76,78,80,-1,-1,82,84,86,88,90,92,-1,94,-1,-1,-1,-1,96,-1,98,100,-1,-1,-1,-1,-1,-1,-1,-1,-1,-1,-1,-1,-1,-1,-1,-1,-1,-1,-1,-1],"split_conditions":[9.866303E-1,1.5772133E0,3.465736E-1,5.2789545E-1,3.465736E-1,1.0037131E0,1.6989778E0,3.465736E-1,8.9587975E-1,-6.8059635E-1,7.5297076E-1,7.82835E-1,1.4179945E0,9.3159693E-1,1.7991409E-2,1.3495902E0,5.80482E-1,3.465736E-1,3.465736E-1,1.4978662E0,3.469004E-1,1.8084795E0,-3.1499416E-4,5.9407884E-3,-1.776714E-2,1.570897E-2,1.792422E-3,7.85336E-1,8.065736E-1,3.465736E-1,2.400025E-3,1.22538224E-1,6.326745E-3,8.785598E-1,7.6931095E-1,3.4445572E-1,8.782354E-1,1.5170637E-2,-1.2455189E-2,8.9587975E-1,9.75719E-1,6.082618E-3,1.6547382E-2,-2.5623638E-4,-1.5866695E-2,-2.0930825E-3,1.3849082E0,-1.7923057E-2,-1.0521519E0,-4.227713E-2,-1.6720979E-2,-2.5E-1,1.1314719E-1,5.994889E-1,-1.1500819E-2,2.3707016E-3,-1.460904E-2,2.4472023E-3,1.6683383E-2,-1.8019143E-2,1.9079684E0,1.6989778E0,8.9587975E-1,1.6044613E-2,1.5817767E-3,-2.5E-1,3.465736E-1,-3.865799E-3,1.4624062E-1,8.9587975E-1,1.4400764E0,-1.6001523E-2,2.2125353E-1,1.1565162E-2,3.4671375E-5,-1.1159953E-2,2.6080196E-3,6.969968E-1,-1.724058E-2,1.9079684E0,9.9432E-1,-1.1678896E-3,-1.09670395E-2,-1.781178E-2,-1.336552E-2,-1.2491829E-2,1.2293753E-4,1.2253765E-3,1.17765535E-2,-1.0733374E-2,7.2222278E-3,-1.678919E-2,-3.0139198E-3,9.417808E-3,1.5198296E-3,-1.2477939E-2,1.1817036E-2,-1.2756349E-2,3.8643293E-3,-5.5752196E-3,1.4941682E-2],"split_indices":[11,1,18,12,10,12,1,10,6,16,13,13,17,13,0,14,4,10,18,6,15,1,0,0,0,0,0,12,14,18,0,12,0,13,14,15,1,0,0,6,14,0,0,0,0,0,14,0,11,15,0,4,14,1,0,0,0,0,0,0,1,1,3,0,0,4,3,16,4,3,1,0,1,0,0,0,0,15,0,1,4,0,0,0,0,0,0,0,0,0,0,0,0,0,0,0,0,0,0,0,0],"sum_hessian":[1.6032848E3,1.2413561E3,3.619287E2,1.1486067E3,9.274935E1,2.759477E1,3.3433395E2,9.9973553E2,1.4887119E2,7.82126E1,1.4536753E1,1.8872532E1,8.722239E0,2.1968645E1,3.123653E2,9.737599E2,2.5975622E1,1.3640868E2,1.24625E1,1.0462044E1,6.775055E1,1.3063152E1,1.4736009E0,1.9461522E0,1.6926378E1,7.498909E0,1.2233293E0,6.2141514E0,1.5754493E1,9.725349E2,1.224964E0,2.4025032E1,1.9505913E0,1.3198438E2,4.424302E0,4.709597E0,7.7529025E0,8.471514E0,1.9905305E0,2.8094627E1,3.9655926E1,1.9504902E0,1.1112661E1,1.475712E0,4.7384396E0,1.7259775E0,1.4028516E1,8.518581E2,1.2067682E2,1.6303383E1,7.7216487E0,1.2112398E2,1.0860401E1,2.927842E0,1.4964603E0,1.2247472E0,3.4848497E0,1.2242517E0,6.5286508E0,2.537951E1,2.7151153E0,1.5132794E1,2.4523132E1,1.2803932E1,1.2245837E0,1.3341721E1,1.073351E2,1.2150857E1,4.1525254E0,2.1014229E1,1.0010975E2,5.4815993E0,5.3788023E0,1.4521213E0,1.4757208E0,1.4920119E0,1.2231033E0,3.4397266E0,1.1693068E1,1.6003395E1,8.519736E0,4.9179053E0,8.423816E0,8.849686E1,1.8838245E1,1.0677001E1,1.4738555E0,2.6991255E0,1.4534E0,1.9067043E1,1.947185E0,9.469697E1,5.412777E0,2.6787448E0,2.7000573E0,1.9908597E0,1.4488668E0,6.4589367E0,9.544458E0,2.4724298E0,6.0473065E0],"tree_param":{"num_deleted":"0","num_feature":"19","num_nodes":"101","size_leaf_vector":"0"}},{"base_weights":[-8.929052E-1,-1.5783377E0,1.5133965E0,-1.6888126E0,-3.5748884E-1,-9.555161E-1,1.710001E0,-1.7261447E0,-7.5003314E-1,-1.3434381E0,4.9335602E-1,-1.6449223E0,1.444982E0,-1.7061493E-1,1.7597623E0,-1.7520493E0,-6.57146E-1,-1.0296507E0,1.2483766E0,-1.44183E0,4.5598102E-1,1.6652359E0,1.5872593E-1,-1.7671589E0,1.6102254E-1,-1.529234E0,1.3229985E0,6.33423E-1,1.7765976E0,-1.8028761E0,-1.5902976E0,-1.3185835E0,9.904011E-3,-1.1432948E0,1.1359452E0,1.9240704E-1,1.4860429E0,2.961241E-1,-1.5492347E0,-1.0390713E0,9.9774635E-1,-1.0858823E0,1.2971623E0,1.4025804E0,1.804829E0,-1.8063776E0,-1.4006324E-1,-1.6380558E0,-1.9624528E-1,-1.4733537E0,-1.6976157E-1,-4.6161023E-1,1.2686543E0,-1.0130761E-1,-1.4259971E0,-1.6069348E0,2.156702E-1,-1.5425353E0,4.7615322E-1,1.1858244E0,1.8755412E-1,-1.322575E0,1.6545079E0,1.8144944E0,1.0718861E0,-1.809754E0,-9.5807254E-1,-1.284315E0,-1.6841816E0,5.8682525E-1,-9.6954596E-1,-7.0675266E-1,-1.6534201E0,8.722394E-2,-1.0445006E0,-1.3741722E0,6.6126645E-1,-1.5917627E0,1.6223471E-1,-5.8974206E-1,-1.6633539E0,-1.7259281E0,-1.3705091E-1,1.2015706E0,-1.0734816E0,1.6417105E-1,1.4086524E0,-1.3547685E0,1.4241867E0,3.793174E-1,1.7649455E0,-9.2038624E-2,1.4628365E0,2.5612813E-1,-1.3953654E0,-1.574913E0,-1.2345452E-1,-1.8143061E0,-1.4612441E0,3.3572774E-2,1.2380012E0,2.4779013E-1,-1.4053266E0,-1.2041099E0,2.248006E-1,-4.3428254E-1,1.1567531E0,-1.6426405E-1,-1.4059932E0,-1.0428479E0,1.2784424E0,-1.7844111E0,-5.6276023E-1,2.4812199E-1,1.950116E-2,2.7084926E-1,-1.1203116E0,-1.7267066E0,-6.7608094E-1,-1.0617023E0,8.692431E-1,-1.788756E-2,1.5433128E0],"default_left":[true,true,true,true,true,true,true,true,true,true,true,true,false,true,true,true,true,true,true,true,false,false,true,false,false,false,false,true,true,true,true,true,true,true,false,false,false,false,true,true,true,false,false,true,true,true,false,true,true,true,false,true,false,true,true,true,false,true,true,true,true,false,true,false,true,false,true,true,true,true,true,true,false,true,true,false,true,true,true,true,true,false,false,false,false,true,true,false,false,false,false,false,false,false,false,false,false,false,false,false,false,false,false,false,false,false,false,false,false,false,false,false,false,false,false,false,false,false,false,false,false,false,false],"id":9,"leaf_child_counts":[0,0,0,0,0,0,0,0,0,0,0,0,0,0,0,0,0,0,0,0,0,0,0,0,0,0,0,0,0,0,0,0,0,0,0,0,0,0,0,0,0,0,0,0,0,0,0,0,0,0,0,0,0,0,0,0,0,0,0,0,0,0,0,0,0,0,0,0,0,0,0,0,0,0,0,0,0,0,0,0,0,0,0,0,0,0,0,0,0,0,0,0,0,0,0,0,0,0,0,0,0,0,0,0,0,0,0,0,0,0,0,0,0,0,0,0,0,0,0,0,0,0,0],"left_children":[1,3,5,7,9,11,13,15,17,19,21,23,-1,25,27,29,31,33,35,37,-1,-1,39,-1,-1,-1,-1,41,43,45,47,49,51,53,-1,-1,-1,-1,55,57,59,-1,-1,61,63,65,-1,67,69,71,-1,73,-1,75,77,79,-1,81,83,85,87,-1,89,-1,91,-1,93,95,97,99,101,103,-1,105,107,-1,109,111,113,115,117,-1,-1,-1,-1,119,121,-1,-1,-1,-1,-1,-1,-1,-1,-1,-1,-1,-1,-1,-1,-1,-1,-1,-1,-1,-1,-1,-1,-1,-1,-1,-1,-1,-1,-1,-1,-1,-1,-1,-1,-1,-1],"loss_changes":[2.5500422E3,1.6160571E2,1.6810321E2,3.7348145E1,8.5448166E1,4.5300888E1,3.0060852E1,2.8193115E1,2.5837872E1,8.993912E0,2.1296944E1,4.8360023E0,0E0,2.0508535E1,4.7512207E0,5.633789E0,1.178074E1,1.0919872E1,1.1810484E0,8.837196E0,0E0,0E0,4.5130215E1,0E0,0E0,0E0,0E0,8.3903E0,6.868286E-1,4.284424E0,1.670288E1,2.1323452E0,9.056229E0,1.0943977E1,0E0,0E0,0E0,0E0,4.6677322E0,1.4895639E1,3.7869911E0,0E0,0E0,1.9954586E1,3.8024902E-2,4.9316406E-1,0E0,1.8688354E0,6.3859296E0,4.4351006E-1,0E0,3.6471744E0,0E0,9.751132E0,8.03344E0,1.3839417E0,0E0,3.415699E0,7.3532343E0,4.5874214E0,1.3650004E1,0E0,2.7290802E0,0E0,2.904245E0,0E0,3.122373E0,1.08420105E1,3.597107E0,1.9023755E0,3.1122227E0,2.1090786E0,0E0,4.2104435E0,1.5088754E0,0E0,8.03483E0,4.3153E0,4.0502027E-2,1.9996355E0,1.2402115E0,0E0,0E0,0E0,0E0,5.177011E0,3.3403206E0,0E0,0E0,0E0,0E0,0E0,0E0,0E0,0E0,0E0,0E0,0E0,0E0,0E0,0E0,0E0,0E0,0E0,0E0,0E0,0E0,0E0,0E0,0E0,0E0,0E0,0E0,0E0,0E0,0E0,0E0,0E0,0E0,0E0,0E0,0E0,0E0],"parents":[2147483647,0,0,1,1,2,2,3,3,4,4,5,5,6,6,7,7,8,8,9,9,10,10,11,11,13,13,14,14,15,15,16,16,17,17,18,18,19,19,22,22,27,27,28,28,29,29,30,30,31,31,32,32,33,33,38,38,39,39,40,40,43,43,44,44,45,45,47,47,48,48,49,49,51,51,53,53,54,54,55,55,57,57,58,58,59,59,60,60,62,62,64,64,66,66,67,67,68,68,69,69,70,70,71,71,73,73,74,74,76,76,77,77,78,78,79,79,80,80,85,85,86,86],"right_children":[2,4,6,8,10,12,14,16,18,20,22,24,-1,26,28,30,32,34,36,38,-1,-1,40,-1,-1,-1,-1,42,44,46,48,50,52,54,-1,-1,-1,-1,56,58,60,-1,-1,62,64,66,-1,68,70,72,-1,74,-1,76,78,80,-1,82,84,86,88,-1,90,-1,92,-1,94,96,98,100,102,104,-1,106,108,-1,110,112,114,116,118,-1,-1,-1,-1,120,122,-1,-1,-1,-1,-1,-1,-1,-1,-1,-1,-1,-1,-1,-1,-1,-1,-1,-1,-1,-1,-1,-1,-1,-1,-1,-1,-1,-1,-1,-1,-1,-1,-1,-1,-1,-1],"split_conditions":[9.7865593E-1,1.2924812E0,3.465736E-1,7.7894413E-1,6.769013E-1,1.0037131E0,1.0613573E0,3.465736E-1,8.9587975E-1,3.465736E-1,2.3950534E-1,1.7924812E0,1.444982E-2,1.2424533E0,1.2830945E0,5E-1,5E-1,3.465736E-1,8.2920253E-1,-8.9237094E-1,4.5598103E-3,1.6652359E-2,7.699463E-1,-1.7671589E-2,1.6102254E-3,-1.529234E-2,1.3229985E-2,1.153228E0,3.465736E-1,9.784503E-1,1.5772133E0,4.1135573E-1,3.465736E-1,6.8262297E-1,1.1359451E-2,1.9240704E-3,1.4860428E-2,2.961241E-3,8.533683E-1,2.160964E0,2.5115757E0,-1.0858823E-2,1.2971623E-2,1.2924812E0,2.7361355E0,1.4978662E0,-1.4006324E-3,-8.9237094E-1,3.465736E-1,-4.0535724E-1,-1.6976156E-3,5.994889E-1,1.2686543E-2,4.852225E-1,1.1229632E0,5E-1,2.1567019E-3,4.7396997E-1,1.1512926E0,5.80482E-1,1.4506192E0,-1.3225749E-2,1.9079684E0,1.8144943E-2,1.7771311E0,-1.809754E-2,-5.945202E-2,-7.6088764E-2,4.4899784E-2,3.1615204E-1,2.634241E-1,-1.9735736E-1,-1.65342E-2,1.929013E-1,3.6069137E-1,-1.3741721E-2,4.582199E-1,9.265026E-1,8.582112E-1,-1.9735736E-1,7.174754E-1,-1.7259281E-2,-1.370509E-3,1.2015706E-2,-1.0734815E-2,9.094868E-1,8.0790067E-1,-1.3547685E-2,1.4241867E-2,3.793174E-3,1.7649455E-2,-9.203862E-4,1.4628365E-2,2.5612812E-3,-1.3953653E-2,-1.574913E-2,-1.2345451E-3,-1.8143062E-2,-1.4612441E-2,3.3572773E-4,1.2380012E-2,2.4779013E-3,-1.4053266E-2,-1.2041098E-2,2.248006E-3,-4.342825E-3,1.156753E-2,-1.6426404E-3,-1.4059932E-2,-1.0428479E-2,1.2784423E-2,-1.784411E-2,-5.6276023E-3,2.4812198E-3,1.950116E-4,2.7084926E-3,-1.1203116E-2,-1.7267065E-2,-6.760809E-3,-1.0617022E-2,8.69243E-3,-1.788756E-4,1.5433128E-2],"split_indices":[11,7,18,12,0,12,16,10,6,10,11,8,0,18,1,7,7,10,11,11,0,0,11,0,0,0,0,11,3,13,1,12,3,11,0,0,0,0,16,7,1,0,0,7,6,18,0,11,18,12,0,1,0,16,4,8,0,12,18,4,0,0,1,0,4,0,0,0,13,13,11,13,0,11,0,0,13,13,11,13,16,0,0,0,0,0,16,0,0,0,0,0,0,0,0,0,0,0,0,0,0,0,0,0,0,0,0,0,0,0,0,0,0,0,0,0,0,0,0,0,0,0,0],"sum_hessian":[1.5436342E3,1.2016808E3,3.419534E2,1.1016122E3,1.0006854E2,2.493724E1,3.1701614E2,1.0586736E3,4.293861E1,4.6085846E1,5.3982697E1,1.9617882E1,5.319359E0,8.109447E0,3.089067E2,1.0330023E3,2.567127E1,3.809335E1,4.845258E0,4.388495E1,2.2008955E0,1.1107546E1,4.287515E1,1.8394325E1,1.2235563E0,4.2341423E0,3.8753045E0,5.118047E0,3.0378867E2,7.782949E2,2.5470738E2,1.2399429E1,1.3271841E1,3.6642525E1,1.4508266E0,1.2226216E0,3.6226368E0,2.451953E0,4.1432995E1,1.756322E1,2.531193E1,1.2483636E0,3.8696835E0,2.4878082E1,2.7891058E2,7.765733E2,1.7216328E0,2.4610126E2,8.606118E0,1.0678343E1,1.7210857E0,1.0115837E1,3.156004E0,8.109777E0,2.8532745E1,4.0207985E1,1.2250122E0,1.3169396E1,4.393823E0,2.0166779E1,5.1451507E0,1.7456092E0,2.3132473E1,2.73824E2,5.086556E0,7.723658E2,4.2075014E0,3.1715712E1,2.1438554E2,4.3958616E0,4.2102566E0,2.9679163E0,7.710427E0,5.6480975E0,4.4677396E0,2.7378414E0,5.371937E0,2.583418E1,2.6985643E0,2.7148197E0,3.7493164E1,1.1447667E1,1.721729E0,3.1458113E0,1.2480118E0,3.9218922E0,1.6244886E1,2.2470763E0,2.8980742E0,2.1971626E0,2.093531E1,1.471181E0,3.6153746E0,1.223786E0,2.9837155E0,2.508061E1,6.635102E0,1.3086426E2,8.3521286E1,2.9451551E0,1.4507067E0,1.223591E0,2.9866655E0,1.7441369E0,1.2237794E0,4.1960416E0,1.4520559E0,1.724057E0,2.7436829E0,1.244893E0,4.1270437E0,2.1141905E1,4.6922765E0,1.2238047E0,1.4747597E0,1.222088E0,1.4927317E0,3.4528526E1,2.9646378E0,1.2473612E0,2.674531E0,1.4759893E0,1.4768897E1],"tree_param":{"num_deleted":"0","num_feature":"19","num_nodes":"123","size_leaf_vector":"0"}},{"base_weights":[-8.7644094E-1,-1.5453461E0,1.484783E0,-1.6515447E0,-3.9053133E-1,-9.628605E-1,1.7037951E0,-1.6918575E0,-5.842554E-1,-1.3180906E0,4.7400293E-1,-1.6221707E0,4.706938E-1,-1.3444896E0,1.7318063E0,-1.7235101E0,-5.965472E-1,-9.4776905E-1,1.1624209E0,1.2475551E-1,-1.4493645E0,-1.0697277E0,9.104891E-1,1.9342235E-1,-1.7482857E0,-7.0846236E-1,1.0671765E0,7.266147E-1,1.7660637E0,-1.7922105E0,-1.5151322E0,-9.496315E-1,2.9936582E-1,-5.0192577E-1,-1.7002535E0,-1.7583703E-1,1.5718168E0,7.0224804E-1,-4.4220063E-1,-1.5506316E0,2.7261442E-1,-1.6647598E0,5.354102E-1,1.6491059E0,4.355769E-1,-1.2024678E0,2.1853419E-1,1.5251535E0,-2.2553289E-1,1.1083053E0,-5.563291E-1,1.4618877E-1,1.7720493E0,-1.7990227E0,-5.8954746E-1,-1.5588261E0,-9.983927E-2,-1.1416061E0,1.1442305E0,8.488781E-1,-7.2499645E-1,-1.6229497E0,2.986548E-2,-1.6052713E0,-1.2379369E-1,1.1417955E0,-2.0709999E-1,-5.089295E-1,1.2157265E0,-2.1383645E-1,1.4194078E0,1.7994414E-1,-1.0373508E0,1.6461141E-1,1.7779585E0,-1.4180061E0,9.260855E-1,-1.5775334E0,1.6546118E-1,9.585563E-1,-6.890316E-1,-7.046894E-1,-1.6627634E0,-4.2898923E-1,1.5546899E0,-1.212946E0,2.0275871E-1,5.2012813E-1,-1.0488925E0,-1.6591266E0,-5.190728E-1,-1.3346752E0,8.5997766E-1,-7.902407E-3,1.3443648E0,1.585122E0,5.964119E-1,-1.2209265E0,-1.6523132E0,2.4148254E-2,2.4828851E-1,2.2102037E-1,1.2367209E0,-1.4504616E0,7.0143366E-1,-1.3818458E0,7.765125E-1,-5.218102E-1,8.2880336E-1,-1.4577008E0,2.473597E-1,-6.7745465E-1,-1.7191151E0,2.549338E-1,-1.0542948E0,4.5915093E-2,-1.6223149E0,1.3856153E0,-2.0653363E-1,1.4455878E0,1.5378687E-1],"default_left":[true,true,true,true,true,true,true,true,true,true,true,true,true,false,true,true,true,true,true,true,true,true,true,false,false,true,true,true,true,true,true,true,true,true,false,false,false,false,false,true,false,false,true,false,true,false,false,false,false,true,true,false,true,false,true,true,true,true,false,true,true,false,true,true,false,false,false,true,true,false,true,false,false,false,false,false,false,true,true,true,true,true,false,false,false,false,false,true,true,true,true,true,true,false,true,false,false,false,false,false,false,false,false,false,false,false,false,false,false,false,false,false,false,false,false,false,false,false,false,false,false],"id":10,"leaf_child_counts":[0,0,0,0,0,0,0,0,0,0,0,0,0,0,0,0,0,0,0,0,0,0,0,0,0,0,0,0,0,0,0,0,0,0,0,0,0,0,0,0,0,0,0,0,0,0,0,0,0,0,0,0,0,0,0,0,0,0,0,0,0,0,0,0,0,0,0,0,0,0,0,0,0,0,0,0,0,0,0,0,0,0,0,0,0,0,0,0,0,0,0,0,0,0,0,0,0,0,0,0,0,0,0,0,0,0,0,0,0,0,0,0,0,0,0,0,0,0,0,0,0],"left_children":[1,3,5,7,9,11,13,15,17,19,21,23,25,-1,27,29,31,33,35,37,39,41,43,-1,-1,45,47,49,51,53,55,57,59,61,-1,-1,-1,-1,-1,63,-1,-1,65,-1,67,-1,-1,-1,-1,69,71,-1,73,-1,75,77,79,81,-1,83,85,-1,87,89,-1,-1,-1,91,93,-1,95,-1,-1,-1,-1,-1,-1,97,99,101,103,105,-1,-1,-1,-1,-1,107,109,111,113,115,117,-1,119,-1,-1,-1,-1,-1,-1,-1,-1,-1,-1,-1,-1,-1,-1,-1,-1,-1,-1,-1,-1,-1,-1,-1,-1,-1,-1],"loss_changes":[2.5009785E3,1.5060278E2,1.8912396E2,4.759131E1,8.4962776E1,2.8516296E1,2.9769592E1,3.6674072E1,2.8164501E1,9.840828E0,3.8148983E1,4.9949837E0,7.8073034E0,0E0,9.697815E0,1.2407715E1,1.0430016E1,1.1167549E1,4.5451975E0,2.0045636E0,8.588425E0,1.2945493E1,1.4558094E1,0E0,0E0,2.0802405E0,4.521657E0,6.595055E0,2.7241821E0,5.4035645E0,1.6442078E1,1.0650335E1,6.147135E0,1.4307665E1,0E0,0E0,0E0,0E0,0E0,3.2608948E0,0E0,0E0,2.1139536E0,0E0,2.115178E1,0E0,0E0,0E0,0E0,4.3112593E0,1.4139075E0,0E0,2.6182861E0,0E0,8.760983E0,8.657166E0,6.3392544E0,3.7908325E0,0E0,6.851221E0,2.043358E0,0E0,9.644779E0,1.6340332E0,0E0,0E0,0E0,1.6193016E1,2.4591827E0,0E0,1.4819717E-1,0E0,0E0,0E0,0E0,0E0,0E0,4.8518677E0,3.7296385E-2,4.8056054E-1,7.826919E0,1.470458E1,0E0,0E0,0E0,0E0,0E0,4.4519196E0,3.3850365E0,1.2018433E0,1.706409E0,3.5269556E0,3.434545E0,0E0,1.4747429E0,0E0,0E0,0E0,0E0,0E0,0E0,0E0,0E0,0E0,0E0,0E0,0E0,0E0,0E0,0E0,0E0,0E0,0E0,0E0,0E0,0E0,0E0,0E0,0E0,0E0,0E0],"parents":[2147483647,0,0,1,1,2,2,3,3,4,4,5,5,6,6,7,7,8,8,9,9,10,10,11,11,12,12,14,14,15,15,16,16,17,17,18,18,19,19,20,20,21,21,22,22,25,25,26,26,27,27,28,28,29,29,30,30,31,31,32,32,33,33,39,39,42,42,44,44,49,49,50,50,52,52,54,54,55,55,56,56,57,57,59,59,60,60,62,62,63,63,67,67,68,68,70,70,77,77,78,78,79,79,80,80,81,81,87,87,88,88,89,89,90,90,91,91,92,92,94,94],"right_children":[2,4,6,8,10,12,14,16,18,20,22,24,26,-1,28,30,32,34,36,38,40,42,44,-1,-1,46,48,50,52,54,56,58,60,62,-1,-1,-1,-1,-1,64,-1,-1,66,-1,68,-1,-1,-1,-1,70,72,-1,74,-1,76,78,80,82,-1,84,86,-1,88,90,-1,-1,-1,92,94,-1,96,-1,-1,-1,-1,-1,-1,98,100,102,104,106,-1,-1,-1,-1,-1,108,110,112,114,116,118,-1,120,-1,-1,-1,-1,-1,-1,-1,-1,-1,-1,-1,-1,-1,-1,-1,-1,-1,-1,-1,-1,-1,-1,-1,-1,-1,-1],"split_conditions":[9.7170556E-1,1.2924812E0,5E-1,7.919446E-1,7.256966E-1,9.303889E-1,9.509146E-1,3.465736E-1,8.9587975E-1,-5.101241E-1,-2.1533827E-1,6.8437123E-1,1.099489E0,-1.3444896E-2,1.1020124E0,5E-1,5E-1,8.198693E-1,7.256966E-1,-7.6088764E-2,6.8562496E-1,1.5635583E0,4.491222E-1,1.9342235E-3,-1.7482856E-2,1.0490141E0,2.2341952E0,1.3474551E0,8.065736E-1,9.509977E-1,1.5772133E0,8.9587975E-1,-2.1533827E-1,1.1314719E-1,-1.7002534E-2,-1.7583702E-3,1.5718168E-2,7.02248E-3,-4.422006E-3,7.2672266E-1,2.7261442E-3,-1.6647598E-2,8.847195E-1,1.649106E-2,7.735481E-1,-1.2024677E-2,2.185342E-3,1.5251535E-2,-2.255329E-3,7.124934E-1,1.297107E0,1.4618876E-3,5.752543E-1,-1.7990226E-2,3.465736E-1,8.402399E-1,3.413031E-1,3.413031E-1,1.1442305E-2,-2.5027302E-1,4.2850456E-1,-1.6229497E-2,9.2132056E-1,5E-1,-1.2379369E-3,1.1417955E-2,-2.071E-3,2.160964E0,8.33398E-1,-2.1383644E-3,1.4977702E0,1.7994414E-3,-1.0373508E-2,1.646114E-3,1.7779585E-2,-1.41800605E-2,9.260855E-3,-8.5074544E-1,8.658945E-1,9.4198614E-1,8.198693E-1,3.065736E-1,-1.6627634E-2,-4.289892E-3,1.5546898E-2,-1.212946E-2,2.027587E-3,1.2596482E-1,1.0286438E0,5E-1,3.9033598E-1,5.485609E-1,1.8084795E0,-7.902407E-5,1.3919964E0,1.585122E-2,5.9641185E-3,-1.2209265E-2,-1.6523132E-2,2.4148253E-4,2.482885E-3,2.2102036E-3,1.23672085E-2,-1.4504616E-2,7.0143365E-3,-1.3818458E-2,7.765125E-3,-5.2181017E-3,8.288033E-3,-1.4577008E-2,2.473597E-3,-6.7745466E-3,-1.7191151E-2,2.549338E-3,-1.0542948E-2,4.5915094E-4,-1.622315E-2,1.3856153E-2,-2.065336E-3,1.4455877E-2,1.5378686E-3],"split_indices":[11,7,8,12,0,12,16,10,6,11,2,13,1,0,16,7,8,2,0,0,13,14,14,0,0,12,1,17,14,13,1,6,2,14,0,0,0,0,0,4,0,0,16,0,11,0,0,0,0,13,0,0,12,0,6,11,17,2,0,0,11,0,12,2,0,0,0,7,0,0,0,0,0,0,0,0,0,16,11,0,17,14,0,0,0,0,0,2,12,8,11,16,1,0,0,0,0,0,0,0,0,0,0,0,0,0,0,0,0,0,0,0,0,0,0,0,0,0,0,0,0],"sum_hessian":[1.5810112E3,1.23227E3,3.4874118E2,1.1280983E3,1.0417182E2,2.8363113E1,3.2037805E2,1.0864757E3,4.162256E1,5.000105E1,5.4170776E1,1.9337826E1,9.025289E0,2.48926E0,3.178888E2,1.0554027E3,3.107295E1,3.483101E1,6.7915497E0,4.173983E0,4.5827065E1,1.1620724E1,4.2550053E1,1.2213383E0,1.8116488E1,2.968762E0,6.056527E0,1.1208749E1,3.0668005E2,7.8800415E2,2.673986E2,2.2245796E1,8.827154E0,2.2918776E1,1.1912233E1,1.724593E0,5.0669565E0,1.9495618E0,2.2244213E0,4.3375706E1,2.4513578E0,8.450821E0,3.1699038E0,1.5684294E1,2.6865757E1,1.7428269E0,1.2259349E0,4.339375E0,1.7171519E0,8.743561E0,2.4651875E0,1.2226388E0,3.054574E2,7.8307263E2,4.9314713E0,2.592921E2,8.106466E0,2.0794086E1,1.4517101E0,5.856685E0,2.9704688E0,6.713906E0,1.6204868E1,4.1655487E1,1.7202202E0,1.4488895E0,1.7210143E0,1.2310009E1,1.4555749E1,1.7250388E0,7.0185223E0,1.2214675E0,1.24372E0,1.2244954E0,3.042329E2,3.2302182E0,1.7012532E0,2.5659338E2,2.6987362E0,2.674761E0,5.4317055E0,1.2590714E1,8.203372E0,2.223414E0,3.633271E0,1.745192E0,1.2252766E0,1.1497466E1,4.7074027E0,3.9185165E1,2.4703207E0,7.693924E0,4.6160855E0,1.4739406E0,1.3081808E1,5.0713444E0,1.9471778E0,4.748341E1,2.0910997E2,1.4745442E0,1.2241921E0,1.2239916E0,1.4507694E0,3.4818614E0,1.9498441E0,8.686578E0,3.9041371E0,2.4698763E0,9.02759E0,3.4840596E0,1.2233433E0,2.9645977E0,3.622057E1,1.2239714E0,1.2463493E0,1.4715016E0,6.222422E0,2.8916912E0,1.7243942E0,1.1859336E1,1.2224716E0],"tree_param":{"num_deleted":"0","num_feature":"19","num_nodes":"121","size_leaf_vector":"0"}},{"base_weights":[-8.657752E-1,-1.5257833E0,1.4411807E0,-1.5955637E0,1.7495972E-1,-1.3040318E0,1.73015E0,-1.6655711E0,-7.241477E-1,-4.1031384E-1,1.3533789E0,-1.6775293E0,1.2677437E0,-4.812766E-2,1.738587E0,-1.6987416E0,-7.9924256E-1,-1.2888085E0,3.4377766E-1,-9.308529E-1,3.3853784E-1,4.9865964E-1,1.623329E0,-1.8072563E-1,-1.7622136E0,1.225926E0,1.7618467E0,-1.7176514E0,-5.737788E-1,-1.024603E-2,-1.5975538E0,7.510588E-1,-1.4486972E0,1.3936952E0,-3.8128302E-1,-1.1538284E0,1.1377484E0,5.4841053E-1,-1.0474827E0,1.2256291E0,-1.0661302E0,1.4974571E0,-4.7525212E-2,8.0589885E-1,1.7677124E0,-1.7803007E0,-1.5316532E0,-1.6261877E0,1.860024E-1,-1.1144143E0,9.3429005E-1,-1.680844E-1,1.3037387E0,-1.5390655E0,4.8168778E-1,5.2766377E-1,1.6168884E0,-1.1682701E0,4.7227627E-1,-1.2626424E0,2.1184817E-1,-2.3555492E-1,1.0811268E0,1.602376E0,5.59001E-1,2.1878578E-1,-2.4783523E-1,1.0895613E0,1.3019243E-1,-1.7873904E0,-1.1267158E0,-1.5659838E0,-3.280987E-1,1.263235E0,-1.082446E0,2.8213382E-1,-1.3256973E0,1.0994165E-1,1.6031498E0,-1.7224672E0,-7.272923E-1,-2.0429558E-1,1.1248707E0,-1.5980036E0,-1.5028161E-1,9.889646E-1,-1.2583622E0,-1.358785E0,-4.1896737E-1,-8.954317E-1,1.1321754E0,-6.9147676E-2,1.3483704E0,-1.7908595E0,-1.0193756E0,2.3079967E-1,-1.6004164E0,-1.1625075E0,-1.6435242E0,4.7458476E-1,-9.473154E-1,-1.4571863E0,1.995823E-1,-7.7828676E-2,-1.593084E0,-3.401033E-1,8.918377E-1,-1.7835379E0,-8.615927E-1,3.3234668E-1,-1.2754279E0,-1.1326841E0,8.142827E-1,-1.3301789E-2,1.543505E0,-6.702894E-1,-1.4714912E0,-1.5949716E-1,-1.2660918E0],"default_left":[true,true,true,true,true,true,true,true,true,true,true,true,false,false,true,true,true,true,true,true,true,true,false,false,false,true,true,true,true,true,false,true,true,true,true,true,false,true,false,false,false,true,true,true,false,true,true,false,true,true,true,false,false,true,false,true,false,true,true,true,false,true,true,false,false,false,false,false,false,true,true,true,true,false,true,false,true,true,false,true,true,false,false,false,true,true,false,true,false,true,false,false,false,false,false,false,false,false,false,false,false,false,false,false,false,false,false,false,false,false,false,false,false,false,false,false,false,false,false],"id":11,"leaf_child_counts":[0,0,0,0,0,0,0,0,0,0,0,0,0,0,0,0,0,0,0,0,0,0,0,0,0,0,0,0,0,0,0,0,0,0,0,0,0,0,0,0,0,0,0,0,0,0,0,0,0,0,0,0,0,0,0,0,0,0,0,0,0,0,0,0,0,0,0,0,0,0,0,0,0,0,0,0,0,0,0,0,0,0,0,0,0,0,0,0,0,0,0,0,0,0,0,0,0,0,0,0,0,0,0,0,0,0,0,0,0,0,0,0,0,0,0,0,0,0,0],"left_children":[1,3,5,7,9,11,13,15,17,19,21,23,-1,-1,25,27,29,31,33,35,37,39,-1,-1,-1,41,43,45,47,49,-1,51,53,55,57,59,-1,61,-1,-1,-1,63,65,67,-1,69,71,-1,73,75,77,-1,-1,79,-1,81,-1,83,85,87,-1,89,91,-1,-1,-1,-1,-1,-1,93,95,97,99,-1,101,-1,103,105,-1,107,109,-1,-1,-1,111,113,-1,115,-1,117,-1,-1,-1,-1,-1,-1,-1,-1,-1,-1,-1,-1,-1,-1,-1,-1,-1,-1,-1,-1,-1,-1,-1,-1,-1,-1,-1,-1,-1],"loss_changes":[2.3888325E3,1.44979E2,2.7927032E2,7.025049E1,3.4319496E1,3.4619564E1,4.8303833E0,2.9776367E1,5.4034065E1,1.336464E1,2.9925423E0,3.4801407E0,0E0,0E0,1.5951538E0,2.119336E1,2.6338348E1,2.0117172E1,2.4531733E1,1.0544962E1,4.7810316E0,7.447851E0,0E0,0E0,0E0,5.933811E0,2.5177002E-1,9.215576E0,1.5284779E1,2.4037888E1,0E0,2.707952E0,1.0239021E1,1.6776848E0,1.3606312E1,3.0262814E0,0E0,5.773984E0,0E0,0E0,0E0,4.8329926E-1,2.6488364E-1,5.5988E-1,0E0,1.5097656E0,1.0451477E1,0E0,1.7462097E1,3.5082407E0,6.6762714E0,0E0,0E0,6.526062E0,0E0,2.0515137E0,0E0,4.309107E0,1.0217592E1,8.370762E-1,0E0,6.580676E0,2.56713E0,0E0,0E0,0E0,0E0,0E0,0E0,1.743164E-1,7.3567877E0,6.1535034E0,4.7364974E0,0E0,3.148337E0,0E0,3.0130177E0,2.6400685E0,0E0,6.655884E-1,7.021926E0,0E0,0E0,0E0,4.893329E0,4.6267586E0,0E0,1.8685913E-1,0E0,1.0853388E0,0E0,0E0,0E0,0E0,0E0,0E0,0E0,0E0,0E0,0E0,0E0,0E0,0E0,0E0,0E0,0E0,0E0,0E0,0E0,0E0,0E0,0E0,0E0,0E0,0E0,0E0,0E0,0E0,0E0],"parents":[2147483647,0,0,1,1,2,2,3,3,4,4,5,5,6,6,7,7,8,8,9,9,10,10,11,11,14,14,15,15,16,16,17,17,18,18,19,19,20,20,21,21,25,25,26,26,27,27,28,28,29,29,31,31,32,32,33,33,34,34,35,35,37,37,41,41,42,42,43,43,45,45,46,46,48,48,49,49,50,50,53,53,55,55,57,57,58,58,59,59,61,61,62,62,69,69,70,70,71,71,72,72,74,74,76,76,77,77,79,79,80,80,84,84,85,85,87,87,89,89],"right_children":[2,4,6,8,10,12,14,16,18,20,22,24,-1,-1,26,28,30,32,34,36,38,40,-1,-1,-1,42,44,46,48,50,-1,52,54,56,58,60,-1,62,-1,-1,-1,64,66,68,-1,70,72,-1,74,76,78,-1,-1,80,-1,82,-1,84,86,88,-1,90,92,-1,-1,-1,-1,-1,-1,94,96,98,100,-1,102,-1,104,106,-1,108,110,-1,-1,-1,112,114,-1,116,-1,118,-1,-1,-1,-1,-1,-1,-1,-1,-1,-1,-1,-1,-1,-1,-1,-1,-1,-1,-1,-1,-1,-1,-1,-1,-1,-1,-1,-1,-1],"split_conditions":[1.1084726E0,3.465736E-1,5E-1,1.2924812E0,5.80482E-1,8.9587975E-1,-2.1533827E-1,8.9587975E-1,7.2672266E-1,5E-1,1.2924812E0,6.8260616E-1,1.2677437E-2,-4.8127657E-4,1.6989778E0,8.785598E-1,8.9794445E-1,-8.5074544E-1,9.2484117E-1,8.9587975E-1,8.198693E-1,4.1062653E-1,1.623329E-2,-1.8072563E-3,-1.7622136E-2,1.3625718E0,7.304958E-1,5E-1,1.1314719E-1,5.6902885E-1,-1.5975539E-2,3.413031E-1,1.2424533E0,1.2830945E0,6.259648E-1,1.2924812E0,1.1377484E-2,-2.5E-1,-1.0474827E-2,1.2256291E-2,-1.0661301E-2,1.4978662E0,1.1887219E0,1.1514596E0,1.7677123E-2,8.9587975E-1,1.5772133E0,-1.6261876E-2,5E-1,-8.5074544E-1,8.9587975E-1,-1.680844E-3,1.3037387E-2,7.174754E-1,4.8168777E-3,1.2924812E0,1.6168883E-2,1.7924812E0,1.0170287E0,8.9587975E-1,2.1184816E-3,3.465736E-1,-1.934264E-1,1.6023759E-2,5.59001E-3,2.1878576E-3,-2.4783523E-3,1.0895614E-2,1.3019242E-3,1.4978662E0,-2.5E-1,-8.5074544E-1,3.413031E-1,1.26323495E-2,1.0039778E0,2.8213381E-3,-2.1533827E-1,1.2424533E0,1.6031498E-2,5E-1,1.4400764E0,-2.0429557E-3,1.1248706E-2,-1.5980035E-2,5.8722043E-1,1.0424812E0,-1.2583622E-2,-8.5074544E-1,-4.1896733E-3,-1.934264E-1,1.1321754E-2,-6.9147674E-4,1.3483704E-2,-1.7908594E-2,-1.0193756E-2,2.3079966E-3,-1.6004164E-2,-1.1625075E-2,-1.6435241E-2,4.7458475E-3,-9.473153E-3,-1.4571863E-2,1.9958229E-3,-7.782867E-4,-1.5930839E-2,-3.4010329E-3,8.918377E-3,-1.7835379E-2,-8.615927E-3,3.3234667E-3,-1.2754279E-2,-1.1326841E-2,8.142827E-3,-1.3301788E-4,1.5435049E-2,-6.702894E-3,-1.4714912E-2,-1.5949715E-3,-1.2660918E-2],"split_indices":[16,10,8,7,4,18,2,6,4,8,7,2,0,0,1,13,2,16,14,6,17,2,0,0,0,14,17,7,14,16,0,2,18,1,17,7,0,4,0,0,0,18,4,16,0,3,1,0,2,16,3,0,0,16,0,8,0,8,16,18,0,3,14,0,0,0,0,0,0,18,4,16,17,0,13,0,2,6,0,2,1,0,0,0,16,4,0,16,0,14,0,0,0,0,0,0,0,0,0,0,0,0,0,0,0,0,0,0,0,0,0,0,0,0,0,0,0,0,0],"sum_hessian":[1.5664625E3,1.2182626E3,3.4819998E2,1.1703075E3,4.795505E1,3.2827316E1,3.1537265E2,1.0824358E3,8.787168E1,3.247689E1,1.5478161E1,2.8968023E1,3.8592942E0,1.4670136E0,3.1390564E2,1.041594E3,4.0841866E1,5.7344303E1,3.0527376E1,1.9015717E1,1.3461176E1,4.398573E0,1.1079588E1,1.7189779E0,2.7249046E1,1.5954769E1,2.979509E2,1.02385675E3,1.7737236E1,2.1050158E1,1.9791708E1,3.8993165E0,5.344499E1,1.2093425E1,1.8433952E1,1.7564634E1,1.4510819E0,1.2215776E1,1.2453986E0,3.151292E0,1.247281E0,1.3005726E1,2.9490438E0,2.661101E0,2.952898E2,7.594735E2,2.6438324E2,6.958438E0,1.0778798E1,9.622059E0,1.1428099E1,1.7255263E0,2.1737905E0,5.1248577E1,2.1964116E0,3.1674156E0,8.926009E0,9.399161E0,9.034791E0,1.6338284E1,1.2263513E0,5.1680703E0,7.0477066E0,1.1061587E1,1.9441385E0,1.2263641E0,1.7226797E0,1.4428947E0,1.2182065E0,7.4960754E2,9.865946E0,2.5675824E2,7.624978E0,5.8309565E0,4.947842E0,1.220356E0,8.401703E0,5.640604E0,5.787494E0,4.0888817E1,1.0359758E1,1.718757E0,1.4486587E0,6.208528E0,3.190633E0,7.287605E0,1.7471858E0,1.41187935E1,2.21949E0,3.7190762E0,1.4489942E0,1.4684473E0,5.5792594E0,7.44911E2,4.6965485E0,2.684777E0,7.181169E0,4.3967678E1,2.1279057E2,3.4222836E0,4.2026944E0,3.7229793E0,1.2248629E0,1.7104174E0,6.6912856E0,3.9386294E0,1.7019747E0,3.7179516E1,3.7093E0,3.6661491E0,6.6936088E0,1.4943506E0,1.6962825E0,2.9435313E0,4.344074E0,2.9633882E0,1.1155406E1,1.7248144E0,1.9942617E0],"tree_param":{"num_deleted":"0","num_feature":"19","num_nodes":"119","size_leaf_vector":"0"}},{"base_weights":[-8.838059E-1,-1.5420635E0,1.4694644E0,-1.6096283E0,2.482884E-1,-8.8841766E-1,1.668662E0,-1.6393144E0,-1.7792057E-1,-6.396726E-1,1.3891306E0,-1.4985793E0,1.5297115E0,4.5566872E-1,1.707478E0,-1.6479166E0,1.009983E0,-7.3989433E-1,1.2449707E0,-1.3867351E0,-1.9450851E-1,1.5022972E0,-3.6387626E-2,4.269345E-1,-1.7282201E0,-4.3749014E-1,1.5254707E0,3.9167804E-1,1.7209172E0,-1.7224238E0,-1.4613863E0,2.093617E-1,1.253704E0,-2.058393E-1,-1.6124443E0,-2.5824929E-2,1.5570194E0,-6.9739246E-1,-1.5876266E0,2.395803E-1,-1.4400159E0,4.3342558E-1,1.6174788E0,8.490073E-1,-1.4495044E0,1.2777755E0,-1.0345129E0,1.1000857E0,1.7486645E0,-1.7468697E0,-8.385968E-1,-9.457902E-1,-1.5456889E0,-1.1546714E0,7.8569734E-1,-1.1267859E0,1.6930483E-2,-1.2327505E0,5.8629274E-1,1.78267E-1,1.1115379E0,-1.282822E0,1.4896286E0,-1.7631059E0,-7.655733E-1,-1.6902592E0,5.3087944E-1,-1.2256006E0,2.888678E-1,-1.6492383E0,-1.034468E0,2.6676002E-1,-1.505872E0,-1.0399309E0,1.3774834E0,1.1518077E0,8.3322835E-4,1.5959479E0,5.476087E-1,-1.7664368E0,-7.8113526E-1,-1.5778946E0,-3.9860304E-2,-1.2903414E0,1.3009299E0,-1.3683462E0,-3.882978E-1,7.4420893E-1,-1.1966869E0,-1.7014503E0,-1.3318846E0,-6.135867E-1,-1.7413636E0,2.1546066E-1,1.3426348E0,-5.0835514E-1,1.1313457E0],"default_left":[true,true,true,true,true,true,true,true,true,true,true,true,false,true,true,true,true,true,true,true,true,true,false,false,false,true,false,true,true,true,true,false,false,true,false,false,false,true,false,true,false,false,false,true,false,false,false,true,false,true,true,true,true,true,true,false,false,false,true,false,false,false,true,true,true,false,true,true,true,true,true,false,false,false,false,true,true,false,false,false,false,false,false,false,false,false,false,false,false,false,false,false,false,false,false,false,false],"id":12,"leaf_child_counts":[0,0,0,0,0,0,0,0,0,0,0,0,0,0,0,0,0,0,0,0,0,0,0,0,0,0,0,0,0,0,0,0,0,0,0,0,0,0,0,0,0,0,0,0,0,0,0,0,0,0,0,0,0,0,0,0,0,0,0,0,0,0,0,0,0,0,0,0,0,0,0,0,0,0,0,0,0,0,0,0,0,0,0,0,0,0,0,0,0,0,0,0,0,0,0,0,0],"left_children":[1,3,5,7,9,11,13,15,17,19,21,23,-1,25,27,29,31,33,35,37,39,41,-1,-1,-1,43,-1,45,47,49,51,-1,-1,53,-1,-1,-1,55,-1,57,-1,-1,-1,59,-1,-1,-1,61,-1,63,65,67,69,71,73,-1,-1,-1,75,-1,-1,-1,77,79,81,-1,83,85,87,89,91,-1,-1,-1,-1,93,95,-1,-1,-1,-1,-1,-1,-1,-1,-1,-1,-1,-1,-1,-1,-1,-1,-1,-1,-1,-1],"loss_changes":[2.4449211E3,1.4951074E2,1.6360907E2,5.019995E1,4.7177647E1,4.2929794E1,1.422467E1,2.8185303E1,2.1114964E1,8.503163E0,3.3318176E0,1.068597E1,0E0,1.1411416E1,4.779358E0,1.3609131E1,5.934267E-1,8.396595E0,3.023427E0,2.3423958E-1,9.9108095E0,1.6189194E0,0E0,0E0,0E0,1.0220951E1,0E0,6.898356E0,3.3300781E0,1.6328857E1,1.3220642E1,0E0,0E0,1.2917193E1,0E0,0E0,0E0,1.2365576E0,0E0,7.857919E0,0E0,0E0,0E0,4.4826555E-1,0E0,0E0,0E0,1.6525024E1,0E0,1.1403564E1,2.899312E1,1.7643467E1,1.3579224E1,3.8603344E0,8.8195305E0,0E0,0E0,0E0,3.969111E0,0E0,0E0,0E0,5.2765465E-1,1.1933594E0,8.659556E0,0E0,1.5699549E1,4.367897E0,7.692594E0,1.6845703E0,1.4199657E1,0E0,0E0,0E0,0E0,8.004322E-1,4.5426683E0,0E0,0E0,0E0,0E0,0E0,0E0,0E0,0E0,0E0,0E0,0E0,0E0,0E0,0E0,0E0,0E0,0E0,0E0,0E0,0E0],"parents":[2147483647,0,0,1,1,2,2,3,3,4,4,5,5,6,6,7,7,8,8,9,9,10,10,11,11,13,13,14,14,15,15,16,16,17,17,18,18,19,19,20,20,21,21,25,25,27,27,28,28,29,29,30,30,33,33,37,37,39,39,43,43,47,47,49,49,50,50,51,51,52,52,53,53,54,54,58,58,62,62,63,63,64,64,66,66,67,67,68,68,69,69,70,70,75,75,76,76],"right_children":[2,4,6,8,10,12,14,16,18,20,22,24,-1,26,28,30,32,34,36,38,40,42,-1,-1,-1,44,-1,46,48,50,52,-1,-1,54,-1,-1,-1,56,-1,58,-1,-1,-1,60,-1,-1,-1,62,-1,64,66,68,70,72,74,-1,-1,-1,76,-1,-1,-1,78,80,82,-1,84,86,88,90,92,-1,-1,-1,-1,94,96,-1,-1,-1,-1,-1,-1,-1,-1,-1,-1,-1,-1,-1,-1,-1,-1,-1,-1,-1,-1],"split_conditions":[9.855031E-1,3.465736E-1,5E-1,1.7924812E0,1.2830945E0,8.9587975E-1,1.1020124E0,2.29756E0,8.9587975E-1,-2.5E-1,7.5297076E-1,6.460148E-1,1.5297115E-2,1.2424533E0,5E-1,5E-1,1.1496079E0,1.1868433E0,1.1744424E0,-1.211933E0,1.0097067E0,1.2924812E0,-3.6387626E-4,4.269345E-3,-1.7282201E-2,1.0187355E0,1.5254707E-2,1.951646E0,1.6989778E0,8.9587975E-1,-8.5074544E-1,2.0936169E-3,1.2537039E-2,1.4624062E-1,-1.6124442E-2,-2.582493E-4,1.55701935E-2,5E-1,-1.5876265E-2,-1.934264E-1,-1.4400159E-2,4.3342556E-3,1.6174788E-2,1.1315663E0,-1.4495043E-2,1.2777755E-2,-1.0345128E-2,9.6035826E-1,1.7486645E-2,8.785598E-1,3.465736E-1,1.2596482E-1,4.2460614E-1,8.782354E-1,8.1139123E-1,-1.1267859E-2,1.6930483E-4,-1.2327505E-2,5.994889E-1,1.78267E-3,1.1115379E-2,-1.282822E-2,1.3960782E0,1.4978662E0,1.1314719E-1,-1.6902592E-2,8.782354E-1,-6.811519E-1,3.465736E-1,3.9624062E-1,5E-1,2.6676E-3,-1.505872E-2,-1.0399309E-2,1.3774834E-2,-1.6627483E-1,9.261235E-1,1.5959479E-2,5.4760864E-3,-1.7664367E-2,-7.8113526E-3,-1.5778946E-2,-3.9860304E-4,-1.2903414E-2,1.3009299E-2,-1.3683462E-2,-3.8829779E-3,7.4420893E-3,-1.1966868E-2,-1.7014503E-2,-1.3318846E-2,-6.135867E-3,-1.7413637E-2,2.1546066E-3,1.3426348E-2,-5.083551E-3,1.1313457E-2],"split_indices":[11,10,7,8,1,18,16,18,3,4,13,2,0,18,8,7,0,0,0,11,0,7,0,0,0,14,0,1,1,3,16,0,0,4,0,0,0,8,0,14,0,0,0,11,0,0,0,13,0,13,18,2,13,1,0,0,0,0,1,0,0,0,16,18,14,0,1,11,3,4,2,0,0,0,0,11,0,0,0,0,0,0,0,0,0,0,0,0,0,0,0,0,0,0,0,0,0],"sum_hessian":[1.5758647E3,1.2316827E3,3.44182E2,1.1869888E3,4.4693966E1,2.6542385E1,3.1763965E2,1.1627347E3,2.4254026E1,2.5379461E1,1.9314505E1,2.1498089E1,5.044296E0,1.0244376E1,3.0739526E2,1.1593484E3,3.3863702E0,1.77311E1,6.522927E0,8.686648E0,1.6692814E1,1.784407E1,1.4704337E0,2.1991677E0,1.9298922E1,5.9052463E0,4.3391304E0,3.4126663E0,3.039826E2,8.225547E2,3.3679367E2,1.2241313E0,2.1622388E0,1.1765677E1,5.9654226E0,1.4667861E0,5.056141E0,2.9692836E0,5.7173653E0,1.2977494E1,3.7153194E0,2.1991549E0,1.5644916E1,2.6709456E0,3.2343004E0,2.169076E0,1.2435904E0,1.4743796E1,2.892388E2,7.9946564E2,2.3089031E1,4.9046093E1,2.877476E2,5.928237E0,5.8374405E0,1.493871E0,1.4754127E0,1.9864402E0,1.0991054E1,1.2236559E0,1.4472898E0,1.7493768E0,1.299442E1,7.856696E2,1.3796053E1,1.4091464E1,8.997566E0,3.9990406E1,9.055686E0,2.3742943E2,5.0318153E1,1.2221607E0,4.706076E0,1.2436308E0,4.5938096E0,5.098696E0,5.8923573E0,1.105279E1,1.9416299E0,7.8221735E2,3.4522717E0,5.95552E0,7.8405333E0,2.473029E0,6.5245376E0,3.3623886E1,6.366521E0,7.3131504E0,1.7425361E0,2.0014032E2,3.7289112E1,3.271051E1,1.7607641E1,1.2236421E0,3.8750541E0,4.4419937E0,1.4503635E0],"tree_param":{"num_deleted":"0","num_feature":"19","num_nodes":"97","size_leaf_vector":"0"}},{"base_weights":[-8.89635E-1,-1.4931649E0,1.562114E0,-1.587128E0,7.7859634E-1,-2.0572798E-1,1.6745006E0,-1.6259104E0,-3.5513628E-1,-1.4739822E0,1.0314837E0,-1.3548561E0,7.73226E-1,1.621586E-1,1.7161243E0,-1.6448772E0,1.3755755E-1,-7.649291E-1,1.0310172E0,-1.3921987E0,1.2344692E0,-1.616115E0,1.8782553E-1,-5.185938E-1,1.208996E0,-1.3792715E0,1.1873064E0,-1.6693479E0,-7.2125196E-1,-4.980238E-1,1.433043E0,-1.0019602E0,4.1877276E-1,1.435183E0,6.039056E-2,4.2798826E-3,1.4913698E0,2.5996944E-1,-1.0578612E0,5.116976E-1,1.5267522E0,1.4396099E0,1.2791078E-1,-1.7466075E0,-1.4705409E0,-1.1289759E0,3.255075E-1,-1.1640117E0,7.638282E-1,-5.349739E-1,-1.6550792E0,1.0619638E0,-1.0303683E0,1.0936977E0,-1.0890794E0,-5.865309E-1,1.0279318E0,1.0558497E0,1.6808393E0,1.1083215E0,-2.1305114E-1,-1.756119E0,-1.1157169E0,-1.5407954E0,-9.68393E-1,-1.3422968E0,1.1782076E0,1.3053988E0,-1.3735969E0,-1.492912E0,1.6994919E-1,1.1998626E0,2.1488095E-2,-1.0455137E0,1.2792797E-1,1.326511E0,2.0699587E-1,6.877318E-1,-1.3837923E0,3.4975976E-1,1.3919423E0,-1.7595466E0,-4.748646E-1,-1.0793353E-1,-1.6170685E0,-1.567424E0,1.6601147E-1,-1.884963E-1,-1.5201617E0,-1.5759271E0,3.2097077E-1,2.4410084E-1,1.5034761E0,-4.8537606E-1,-1.468394E0,-7.56925E-1,9.0086555E-1,6.586098E-1,-2.2353083E-1],"default_left":[true,true,true,true,true,true,true,true,true,false,true,true,true,true,false,true,true,true,true,false,true,false,false,true,true,false,true,true,true,true,false,true,true,false,true,true,true,false,false,true,false,false,false,true,true,true,true,true,true,true,false,true,false,false,false,true,false,true,false,false,false,true,true,true,true,true,false,true,false,false,false,false,false,true,true,false,false,false,false,true,false,false,false,false,false,false,false,false,false,false,false,false,false,false,false,false,false,false,false],"id":13,"leaf_child_counts":[0,0,0,0,0,0,0,0,0,0,0,0,0,0,0,0,0,0,0,0,0,0,0,0,0,0,0,0,0,0,0,0,0,0,0,0,0,0,0,0,0,0,0,0,0,0,0,0,0,0,0,0,0,0,0,0,0,0,0,0,0,0,0,0,0,0,0,0,0,0,0,0,0,0,0,0,0,0,0,0,0,0,0,0,0,0,0,0,0,0,0,0,0,0,0,0,0,0,0],"left_children":[1,3,5,7,9,11,13,15,17,-1,19,21,23,25,-1,27,29,31,33,-1,35,-1,-1,37,39,-1,41,43,45,47,-1,49,51,-1,53,55,57,-1,-1,59,-1,-1,-1,61,63,65,67,69,71,73,-1,75,-1,-1,-1,77,-1,79,-1,-1,-1,81,83,85,87,89,-1,91,-1,-1,-1,-1,-1,93,95,-1,-1,-1,-1,97,-1,-1,-1,-1,-1,-1,-1,-1,-1,-1,-1,-1,-1,-1,-1,-1,-1,-1,-1],"loss_changes":[2.2864822E3,2.6576562E2,6.102527E1,5.629663E1,2.9941044E1,2.2586031E1,1.7805176E1,3.8815918E1,2.2150898E1,0E0,2.4075893E1,3.999794E0,6.805368E0,1.5541789E1,0E0,2.4596436E1,1.1582138E1,8.724646E0,3.446723E0,0E0,1.3413246E1,0E0,0E0,1.7311659E0,1.1036787E0,0E0,1.3719893E0,1.4501221E1,1.3693596E1,8.954479E0,0E0,6.726267E0,6.354523E0,0E0,5.5761194E0,5.645852E0,1.1236267E0,0E0,0E0,2.0380294E0,0E0,0E0,0E0,2.8112793E0,9.703003E0,1.2751366E1,1.765831E1,3.18365E0,1.2428262E0,5.5587254E0,0E0,7.208843E-1,0E0,0E0,0E0,6.9696608E0,0E0,2.6782742E0,0E0,0E0,0E0,2.5961914E0,7.1766243E0,1.2836121E1,1.7632374E1,8.760159E0,0E0,1.0112667E0,0E0,0E0,0E0,0E0,0E0,1.4580574E0,6.061086E0,0E0,0E0,0E0,0E0,1.1452713E0,0E0,0E0,0E0,0E0,0E0,0E0,0E0,0E0,0E0,0E0,0E0,0E0,0E0,0E0,0E0,0E0,0E0,0E0,0E0],"parents":[2147483647,0,0,1,1,2,2,3,3,4,4,5,5,6,6,7,7,8,8,10,10,11,11,12,12,13,13,15,15,16,16,17,17,18,18,20,20,23,23,24,24,26,26,27,27,28,28,29,29,31,31,32,32,34,34,35,35,36,36,39,39,43,43,44,44,45,45,46,46,47,47,48,48,49,49,51,51,55,55,57,57,61,61,62,62,63,63,64,64,65,65,67,67,73,73,74,74,79,79],"right_children":[2,4,6,8,10,12,14,16,18,-1,20,22,24,26,-1,28,30,32,34,-1,36,-1,-1,38,40,-1,42,44,46,48,-1,50,52,-1,54,56,58,-1,-1,60,-1,-1,-1,62,64,66,68,70,72,74,-1,76,-1,-1,-1,78,-1,80,-1,-1,-1,82,84,86,88,90,-1,92,-1,-1,-1,-1,-1,94,96,-1,-1,-1,-1,98,-1,-1,-1,-1,-1,-1,-1,-1,-1,-1,-1,-1,-1,-1,-1,-1,-1,-1,-1],"split_conditions":[8.836855E-1,1.7924812E0,1.1084726E0,3.465736E-1,5E-1,3.465736E-1,5E-1,1.4978662E0,5.80482E-1,-1.4739822E-2,-2.1533827E-1,1.2424533E0,8.198693E-1,1.0685995E0,1.7161243E-2,8.40001E-1,1.1229632E0,5.2789545E-1,9.682965E-1,-1.3921986E-2,3.465736E-1,-1.616115E-2,1.8782553E-3,3.9624062E-1,9.943886E-1,-1.3792715E-2,2.0357618E0,5E-1,3.465736E-1,7.1415865E-1,1.433043E-2,-2.1533827E-1,9.672679E-1,1.435183E-2,8.480793E-1,9.130748E-1,2.4534454E0,2.5996943E-3,-1.0578612E-2,8.163434E-1,1.5267522E-2,1.4396098E-2,1.2791078E-3,7.919446E-1,4.2460614E-1,1.0927706E0,8.288113E-1,2.3410656E0,1.2596482E-1,-2.5E-1,-1.6550792E-2,5.5229425E-1,-1.0303683E-2,1.0936976E-2,-1.0890794E-2,8.3688356E-2,1.0279318E-2,5E-1,1.6808392E-2,1.10832155E-2,-2.1305114E-3,1.0283043E0,4.1062653E-1,8.9587975E-1,1.2596482E-1,1.1229632E0,1.1782076E-2,8.497846E-1,-1.3735969E-2,-1.492912E-2,1.6994919E-3,1.19986255E-2,2.1488094E-4,-1.934264E-1,-1.1537331E-1,1.326511E-2,2.0699587E-3,6.877318E-3,-1.3837922E-2,1.2314148E0,1.3919422E-2,-1.7595466E-2,-4.7486457E-3,-1.0793352E-3,-1.6170684E-2,-1.567424E-2,1.6601146E-3,-1.884963E-3,-1.5201617E-2,-1.575927E-2,3.2097076E-3,2.4410083E-3,1.5034761E-2,-4.8537604E-3,-1.468394E-2,-7.5692497E-3,9.008655E-3,6.586098E-3,-2.2353083E-3],"split_indices":[15,8,16,10,7,6,8,18,4,0,2,18,17,13,0,12,4,12,16,0,18,0,0,4,15,0,2,7,6,12,0,2,17,0,4,16,7,0,0,12,0,0,0,12,13,12,13,18,2,4,0,12,0,0,0,16,0,2,0,0,0,13,2,6,2,4,0,16,0,0,0,0,0,14,16,0,0,0,0,14,0,0,0,0,0,0,0,0,0,0,0,0,0,0,0,0,0,0,0],"sum_hessian":[1.5426533E3,1.2382363E3,3.04417E2,1.1893447E3,4.889158E1,1.8146223E1,2.8627078E2,1.1527375E3,3.6607216E1,4.447461E0,4.444412E1,8.170932E0,9.97529E0,7.7990294E0,2.7847174E2,1.1405378E3,1.2199695E1,2.860021E1,8.007004E0,2.9818406E0,4.1462276E1,6.9468555E0,1.2240767E0,2.4682415E0,7.5070486E0,2.9771295E0,4.8219E0,1.1103137E3,3.0224117E1,8.597315E0,3.6023803E0,2.3956553E1,4.643657E0,5.3151693E0,2.6918344E0,7.3384027E0,3.4123875E1,1.221963E0,1.2462784E0,3.1671836E0,4.3398647E0,3.6045506E0,1.2173495E0,7.939761E2,3.1633768E2,2.1695103E1,8.529016E0,5.678054E0,2.9192605E0,1.5029457E1,8.927096E0,3.401225E0,1.2424324E0,1.4430952E0,1.2487392E0,4.9236755E0,2.4147272E0,1.2337406E1,2.1786469E1,1.4468588E0,1.7203249E0,7.8042664E2,1.3549441E1,2.75697E2,4.0640667E1,2.0241768E1,1.4533337E0,5.5563335E0,2.9726822E0,4.4593925E0,1.2186617E0,1.4507798E0,1.4684808E0,8.164396E0,6.8650603E0,2.1762948E0,1.2249303E0,1.9478344E0,2.9758413E0,4.6367726E0,7.7006335E0,7.7797205E2,2.4545906E0,4.9050083E0,8.644433E0,2.7154224E2,4.154782E0,1.7395144E1,2.3245523E1,1.7794748E1,2.4470205E0,1.2250211E0,4.331312E0,4.4361534E0,3.7282429E0,3.2104633E0,3.654597E0,2.9166539E0,1.7201189E0],"tree_param":{"num_deleted":"0","num_feature":"19","num_nodes":"99","size_leaf_vector":"0"}},{"base_weights":[-8.8600904E-1,-1.4941578E0,1.5421003E0,-1.5676439E0,6.35142E-1,-3.621926E-1,1.6758648E0,-1.6058192E0,-2.8961122E-1,-5.874584E-2,1.6892642E0,-1.3240961E0,1.4901533E0,-7.004308E-1,1.7025928E0,-1.6163651E0,1.1131117E0,-6.2165827E-1,8.581533E-1,-8.3027464E-1,1.362141E0,-1.6686479E0,1.0699152E0,1.8871555E-1,-1.164453E0,-9.991083E-2,1.7121608E0,-1.6741539E0,-1.1848929E0,2.0775332E-1,1.345455E0,-7.557942E-1,1.1176597E0,1.2695043E0,-3.3663464E-1,-1.4346946E0,3.3742672E-1,-2.8990898E-2,1.6141359E0,1.7213202E0,9.0567356E-1,-1.7311625E0,-1.5007834E0,-1.4301808E0,-2.6593196E-1,-3.5152033E-1,-1.6103679E0,1.919973E-1,1.4816364E0,4.696688E-2,-1.6487641E0,9.8625124E-1,-1.1905684E0,-1.3812752E-1,1.3355733E0,-1.7377832E0,-1.0967553E0,-1.518481E0,1.4030114E-1,-1.475437E0,1.1712987E0,2.690034E-1,-1.6148092E0,-9.414873E-1,4.0582186E-1,-2.3574123E-2,1.3755093E0,-1.7412531E0,-9.378794E-1,-1.5887859E0,5.4454476E-1,-1.5631919E0,-9.8440546E-1,1.1853768E0,-1.0637265E0,-1.5146912E0,-3.9258805E-1,-8.7705666E-1,8.1505805E-1,4.717342E-2,-1.5763867E0,-1.0455209E0,7.5912225E-1],"default_left":[true,true,true,true,true,true,true,true,true,true,false,true,false,true,true,true,true,true,true,true,true,false,false,false,false,false,true,true,true,false,false,true,false,true,false,true,true,false,false,false,true,true,true,true,true,true,false,false,false,false,false,true,false,false,false,true,true,true,true,true,false,true,false,true,true,false,false,false,false,false,false,false,false,false,false,false,false,false,false,false,false,false,false],"id":14,"leaf_child_counts":[0,0,0,0,0,0,0,0,0,0,0,0,0,0,0,0,0,0,0,0,0,0,0,0,0,0,0,0,0,0,0,0,0,0,0,0,0,0,0,0,0,0,0,0,0,0,0,0,0,0,0,0,0,0,0,0,0,0,0,0,0,0,0,0,0,0,0,0,0,0,0,0,0,0,0,0,0,0,0,0,0,0,0],"left_children":[1,3,5,7,9,11,13,15,17,19,-1,21,-1,23,25,27,29,31,33,35,37,-1,-1,-1,-1,-1,39,41,43,-1,-1,45,-1,47,-1,49,51,-1,-1,-1,53,55,57,59,61,63,-1,-1,-1,-1,-1,65,-1,-1,-1,67,69,71,73,75,-1,77,-1,79,81,-1,-1,-1,-1,-1,-1,-1,-1,-1,-1,-1,-1,-1,-1,-1,-1,-1,-1],"loss_changes":[2.2966318E3,1.9549854E2,8.0005005E1,5.817285E1,3.095152E1,3.988951E1,1.9701538E1,3.525464E1,1.4283522E1,3.007505E1,0E0,1.3775581E1,0E0,1.8494006E0,5.146118E0,2.7006836E1,7.9333305E-1,7.508648E0,4.6125894E0,1.2999513E1,3.4367008E0,0E0,0E0,0E0,0E0,0E0,5.610962E-1,7.512207E0,3.1346405E1,0E0,0E0,8.801544E0,0E0,1.2113762E0,0E0,3.8439217E0,7.972931E0,0E0,0E0,0E0,2.5776873E0,1.3000488E0,7.782898E0,1.4781113E1,2.2717937E1,9.177975E0,0E0,0E0,0E0,0E0,0E0,2.1395931E0,0E0,0E0,0E0,4.5898438E-1,9.420788E0,4.6207886E0,5.91186E0,4.0562134E0,0E0,1.5089794E1,0E0,7.2094755E0,5.5721188E0,0E0,0E0,0E0,0E0,0E0,0E0,0E0,0E0,0E0,0E0,0E0,0E0,0E0,0E0,0E0,0E0,0E0,0E0],"parents":[2147483647,0,0,1,1,2,2,3,3,4,4,5,5,6,6,7,7,8,8,9,9,11,11,13,13,14,