{"meta": "lda", "coef_": [[-0.5355690686660104, 0.07113389634033664, 0.11383367403963693, 0.16253113883890072, -0.09996667728491904, -0.014555069120504893, 0.031439187551839144, -0.01530980570419473, 0.4933940950746285, 0.27475156695789915, 1.594812994580835, 0.07578247919726554, 0.20514058271597024, 0.3438022394930845, 0.14020879356109084, 0.24780756902860396, -0.15189115526156555, -0.103258538856574, 0.07764272275962851]], "intercept_": [-4.499406729140478], "explained_variance_ratio_": [1.0], "means_": [[0.18762972187629895, 0.09829582517938683, 0.4676560121765618, 0.06914546640574037, -0.06713415959991163, 0.0042400521852576645, 0.07583170254403131, 0.20596868884540118, 0.18493150684931506, 0.13160469667318983, 0.09849967384213959, 0.11528981455595998, 0.08974777125462274, 0.08311589475972747, 0.2318982387475585, 0.09992079023390073, 0.12720156555772455, 0.28065883887801696, 0.12002609262883235], [4.941350194994499, 4.585381091211995, 3.7871720116617986, 2.0795501874219076, 5.1256420935720985, 0.02040816326530612, 1.1949187838400666, 3.848396501457726, 3.248646397334444, 2.6264056643065388, 1.3227821740941275, 6.32424584994346, 4.885630987088707, 4.663612383729012, 7.115785089546043, 6.938745760694948, 6.541042681491408, 6.761661807580175, 4.2374010828821325]], "priors_": [0.7186218211648893, 0.28137817883511074], "scalings_": [[0.21083415168180702], [-0.028002839536816364], [-0.04481219604177141], [-0.06398262480753376], [0.03935326148373675], [0.005729803736304662], [-0.012376469861426681], [0.006026916203538471], [-0.19423139155324037], [-0.10815974433904453], [-0.6278201346486983], [-0.02983281830240185], [-0.08075642015727566], [-0.13534249408834498], [-0.05519512566775359], [-0.09755286788053512], [0.059794048501169886], [0.040649148200351135], [-0.030565128841487377]], "xbar_": [1.525222931293479, 1.3608637056135007, 1.40169537872573, 0.6348294855267783, 1.3939997656158385, 0.008789405836165474, 0.3907183874370092, 1.2308683932966131, 1.0469940232040313, 0.8335872495019336, 0.44298605414273995, 1.8623545562605641, 1.4392046564318917, 1.3719676549865236, 2.168873784132202, 2.0242169057943102, 1.9319164980968988, 2.1042716512363766, 1.2785655689675377], "classes_": [0, 1], "params": {"n_components": null, "priors": null, "shrinkage": null, "solver": "svd", "store_covariance": false, "tol": 0.0001}}