{"meta": "lda", "coef_": [[-0.4184267959389302, -0.6490830599779368, 0.18044728991086514, -0.2745546018231705, 0.1240673337888098, 0.621634099455775, 0.20875927531303018, 0.034666856306403676, -0.26039551888223533, 0.09227240971797601, 0.6625478317591873, 0.4727836867738817, 0.09638225955171059, 0.3404331769884203, -0.08573908309340164, 0.5337254186752237, 0.1484401365131281, -0.25502951205588703, 0.1763511334787689, -0.3077105985371418]], "intercept_": [-1.853001727909321], "explained_variance_ratio_": [1.0], "means_": [[0.0034526824043483386, 0.021418501611170305, 0.02621005639097728, 0.13815789473684406, 0.06529605263157895, -0.014262218045112187, 0.005592105263157895, 0.07467105263157894, 0.09967105263157895, 0.0890625, 0.06356907894736842, 0.09901315789473684, 0.006829947446858568, 0.007218567251461514, 0.02605341478696805, 0.006975179425836839, 0.018689404432132878, 0.018209368908382203, 0.00860100619194957, 0.040241228070175585], [4.398823655224607, 2.675154216147172, 2.962050599201064, 3.3991744340878887, 4.929161118508655, 2.587407266501805, 0.07030625832223701, 3.721970705725699, 4.241810918774966, 3.689214380825566, 2.70306258322237, 3.0245006657789615, 3.021803020711577, 3.93964097253049, 3.878809206771948, 2.5240043578259233, 2.957810638447013, 2.7797553878778976, 2.9799483042217845, 3.3233022636484666]], "priors_": [0.6182003050330452, 0.38179969496695476], "scalings_": [[0.2543093915798489], [0.3944965276360253], [-0.109671371324322], [0.16686745309516152], [-0.07540503733745393], [-0.3778137326581695], [-0.12687869134283486], [-0.021069652376073653], [0.1582619149150413], [-0.05608087388937172], [-0.4026800807752729], [-0.28734615684099707], [-0.058578738320726464], [-0.2069068113079353], [0.05211008058690255], [-0.32438502460011287], [-0.09021822017391289], [0.15500058953037088], [-0.10718182940164286], [0.18701884261750978]], "xbar_": [1.6816039790937305, 1.0346139879439296, 1.1471130801074874, 1.3832130147432673, 1.9223182511438741, 0.9790543975597352, 0.030299949161159127, 1.467208947635994, 1.6811387900355872, 1.4635993899339095, 1.0713268937468226, 1.2159633960345706, 1.1579457471529102, 1.5086162420682132, 1.4970344009490015, 0.9679761519619147, 1.1408449950499138, 1.0725667965881516, 1.1430604982206258, 1.2937129300118617], "classes_": [0, 1], "params": {"n_components": null, "priors": null, "shrinkage": null, "solver": "svd", "store_covariance": false, "tol": 0.0001}}