{"meta": "lda", "coef_": [[-0.2654904258309255, -0.04549697061398665, -0.0409507787334961, 0.16502538775695344, -0.1509125305783524, 0.04568896947039975, 0.191179783295866, -0.04772124046750259, 0.6412405955484628, 3.3616824684627127, 1.8094847798749125, 0.06443619990845165, 0.22027308187033906, 0.45855886959763426, 0.22748251107594464, 0.13383566500853328, -0.20405849753273014, 0.006504550381102185, -0.002109858425245192]], "intercept_": [-4.796304814706214], "explained_variance_ratio_": [1.0], "means_": [[0.18762972187629895, 0.09829582517938683, 0.4676560121765618, 0.06914546640574037, -0.06713415959991163, 0.0042400521852576645, 0.07583170254403131, 0.20596868884540118, 0.18493150684931506, 0.01989562948467058, 0.05903457273320287, 0.11528981455595998, 0.08974777125462274, 0.08311589475972747, 0.2318982387475585, 0.09992079023390073, 0.12720156555772455, 0.28065883887801696, 0.12002609262883235], [4.941350194994499, 4.585381091211995, 3.7871720116617986, 2.0795501874219076, 5.1256420935720985, 0.02040816326530612, 1.1949187838400666, 3.848396501457726, 3.248646397334444, 0.4822990420658059, 0.4702207413577676, 6.32424584994346, 4.885630987088707, 4.663612383729012, 7.115785089546043, 6.938745760694948, 6.541042681491408, 6.761661807580175, 4.2374010828821325]], "priors_": [0.7186218211648893, 0.28137817883511074], "scalings_": [[0.10025492456815108], [0.017180639726305708], [0.015463899385766353], [-0.06231715418596484], [0.056987834202189655], [-0.017253142645409558], [-0.07219361938681966], [0.018020572110630045], [-0.24214631219013588], [-1.2694439780379716], [-0.68330057306513], [-0.02433250216485821], [-0.08317987791156208], [-0.17316174298068543], [-0.08590231424396566], [-0.05053924056946496], [0.07705690031422247], [-0.0024562588491323922], [0.000796728155489649]], "xbar_": [1.525222931293479, 1.3608637056135007, 1.40169537872573, 0.6348294855267783, 1.3939997656158385, 0.008789405836165474, 0.3907183874370092, 1.2308683932966131, 1.0469940232040313, 0.1500058596038908, 0.17473338802296962, 1.8623545562605641, 1.4392046564318917, 1.3719676549865236, 2.168873784132202, 2.0242169057943102, 1.9319164980968988, 2.1042716512363766, 1.2785655689675377], "classes_": [0, 1], "params": {"n_components": null, "priors": null, "shrinkage": null, "solver": "svd", "store_covariance": false, "tol": 0.0001}}